<?xml version="1.0"?>
<opencv_storage>
<my_svm type_id="opencv-ml-svm">
  <svm_type>C_SVC</svm_type>
  <kernel><type>RBF</type>
    <gamma>5.0625000000000009e-01</gamma></kernel>
  <C>3.1250000000000000e+02</C>
  <term_criteria><epsilon>2.2204460492503131e-16</epsilon>
    <iterations>100</iterations></term_criteria>
  <var_all>500</var_all>
  <var_count>500</var_count>
  <class_count>2</class_count>
  <class_labels type_id="opencv-matrix">
    <rows>1</rows>
    <cols>2</cols>
    <dt>i</dt>
    <data>
      0 1</data></class_labels>
  <sv_total>11</sv_total>
  <support_vectors>
    <_>
      1.66666675e-02 0. 8.33333377e-03 0. 0. 0. 8.33333377e-03 0.
      8.33333377e-03 0. 0. 0. 1.25000011e-02 4.16666688e-03 0. 0. 0.
      8.33333377e-03 0. 0. 0. 8.33333377e-03 0. 4.16666688e-03 0.
      8.33333377e-03 0. 4.16666688e-03 0. 4.16666688e-03 0. 0. 0. 0. 0.
      0. 8.33333377e-03 0. 4.16666688e-03 0. 0. 0. 0. 4.16666688e-03
      8.33333377e-03 0. 0. 4.16666688e-03 0. 4.16666688e-03
      4.16666688e-03 4.16666688e-03 4.16666688e-03 0. 8.33333377e-03 0.
      4.16666688e-03 4.16666688e-03 0. 0. 4.16666688e-03 0.
      8.33333377e-03 0. 0. 0. 0. 0. 4.16666688e-03 0. 8.33333377e-03 0.
      0. 8.33333377e-03 0. 0. 4.16666688e-03 0. 0. 8.33333377e-03 0. 0.
      4.16666688e-03 0. 4.16666688e-03 0. 0. 0. 0. 2.08333340e-02
      4.16666688e-03 4.16666688e-03 4.16666688e-03 0. 0. 0. 0. 0. 0. 0.
      0. 0. 4.16666688e-03 0. 0. 0. 0. 0. 0. 0. 0. 0. 0. 4.16666688e-03
      0. 0. 0. 0. 0. 0. 8.33333377e-03 0. 4.16666688e-03 0. 0.
      4.16666688e-03 4.16666688e-03 0. 0. 0. 0. 0. 0. 0. 0. 0.
      4.16666688e-03 8.33333377e-03 4.16666688e-03 8.33333377e-03
      4.16666688e-03 8.33333377e-03 0. 4.16666688e-03 0. 0.
      4.16666688e-03 0. 0. 0. 0. 0. 0. 0. 0. 1.66666675e-02 0. 0. 0. 0.
      0. 0. 0. 1.25000011e-02 0. 0. 0. 4.16666688e-03 0. 0. 0. 0. 0.
      2.50000022e-02 1.25000011e-02 4.16666688e-03 8.33333377e-03 0. 0.
      0. 0. 0. 0. 4.16666688e-03 0. 4.16666688e-03 0. 0. 0. 0. 0. 0.
      8.33333377e-03 0. 0. 0. 0. 4.16666688e-03 0. 0. 4.16666688e-03 0.
      0. 0. 0. 0. 0. 0. 0. 4.16666688e-03 0. 0. 0. 0. 0. 0.
      8.33333377e-03 0. 0. 0. 0. 0. 8.33333377e-03 0. 0. 0.
      4.16666688e-03 0. 4.16666688e-03 0. 0. 0. 1.66666675e-02 0.
      4.16666688e-03 0. 0. 0. 0. 0. 0. 0. 0. 0. 0. 4.16666688e-03 0. 0.
      0. 4.16666688e-03 0. 8.33333377e-03 0. 0. 0. 0. 0. 4.16666688e-03
      0. 0. 4.16666688e-03 0. 4.16666688e-03 0. 0. 0. 8.33333377e-03
      4.16666688e-03 4.16666688e-03 0. 8.33333377e-03 0. 0.
      4.16666688e-03 0. 0. 0. 0. 4.16666688e-03 0. 0. 8.33333377e-03 0.
      0. 0. 0. 4.16666688e-03 0. 0. 0. 4.16666688e-03 4.16666688e-03 0.
      0. 0. 4.16666688e-03 0. 8.33333377e-03 4.16666688e-03
      4.16666688e-03 0. 0. 0. 4.16666688e-03 8.33333377e-03
      4.16666688e-03 0. 1.25000011e-02 0. 0. 0. 0. 0. 0. 1.25000011e-02
      0. 0. 8.33333377e-03 0. 0. 0. 0. 0. 4.16666688e-03 2.50000022e-02
      0. 8.33333377e-03 0. 0. 4.16666688e-03 0. 0. 0. 4.16666688e-03 0.
      0. 0. 0. 0. 4.16666688e-03 0. 0. 0. 0. 0. 0. 0. 0. 0.
      4.16666688e-03 4.16666688e-03 8.33333377e-03 0. 0. 0.
      1.66666675e-02 0. 0. 0. 0. 0. 0. 4.16666688e-03 0. 4.16666688e-03
      8.33333377e-03 0. 4.16666688e-03 8.33333377e-03 1.25000011e-02 0.
      0. 4.16666688e-03 8.33333377e-03 1.25000011e-02 0. 4.16666688e-03
      0. 4.16666688e-03 0. 0. 0. 0. 4.16666688e-03 0. 0. 0. 0. 0. 0. 0.
      4.16666688e-03 0. 0. 4.16666688e-03 0. 0. 4.16666688e-03
      4.16666688e-03 0. 0. 0. 8.33333377e-03 0. 4.16666688e-03 0. 0. 0.
      4.16666688e-03 0. 0. 0. 4.16666688e-03 0. 0. 0. 3.75000015e-02
      8.33333377e-03 4.16666688e-03 0. 0. 0. 0. 8.33333377e-03 0. 0. 0.
      4.16666688e-03 4.16666688e-03 0. 0. 0. 0. 0. 0. 0. 0. 0.
      1.66666675e-02 0. 0. 0. 0. 0. 8.33333377e-03 0. 0. 0.
      4.16666688e-03 0. 0. 0. 0. 8.33333377e-03 0. 4.16666688e-03 0. 0.
      4.16666688e-03 4.16666688e-03 0. 0. 0. 8.33333377e-03 0. 0. 0. 0.
      0. 0. 0. 0. 0. 0. 0. 0. 0. 0. 4.16666688e-03 0. 0. 0. 0. 0. 0. 0.
      4.16666688e-03 0. 8.33333377e-03 0. 0. 0. 4.16666688e-03 0.
      1.25000011e-02 0. 0. 0. 8.33333377e-03 0.</_>
    <_>
      0. 1.57977885e-03 3.15955770e-03 0. 0. 1.57977885e-03
      7.89889414e-03 0. 1.42180100e-02 1.57977885e-03 4.73933667e-03 0.
      0. 1.57977885e-03 4.73933667e-03 3.15955770e-03 0. 1.57977885e-03
      0. 4.73933667e-03 0. 0. 0. 0. 0. 1.10584516e-02 1.57977885e-03 0.
      1.57977885e-03 4.73933667e-03 0. 0. 0. 0. 7.89889414e-03
      3.15955770e-03 0. 0. 3.15955770e-03 6.31911540e-03 0. 0. 0.
      1.57977885e-03 6.31911540e-03 0. 1.10584516e-02 4.73933667e-03 0.
      0. 0. 2.05371249e-02 1.57977885e-03 1.57977885e-03 0.
      3.15955770e-03 4.73933667e-03 4.73933667e-03 3.15955770e-03 0. 0.
      0. 3.15955770e-03 0. 0. 1.57977885e-03 0. 0. 0. 3.15955770e-03
      3.15955770e-03 0. 1.57977885e-03 6.31911540e-03 0. 0.
      1.57977885e-03 1.57977885e-03 6.31911540e-03 1.57977885e-03 0.
      3.15955770e-03 1.57977885e-03 0. 3.15955770e-03 1.57977885e-03
      1.57977885e-03 0. 3.15955770e-03 7.89889414e-03 1.57977885e-03
      4.73933667e-03 1.57977885e-03 0. 7.89889414e-03 1.57977885e-03
      1.57977885e-03 6.31911540e-03 0. 0. 1.57977885e-03 0.
      9.47867334e-03 0. 0. 0. 9.47867334e-03 4.73933667e-03
      1.57977885e-03 0. 0. 0. 0. 0. 0. 0. 1.57977885e-03 1.57977885e-03
      0. 0. 6.31911540e-03 0. 3.15955770e-03 0. 3.15955770e-03
      1.57977885e-03 1.57977885e-03 1.57977885e-03 0. 0. 1.57977885e-03
      1.57977885e-03 4.73933667e-03 4.73933667e-03 0. 1.57977885e-03 0.
      1.57977885e-03 0. 0. 3.15955770e-03 3.15955770e-03 0. 0. 0. 0. 0.
      0. 0. 0. 3.15955770e-03 6.31911540e-03 1.57977885e-03
      6.31911540e-03 0. 1.57977885e-03 0. 0. 0. 0. 1.57977885e-03 0. 0.
      0. 1.57977885e-03 4.73933667e-03 0. 0. 4.73933667e-03
      1.57977885e-03 0. 4.73933667e-03 0. 1.57977885e-03 6.31911540e-03
      4.73933667e-03 1.42180100e-02 0. 0. 1.57977885e-03 1.57977885e-03
      0. 0. 3.15955770e-03 1.57977885e-03 3.15955770e-03 3.15955770e-03
      1.57977885e-03 1.26382308e-02 0. 0. 1.57977885e-03 6.31911540e-03
      0. 0. 0. 1.57977885e-03 0. 1.57977885e-03 1.57977885e-03 0.
      1.57977885e-03 0. 0. 0. 0. 3.15955770e-03 3.15955770e-03
      7.89889414e-03 1.57977885e-03 3.15955770e-03 3.15955770e-03
      1.57977885e-03 0. 3.15955770e-03 0. 4.73933667e-03 0. 0.
      7.89889414e-03 0. 0. 3.15955770e-03 1.57977885e-03 0. 0.
      6.31911540e-03 1.57977885e-03 0. 0. 0. 0. 3.15955770e-03 0.
      4.73933667e-03 0. 4.73933667e-03 6.31911540e-03 0. 0. 0. 0.
      1.57977885e-03 4.73933667e-03 0. 3.15955770e-03 0. 1.57977885e-03
      3.15955770e-03 0. 0. 1.26382308e-02 4.73933667e-03 1.57977885e-03
      0. 3.15955770e-03 1.57977885e-03 0. 7.89889414e-03 1.57977885e-03
      1.57977885e-03 0. 3.15955770e-03 0. 1.57977885e-03 1.57977885e-03
      4.73933667e-03 1.10584516e-02 0. 1.57977885e-03 3.15955770e-03
      6.31911540e-03 3.15955770e-03 1.57977885e-03 1.57977885e-03
      3.15955770e-03 1.57977885e-03 0. 3.15955770e-03 4.73933667e-03 0.
      0. 1.57977885e-03 3.15955770e-03 3.15955770e-03 0. 0. 0.
      1.57977885e-03 0. 0. 7.89889414e-03 0. 1.57977885e-03
      1.57977885e-03 3.15955770e-03 1.57977885e-03 1.57977885e-03
      3.15955770e-03 3.15955770e-03 7.89889414e-03 0. 0. 3.15955770e-03
      0. 0. 1.57977885e-03 7.89889414e-03 0. 1.57977885e-03 0. 0.
      1.57977885e-03 3.15955770e-03 7.89889414e-03 0. 0. 0. 0.
      6.31911540e-03 0. 0. 0. 4.73933667e-03 4.73933667e-03
      3.15955770e-03 3.15955770e-03 4.73933667e-03 0. 3.15955770e-03 0.
      7.89889414e-03 4.73933667e-03 3.15955770e-03 0. 1.57977885e-03 0.
      3.15955770e-03 3.15955770e-03 3.15955770e-03 3.15955770e-03
      1.57977885e-03 3.15955770e-03 1.57977885e-03 0. 3.15955770e-03
      4.73933667e-03 0. 4.73933667e-03 4.73933667e-03 4.73933667e-03
      1.57977885e-03 0. 1.57977885e-03 0. 1.57977885e-03 0.
      6.31911540e-03 1.57977885e-03 0. 0. 1.57977885e-03 1.57977885e-03
      0. 3.15955770e-03 0. 0. 1.57977885e-03 1.10584516e-02
      1.57977885e-03 3.15955770e-03 4.73933667e-03 1.57977885e-03
      3.15955770e-03 1.57977885e-03 0. 0. 0. 0. 1.57977885e-03
      6.31911540e-03 1.57977885e-03 4.73933667e-03 0. 0. 1.57977885e-03
      1.57977885e-03 0. 1.57977885e-03 0. 3.15955770e-03 6.31911540e-03
      1.57977885e-03 0. 3.15955770e-03 3.15955770e-03 0. 1.57977885e-03
      3.15955770e-03 0. 0. 0. 1.57977885e-03 0. 1.57977885e-03 0. 0. 0.
      3.15955770e-03 0. 3.15955770e-03 0. 0. 0. 0. 0. 1.57977885e-03
      1.26382308e-02 1.57977885e-03 0. 0. 4.73933667e-03 0.
      3.15955770e-03 0. 0. 0. 1.57977885e-03 0. 0. 1.57977885e-03
      4.73933667e-03 3.15955770e-03 0. 0. 0. 0. 0. 1.57977885e-03 0.
      7.89889414e-03 0. 0. 0. 1.57977885e-03 1.57977885e-03
      1.57977885e-03 4.73933667e-03 4.73933667e-03 1.57977885e-03
      3.15955770e-03 0. 1.57977885e-03 3.15955770e-03 1.57977885e-03
      9.47867334e-03 0. 0. 3.15955770e-03 0. 3.15955770e-03
      3.15955770e-03 1.57977885e-03 1.57977885e-03 4.73933667e-03 0. 0.
      7.89889414e-03 0. 1.57977885e-03 0. 1.57977885e-03 0.
      4.73933667e-03 0. 1.57977885e-03 1.57977885e-03 0. 0.
      3.15955770e-03 3.15955770e-03 0. 1.57977885e-03 1.57977885e-03 0.
      1.57977885e-03 4.73933667e-03 1.57977885e-03 7.89889414e-03 0. 0.
      3.15955770e-03 9.47867334e-03 1.57977885e-03 4.73933667e-03
      1.57977885e-03 0. 0. 3.15955770e-03 1.57977885e-03</_>
    <_>
      2.32018549e-02 4.64037107e-03 0. 0. 2.32018554e-03 0. 0. 0. 0. 0.
      0. 0. 2.32018554e-03 4.64037107e-03 6.96055684e-03 0. 0.
      6.96055684e-03 0. 2.32018554e-03 2.32018554e-03 0. 0.
      4.64037107e-03 0. 2.32018554e-03 2.32018554e-03 2.32018554e-03 0.
      0. 4.64037107e-03 0. 6.96055684e-03 4.64037107e-03 2.32018554e-03
      2.32018554e-03 4.64037107e-03 0. 0. 0. 0. 6.96055684e-03 0. 0.
      9.28074215e-03 0. 2.32018554e-03 0. 2.32018554e-03 4.64037107e-03
      2.32018554e-03 0. 0. 0. 2.32018554e-03 0. 0. 4.64037107e-03 0.
      2.32018554e-03 4.64037107e-03 0. 0. 0. 0. 0. 0. 0. 0. 0.
      1.16009274e-02 0. 0. 4.64037107e-03 0. 6.96055684e-03 0.
      2.32018554e-03 4.64037107e-03 6.96055684e-03 0. 2.32018554e-03
      2.32018554e-03 0. 2.32018554e-03 2.32018554e-03 6.96055684e-03
      2.32018554e-03 4.64037107e-03 0. 4.64037107e-03 0. 2.32018554e-03
      0. 2.32018554e-03 2.32018554e-03 0. 6.96055684e-03 0.
      2.08816696e-02 0. 0. 0. 1.16009274e-02 0. 0. 0. 0. 0. 0. 0. 0. 0.
      0. 0. 2.32018554e-03 0. 2.32018554e-03 0. 0. 2.32018554e-03 0. 0.
      4.64037107e-03 0. 2.32018554e-03 0. 6.96055684e-03 2.32018554e-03
      0. 2.32018554e-03 6.96055684e-03 0. 0. 0. 0. 0. 0. 2.32018554e-03
      0. 0. 0. 0. 4.64037107e-03 0. 2.32018554e-03 2.32018554e-03 0. 0.
      0. 2.32018554e-03 0. 0. 0. 0. 2.32018554e-03 2.32018554e-03
      2.32018554e-03 0. 2.32018554e-03 1.16009274e-02 2.32018554e-03 0.
      0. 0. 0. 0. 0. 0. 0. 0. 0. 4.64037107e-03 0. 4.64037107e-03
      6.96055684e-03 0. 4.64037107e-03 2.32018554e-03 2.32018554e-03 0.
      0. 2.32018554e-03 4.64037107e-03 0. 0. 0. 0. 9.28074215e-03
      2.32018554e-03 0. 2.32018554e-03 0. 0. 2.32018554e-03 0.
      4.64037107e-03 0. 6.96055684e-03 1.62412990e-02 4.64037107e-03
      4.64037107e-03 2.32018554e-03 0. 0. 0. 0. 4.64037107e-03 0. 0. 0.
      0. 4.64037107e-03 0. 0. 0. 4.64037107e-03 2.32018554e-03 0.
      4.64037107e-03 2.32018554e-03 0. 4.64037107e-03 0. 0. 0.
      2.32018554e-03 0. 0. 2.32018554e-03 0. 0. 2.32018554e-03 0. 0. 0.
      2.32018554e-03 0. 2.32018554e-03 0. 0. 4.64037107e-03
      2.32018554e-03 0. 0. 0. 2.32018554e-03 9.28074215e-03
      1.16009274e-02 2.32018554e-03 9.28074215e-03 2.32018554e-03
      4.64037107e-03 0. 4.64037107e-03 0. 4.64037107e-03 0. 0. 0.
      2.32018554e-03 2.32018554e-03 4.64037107e-03 4.64037107e-03 0.
      4.64037107e-03 4.64037107e-03 6.96055684e-03 0. 4.64037107e-03
      4.64037107e-03 0. 0. 1.39211137e-02 0. 0. 0. 0. 4.64037107e-03 0.
      0. 2.32018554e-03 1.16009274e-02 0. 2.32018554e-03 0. 0.
      2.32018554e-03 0. 4.64037107e-03 2.32018554e-03 2.32018554e-03
      4.64037107e-03 0. 2.32018554e-03 0. 0. 0. 0. 2.32018554e-03
      2.32018554e-03 9.28074215e-03 0. 6.96055684e-03 0. 4.64037107e-03
      6.96055684e-03 4.64037107e-03 2.32018554e-03 0. 0. 0.
      2.32018554e-03 0. 0. 0. 0. 2.32018554e-03 0. 0. 0. 0.
      4.64037107e-03 0. 0. 0. 0. 0. 0. 0. 2.32018554e-03 2.32018554e-03
      9.28074215e-03 0. 4.64037107e-03 4.64037107e-03 0. 0. 0.
      6.96055684e-03 4.64037107e-03 2.78422274e-02 2.32018554e-03 0. 0.
      0. 2.32018554e-03 0. 2.32018554e-03 0. 0. 0. 0. 0. 0. 0.
      4.64037107e-03 9.28074215e-03 0. 0. 2.32018554e-03 0.
      2.32018554e-03 0. 0. 0. 2.32018554e-03 0. 0. 2.32018554e-03 0. 0.
      2.32018554e-03 0. 2.32018554e-03 6.96055684e-03 0. 0. 0. 0. 0.
      4.64037107e-03 0. 0. 0. 0. 0. 0. 4.64037107e-03 0. 0.
      2.32018554e-03 4.64037107e-03 0. 4.64037107e-03 0. 2.32018554e-03
      6.96055684e-03 0. 4.64037107e-03 0. 0. 6.96055684e-03 0.
      2.32018554e-03 0. 0. 2.32018554e-03 0. 0. 2.32018554e-03
      2.32018554e-03 0. 2.32018554e-03 4.64037107e-03 6.96055684e-03
      4.64037107e-03 1.85614843e-02 2.32018554e-03 2.32018554e-03 0.
      2.32018554e-03 4.64037107e-03 4.64037107e-03 0. 0. 0.
      4.64037107e-03 0. 0. 0. 2.32018554e-03 0. 0. 2.32018554e-03 0.
      2.32018554e-03 2.32018554e-03 4.64037107e-03 2.32018554e-03
      2.32018554e-03 0. 2.32018554e-03 0. 0. 0. 0. 2.32018554e-03
      6.96055684e-03 0. 2.32018554e-03 0. 0. 6.96055684e-03
      2.32018554e-03 0. 0. 0. 6.96055684e-03 2.32018554e-03
      1.85614843e-02 4.64037107e-03 0. 0. 0. 4.64037107e-03 0. 0.
      2.32018554e-03 2.32018554e-03 0. 0. 0. 0. 0. 6.96055684e-03 0.
      2.32018554e-03 2.32018554e-03 0. 0. 0. 4.64037107e-03 0.
      4.64037107e-03 0. 6.96055684e-03 0. 0. 0. 0. 0. 0. 1.16009274e-02
      6.96055684e-03 2.32018554e-03 0. 0. 1.16009274e-02 0.</_>
    <_>
      1.90476188e-03 0. 1.90476188e-03 0. 0. 0. 1.33333337e-02
      1.90476188e-03 5.71428565e-03 1.90476188e-03 0. 1.90476188e-03 0.
      1.90476188e-03 1.90476188e-03 0. 0. 1.90476188e-03 0. 0. 0. 0. 0.
      0. 0. 1.90476188e-03 0. 0. 0. 9.52380896e-03 3.80952377e-03 0. 0.
      0. 3.80952377e-03 0. 0. 1.90476188e-03 0. 0. 0. 1.90476188e-03
      1.90476188e-03 5.71428565e-03 1.90476188e-03 1.90476188e-03
      1.90476188e-03 3.80952377e-03 1.90476188e-03 1.90476188e-03 0.
      3.80952377e-03 0. 0. 1.90476188e-03 1.90476188e-03 3.80952377e-03
      1.90476188e-03 0. 0. 0. 0. 0. 1.90476188e-03 9.52380896e-03 0.
      1.90476188e-03 1.90476188e-03 0. 9.52380896e-03 3.80952377e-03
      1.90476188e-03 1.90476188e-03 1.90476188e-03 0. 5.71428565e-03 0.
      0. 0. 5.71428565e-03 0. 0. 7.61904754e-03 0. 1.90476188e-03
      3.80952377e-03 0. 0. 0. 5.71428565e-03 0. 0. 1.52380951e-02
      1.90476188e-03 0. 1.90476188e-03 0. 5.71428565e-03 1.90476188e-03
      3.80952377e-03 0. 0. 7.61904754e-03 0. 1.90476188e-03 0.
      3.80952377e-03 0. 0. 0. 5.71428565e-03 0. 0. 0. 1.90476188e-03 0.
      1.90476188e-03 0. 0. 0. 3.80952377e-03 0. 5.71428565e-03
      1.90476188e-03 0. 3.80952377e-03 0. 0. 0. 0. 0. 1.90476188e-03
      3.80952377e-03 0. 1.90476188e-03 7.61904754e-03 1.90476188e-03 0.
      1.90476188e-03 9.52380896e-03 0. 2.85714287e-02 3.80952377e-03
      5.71428565e-03 0. 0. 0. 0. 1.90476188e-03 1.90476188e-03
      1.90476188e-03 0. 0. 1.90476188e-03 0. 9.52380896e-03 0. 0. 0.
      1.90476188e-03 3.80952377e-03 0. 0. 3.80952377e-03 0. 0. 0. 0. 0.
      3.80952377e-03 0. 1.90476188e-03 1.90476188e-03 1.90476188e-03
      3.80952377e-03 1.33333337e-02 0. 1.90476188e-03 0. 0. 0.
      1.90476188e-03 3.80952377e-03 0. 5.71428565e-03 3.80952377e-03 0.
      3.80952377e-03 9.52380896e-03 0. 0. 0. 0. 0. 0. 1.90476188e-03 0.
      1.90476188e-03 0. 1.90476188e-03 1.90476188e-03 5.71428565e-03
      1.52380951e-02 0. 3.80952377e-03 0. 0. 5.71428565e-03
      1.90476188e-03 3.80952377e-03 0. 0. 5.71428565e-03 0. 0. 0.
      1.90476188e-03 1.90476188e-03 5.71428565e-03 0. 3.80952377e-03
      1.90476188e-03 0. 0. 0. 0. 1.90476188e-03 0. 0. 0. 1.90476188e-03
      1.90476188e-03 3.80952377e-03 0. 1.90476188e-03 0. 1.14285713e-02
      0. 0. 1.90476188e-03 1.90476188e-03 1.90476188e-03 1.90476188e-03
      5.71428565e-03 0. 3.80952377e-03 5.71428565e-03 1.90476188e-03 0.
      3.80952377e-03 7.61904754e-03 1.14285713e-02 0. 0. 1.90476188e-03
      1.90476188e-03 0. 1.90476188e-03 5.71428565e-03 0. 5.71428565e-03
      0. 1.90476188e-03 7.61904754e-03 7.61904754e-03 0. 7.61904754e-03
      5.71428565e-03 7.61904754e-03 0. 1.90476188e-03 0. 0.
      5.71428565e-03 0. 3.80952377e-03 0. 0. 1.90476188e-03 0. 0.
      1.90476188e-03 1.90476188e-03 0. 3.80952377e-03 0. 1.90476188e-03
      0. 0. 0. 0. 0. 1.90476188e-03 3.80952377e-03 1.90476188e-03
      3.80952377e-03 0. 0. 0. 0. 0. 0. 0. 1.90476188e-03 0. 0.
      2.66666673e-02 0. 1.90476188e-03 0. 0. 0. 1.90476188e-03
      3.80952377e-03 0. 0. 7.61904754e-03 1.90476188e-03 1.90476188e-03
      5.71428565e-03 0. 0. 0. 0. 1.90476188e-03 0. 3.80952377e-03 0. 0.
      0. 0. 3.80952377e-03 1.33333337e-02 1.90476188e-03 0.
      1.90476188e-03 1.90476188e-03 0. 5.71428565e-03 1.90476188e-03
      9.52380896e-03 1.90476188e-03 0. 1.90476188e-03 1.90476188e-03
      3.80952377e-03 0. 1.90476188e-03 0. 5.71428565e-03 1.90476188e-03
      0. 0. 0. 0. 5.71428565e-03 0. 7.61904754e-03 1.90476188e-03 0. 0.
      0. 0. 0. 7.61904754e-03 0. 0. 1.90476188e-03 0. 3.80952377e-03 0.
      5.71428565e-03 0. 0. 9.52380896e-03 0. 0. 1.90476188e-03
      1.90476188e-03 7.61904754e-03 5.71428565e-03 1.90476188e-03
      3.80952377e-03 0. 0. 0. 1.90476188e-03 1.90476188e-03 0. 0.
      3.80952377e-03 0. 1.90476188e-03 0. 1.90476188e-03 1.90476188e-03
      0. 3.80952377e-03 0. 0. 0. 0. 1.90476188e-03 0. 1.90476188e-03 0.
      0. 5.71428565e-03 1.90476188e-03 1.14285713e-02 1.90476188e-03
      1.90476188e-03 3.80952377e-03 0. 0. 5.71428565e-03 9.52380896e-03
      3.80952377e-03 1.90476188e-03 0. 0. 3.80952377e-03 0. 0. 0. 0. 0.
      0. 1.90476188e-03 0. 1.90476188e-03 1.33333337e-02 3.80952377e-03
      0. 0. 3.80952377e-03 0. 0. 1.90476188e-03 1.90476188e-03
      3.80952377e-03 0. 0. 0. 0. 0. 0. 0. 1.90476188e-03 0.
      5.71428565e-03 0. 3.80952377e-03 3.80952377e-03 0. 1.90476188e-03
      0. 0. 3.80952377e-03 0. 5.71428565e-03 0. 1.90476188e-03 0.
      9.52380896e-03 5.71428565e-03 1.90476188e-03 0. 7.61904754e-03 0.
      1.90476188e-03 0. 0. 7.61904754e-03 0. 1.90476188e-03 0. 0.
      1.90476188e-03 0. 1.90476188e-03 3.80952377e-03 3.80952377e-03
      1.90476188e-03 1.90476188e-03 0. 0. 0. 3.80952377e-03 0. 0.
      3.80952377e-03 0. 5.71428565e-03 0. 0. 3.80952377e-03
      3.80952377e-03 9.52380896e-03 0.</_>
    <_>
      2.28310493e-03 0. 2.28310493e-03 0. 0. 0. 1.14155244e-02 0.
      2.96803638e-02 0. 0. 0. 0. 0. 4.56620986e-03 2.28310493e-03 0.
      6.84931502e-03 6.84931502e-03 0. 0. 9.13241971e-03 2.28310493e-03
      4.56620986e-03 2.28310493e-03 1.14155244e-02 2.28310493e-03 0. 0.
      4.56620986e-03 4.56620986e-03 0. 2.28310493e-03 0. 0. 0. 0. 0. 0.
      0. 4.56620986e-03 0. 0. 4.56620986e-03 9.13241971e-03 0.
      2.28310493e-03 0. 0. 0. 0. 2.73972601e-02 0. 0. 4.56620986e-03
      4.56620986e-03 1.59817338e-02 0. 0. 0. 2.28310493e-03 0. 0. 0. 0.
      2.28310493e-03 0. 0. 2.28310493e-03 6.84931502e-03 0.
      1.14155244e-02 0. 9.13241971e-03 0. 0. 0. 4.56620986e-03
      2.28310493e-03 0. 2.28310493e-03 0. 0. 0. 2.28310493e-03 0.
      2.28310493e-03 0. 2.28310493e-03 6.84931502e-03 2.28310493e-03 0.
      0. 2.28310493e-03 0. 0. 2.28310493e-03 2.28310493e-03 0. 0.
      4.56620986e-03 0. 0. 0. 0. 2.28310493e-03 0. 0. 0. 0.
      2.28310493e-03 4.56620986e-03 2.28310493e-03 2.28310493e-03 0. 0.
      0. 0. 0. 0. 4.56620986e-03 0. 0. 1.59817338e-02 6.84931502e-03
      2.28310493e-03 0. 0. 0. 0. 0. 2.28310493e-03 6.84931502e-03 0. 0.
      2.05479451e-02 2.28310493e-03 0. 2.28310493e-03 2.28310493e-03
      2.28310493e-03 1.14155244e-02 2.28310493e-03 0. 0. 4.56620986e-03
      9.13241971e-03 0. 0. 2.28310493e-03 0. 0. 2.28310493e-03 0. 0.
      1.14155244e-02 4.56620986e-03 0. 0. 0. 2.28310493e-03 0.
      2.28310493e-03 2.28310493e-03 0. 0. 0. 2.28310493e-03 0.
      2.28310493e-03 0. 2.28310493e-03 2.28310493e-03 1.14155244e-02 0.
      2.28310493e-03 0. 0. 0. 2.28310493e-03 2.28310493e-03 0. 0.
      2.28310493e-03 2.28310493e-03 0. 1.14155244e-02 0. 2.28310493e-03
      0. 0. 2.28310493e-03 0. 0. 0. 0. 2.28310493e-03 0. 0.
      4.56620986e-03 0. 0. 2.28310493e-03 0. 2.28310493e-03 0.
      6.84931502e-03 0. 4.56620986e-03 0. 0. 0. 0. 0. 0. 0.
      4.56620986e-03 0. 0. 2.28310493e-03 6.84931502e-03 0.
      1.59817338e-02 0. 2.28310493e-03 4.56620986e-03 4.56620986e-03 0.
      6.84931502e-03 4.56620986e-03 0. 2.28310493e-03 4.56620986e-03 0.
      6.84931502e-03 0. 0. 0. 0. 0. 0. 4.56620986e-03 0. 2.28310493e-03
      0. 2.28310493e-03 1.14155244e-02 0. 4.56620986e-03 2.28310493e-03
      0. 0. 0. 0. 0. 0. 0. 0. 1.59817338e-02 4.56620986e-03 0. 0.
      2.28310493e-03 2.28310493e-03 2.28310493e-03 2.28310493e-03
      6.84931502e-03 2.28310493e-03 2.28310493e-03 0. 0. 2.28310493e-03
      0. 0. 2.28310493e-03 2.28310493e-03 0. 0. 0. 0. 2.28310493e-03
      2.28310493e-03 2.28310493e-03 4.56620986e-03 4.56620986e-03 0.
      2.28310493e-03 2.28310493e-03 0. 0. 0. 0. 0. 0. 0. 2.28310493e-03
      0. 0. 0. 0. 0. 0. 0. 2.28310488e-02 1.14155244e-02 0.
      4.56620986e-03 0. 2.28310493e-03 0. 2.28310493e-03 0. 0. 0.
      1.59817338e-02 4.56620986e-03 2.28310493e-03 0. 0. 2.28310493e-03
      0. 2.28310493e-03 2.28310493e-03 6.84931502e-03 0. 0.
      4.56620986e-03 0. 0. 0. 2.28310493e-03 1.59817338e-02
      9.13241971e-03 0. 4.56620986e-03 0. 0. 0. 6.84931502e-03 0.
      4.56620986e-03 2.28310493e-03 0. 2.28310493e-03 0. 0.
      4.56620986e-03 0. 2.28310493e-03 2.28310493e-03 4.56620986e-03
      4.56620986e-03 2.28310493e-03 0. 0. 2.28310493e-03 4.56620986e-03
      0. 0. 0. 2.28310493e-03 0. 2.28310493e-03 2.28310493e-03 0. 0. 0.
      0. 0. 4.56620986e-03 4.56620986e-03 2.28310493e-03 0. 0. 0.
      2.28310493e-03 0. 0. 0. 0. 9.13241971e-03 4.56620986e-03
      2.28310493e-03 0. 0. 0. 4.56620986e-03 0. 4.56620986e-03 0. 0. 0.
      2.28310493e-03 2.28310493e-03 4.56620986e-03 0. 0. 6.84931502e-03
      0. 0. 0. 0. 2.28310493e-03 0. 0. 0. 0. 4.56620986e-03 0.
      2.28310493e-03 2.28310493e-03 0. 0. 2.28310493e-03 0. 0.
      1.14155244e-02 0. 0. 0. 0. 9.13241971e-03 0. 0. 0. 0. 0. 0.
      6.84931502e-03 0. 0. 2.28310493e-03 2.28310493e-03 0. 0.
      4.56620986e-03 0. 2.28310493e-03 0. 0. 4.56620986e-03
      4.56620986e-03 2.28310493e-03 0. 0. 0. 0. 2.28310493e-03
      4.56620986e-03 0. 4.56620986e-03 0. 0. 6.84931502e-03 0.
      4.56620986e-03 0. 0. 4.56620986e-03 0. 2.28310493e-03 0.
      4.56620986e-03 0. 6.84931502e-03 0. 0. 0. 0. 0. 4.56620986e-03 0.
      0. 0. 0. 2.28310493e-03 0. 0. 0. 0. 0. 0. 0. 6.84931502e-03
      6.84931502e-03 0. 0. 0. 4.56620986e-03 0. 0. 0. 2.28310493e-03 0.
      2.28310493e-03 0. 4.56620986e-03 6.84931502e-03 6.84931502e-03 0.</_>
    <_>
      0. 0. 1.28205130e-02 0. 0. 0. 1.28205130e-02 0. 1.28205130e-02 0.
      0. 0. 0. 0. 1.28205130e-02 0. 0. 0. 0. 0. 0. 0. 0. 0. 0. 0.
      1.28205130e-02 0. 0. 0. 0. 0. 0. 0. 0. 0. 0. 0. 0. 0. 0. 0. 0.
      1.28205130e-02 0. 0. 0. 0. 0. 0. 0. 0. 0. 0. 0. 0. 0. 0. 0. 0. 0.
      0. 1.28205130e-02 0. 0. 0. 0. 0. 0. 1.28205130e-02 0. 0. 0. 0. 0.
      0. 0. 0. 0. 0. 1.28205130e-02 0. 0. 0. 0. 2.56410260e-02 0. 0. 0.
      2.56410260e-02 0. 0. 0. 0. 2.56410260e-02 0. 0. 0. 0.
      1.28205130e-02 0. 0. 0. 0. 0. 0. 0. 0. 0. 0. 0. 0. 0. 0. 0. 0. 0.
      0. 0. 0. 0. 0. 0. 0. 0. 0. 0. 0. 0. 0. 0. 2.56410260e-02 0. 0. 0.
      0. 0. 0. 0. 1.28205130e-02 0. 0. 0. 0. 0. 0. 0. 0. 0. 0. 0. 0. 0.
      0. 0. 0. 0. 0. 0. 0. 0. 0. 0. 0. 0. 0. 0. 1.28205130e-02 0. 0. 0.
      0. 0. 0. 0. 0. 0. 0. 0. 0. 0. 0. 0. 0. 0. 0. 5.12820520e-02 0. 0.
      0. 0. 0. 0. 0. 0. 0. 0. 0. 0. 0. 0. 0. 0. 0. 0. 0. 0. 0. 0. 0. 0.
      0. 1.28205130e-02 0. 0. 0. 1.28205130e-02 0. 0. 0. 0. 0. 0. 0. 0.
      0. 5.12820520e-02 0. 0. 1.28205130e-02 0. 0. 0. 0. 0. 0. 0. 0. 0.
      0. 0. 0. 1.28205130e-02 0. 0. 0. 0. 0. 1.28205130e-02 0. 0. 0. 0.
      0. 0. 0. 0. 0. 0. 0. 0. 0. 1.28205130e-02 1.28205130e-02 0. 0.
      6.41025677e-02 3.84615399e-02 6.41025677e-02 0. 0. 0. 0. 0. 0. 0.
      1.28205130e-02 0. 0. 0. 0. 0. 0. 0. 0. 0. 0. 0. 0. 0. 0. 0. 0. 0.
      1.28205130e-02 0. 0. 0. 0. 0. 0. 0. 0. 0. 0. 0. 0. 0. 0. 0. 0. 0.
      0. 0. 0. 0. 0. 0. 0. 0. 0. 0. 0. 0. 0. 0. 1.28205130e-02 0. 0. 0.
      0. 0. 0. 0. 0. 1.28205130e-02 0. 0. 0. 0. 0. 2.56410260e-02
      1.28205130e-02 0. 0. 0. 0. 0. 0. 0. 0. 0. 1.28205130e-02 0.
      1.28205130e-02 0. 0. 0. 0. 0. 0. 0. 0. 0. 0. 0. 0. 0. 0.
      3.84615399e-02 0. 1.28205130e-02 1.28205130e-02 0. 0.
      1.28205130e-02 0. 1.28205130e-02 0. 0. 0. 0. 0. 0. 0. 0.
      1.28205130e-02 0. 0. 0. 0. 0. 0. 0. 0. 0. 0. 0. 0. 0. 0. 0. 0. 0.
      0. 0. 0. 0. 0. 3.84615399e-02 0. 1.28205130e-02 1.28205130e-02 0.
      0. 0. 0. 0. 0. 0. 0. 0. 0. 0. 0. 1.28205130e-02 0. 0. 0. 0. 0.
      1.28205130e-02 0. 0. 0. 0. 0. 0. 0. 0. 0. 0. 0. 0. 0. 0. 0. 0. 0.
      0. 0. 0. 1.28205130e-02 0. 0. 0. 0. 0. 0. 0. 0. 0. 0. 0. 0.
      1.28205130e-02 0. 0. 0. 0. 0. 0. 0. 0. 0. 0. 0. 0. 0. 0. 0. 0. 0.
      0. 2.56410260e-02 0. 0. 0. 1.28205130e-02 0. 0. 1.28205130e-02 0.
      0. 0. 0. 0. 0. 0. 0.</_>
    <_>
      0. 2.88600288e-03 0. 0. 0. 5.77200577e-03 7.21500721e-03 0. 0. 0.
      0. 0. 0. 1.44300144e-03 0. 0. 0. 0. 0. 0. 4.32900432e-03 0.
      1.44300144e-03 2.88600288e-03 0. 0. 0. 5.77200577e-03 0. 0. 0. 0.
      2.88600288e-03 1.44300144e-03 0. 4.32900432e-03 0. 0.
      2.88600288e-03 1.44300144e-03 0. 4.32900432e-03 1.44300144e-03 0.
      4.32900432e-03 2.88600288e-03 2.88600288e-03 2.88600288e-03
      1.44300144e-03 8.65800865e-03 0. 2.88600288e-03 0. 8.65800865e-03
      2.88600288e-03 0. 1.44300144e-03 0. 0. 1.15440115e-02 0.
      1.44300144e-03 1.44300144e-03 1.44300144e-03 0. 2.88600288e-03
      1.44300144e-03 0. 2.88600288e-03 0. 1.44300144e-03 0. 0.
      2.88600288e-03 4.32900432e-03 7.21500721e-03 1.44300144e-03
      4.32900432e-03 1.44300144e-03 2.88600288e-03 1.44300144e-03 0.
      2.88600288e-03 5.77200577e-03 1.44300144e-03 2.88600288e-03
      1.44300144e-03 0. 8.65800865e-03 1.44300144e-03 5.77200577e-03 0.
      4.32900432e-03 1.44300144e-03 0. 4.32900432e-03 0. 4.32900432e-03
      0. 7.21500721e-03 0. 1.44300144e-03 1.44300144e-03 1.44300144e-03
      2.88600288e-03 0. 0. 1.44300144e-03 0. 8.65800865e-03 0. 0. 0. 0.
      2.59740259e-02 0. 2.88600288e-03 7.21500721e-03 0. 0.
      1.44300144e-03 0. 1.44300144e-03 0. 0. 2.88600288e-03
      1.44300144e-03 8.65800865e-03 0. 0. 1.44300144e-03 7.21500721e-03
      0. 0. 0. 1.44300144e-02 0. 0. 1.44300144e-03 1.44300144e-03
      4.32900432e-03 2.45310254e-02 2.88600288e-03 8.65800865e-03 0. 0.
      0. 0. 0. 0. 5.77200577e-03 0. 0. 1.44300144e-03 1.44300144e-03
      2.16450207e-02 0. 4.32900432e-03 0. 1.44300144e-03 2.88600288e-03
      0. 2.88600288e-03 0. 0. 0. 1.44300144e-03 2.88600288e-03
      2.88600288e-03 0. 4.32900432e-03 0. 0. 0. 2.88600288e-03
      2.88600288e-03 2.88600288e-03 0. 5.77200577e-03 2.88600288e-03
      1.44300144e-03 0. 0. 0. 1.44300144e-03 0. 0. 0. 0. 0. 0. 0.
      8.65800865e-03 0. 2.88600288e-03 4.32900432e-03 0. 0. 0.
      2.88600288e-03 1.44300144e-03 2.88600288e-03 4.32900432e-03 0.
      1.44300144e-03 0. 0. 1.44300144e-03 0. 2.88600288e-03 0.
      1.44300144e-03 7.21500721e-03 0. 0. 1.44300144e-03 1.44300144e-03
      0. 2.88600288e-03 0. 1.44300144e-03 1.44300144e-03 0.
      1.44300144e-03 4.32900432e-03 0. 4.32900432e-03 0. 1.44300144e-03
      2.88600288e-03 4.32900432e-03 0. 0. 0. 4.32900432e-03
      1.44300144e-03 1.44300144e-03 0. 0. 0. 0. 1.44300144e-03
      8.65800865e-03 1.44300144e-03 0. 2.88600288e-03 0. 1.44300144e-03
      7.21500721e-03 1.44300144e-03 0. 5.77200577e-03 1.44300144e-03 0.
      2.88600288e-03 1.44300144e-03 0. 0. 0. 0. 1.44300144e-03 0.
      1.44300144e-03 2.88600288e-03 2.88600288e-03 5.77200577e-03
      1.29870130e-02 5.77200577e-03 7.21500721e-03 1.44300144e-03
      2.88600288e-03 0. 0. 5.77200577e-03 1.44300144e-03 1.44300144e-03
      1.44300144e-03 1.15440115e-02 0. 0. 0. 0. 2.88600288e-03
      2.88600288e-03 0. 1.44300144e-03 0. 1.01010101e-02 4.32900432e-03
      2.88600288e-03 0. 0. 0. 0. 7.21500721e-03 1.15440115e-02 0. 0. 0.
      0. 0. 0. 0. 0. 1.44300144e-03 2.88600288e-03 1.44300144e-03 0. 0.
      2.88600288e-03 1.44300144e-03 0. 0. 0. 0. 1.44300144e-03
      2.88600288e-03 2.88600288e-03 5.77200577e-03 0. 5.77200577e-03 0.
      0. 1.44300144e-03 0. 4.32900432e-03 2.88600288e-03 5.77200577e-03
      0. 1.44300144e-03 4.32900432e-03 0. 4.32900432e-03 1.44300144e-03
      2.88600288e-03 2.88600288e-03 1.15440115e-02 0. 1.44300144e-03 0.
      0. 1.44300144e-03 5.77200577e-03 0. 1.44300144e-03 4.32900432e-03
      0. 2.88600288e-03 0. 5.77200577e-03 0. 1.44300144e-03
      4.32900432e-03 0. 1.44300144e-03 0. 5.77200577e-03 4.32900432e-03
      7.21500721e-03 0. 1.44300144e-03 0. 0. 0. 2.88600288e-03
      1.44300144e-03 1.44300144e-03 1.44300144e-03 1.44300144e-03 0. 0.
      1.44300144e-03 2.88600288e-03 0. 7.21500721e-03 2.88600288e-03
      1.44300144e-03 0. 0. 0. 1.29870130e-02 1.44300144e-03 0.
      1.44300144e-03 1.44300144e-03 0. 0. 0. 2.88600288e-03 0.
      2.88600288e-03 7.21500721e-03 0. 0. 0. 1.44300144e-03
      2.88600288e-03 1.44300144e-03 2.88600288e-03 0. 1.44300144e-03
      1.44300144e-03 2.88600288e-03 0. 1.44300144e-03 0. 2.88600288e-03
      7.21500721e-03 5.77200577e-03 0. 0. 2.88600288e-03 0. 0.
      2.88600288e-03 1.29870130e-02 1.44300144e-03 1.44300144e-03 0. 0.
      4.32900432e-03 0. 7.21500721e-03 5.77200577e-03 0. 4.32900432e-03
      0. 2.88600288e-03 0. 0. 0. 5.77200577e-03 0. 1.44300144e-03
      2.88600288e-03 0. 0. 0. 1.15440115e-02 5.77200577e-03
      2.88600288e-03 1.44300144e-03 0. 1.44300144e-03 7.21500721e-03 0.
      0. 4.32900432e-03 0. 0. 1.44300144e-03 0. 0. 1.44300144e-03 0. 0.
      0. 0. 1.01010101e-02 0. 1.44300144e-03 1.44300144e-03
      2.88600288e-03 1.44300144e-03 0. 0. 0. 0. 2.88600288e-03
      2.88600288e-03 7.21500721e-03 0. 4.32900432e-03 0. 0. 0.
      4.32900432e-03 8.65800865e-03 0. 0. 1.44300144e-03 0.
      1.44300144e-03 1.44300144e-03 7.21500721e-03 1.44300144e-03 0. 0.
      0. 0. 0. 4.32900432e-03 1.44300144e-03 0. 2.88600288e-03 0.
      2.88600288e-03 0. 1.44300144e-03 1.44300144e-03</_>
    <_>
      3.21199140e-03 9.63597372e-03 0. 0. 0. 3.21199140e-03
      8.56531039e-03 0. 9.63597372e-03 1.07066380e-03 1.07066380e-03
      2.14132760e-03 3.21199140e-03 0. 3.21199140e-03 0. 1.07066380e-03
      0. 1.07066380e-03 2.14132760e-03 0. 0. 0. 2.14132760e-03
      5.35331899e-03 0. 0. 2.14132760e-03 1.07066380e-03 1.71306208e-02
      1.07066380e-03 0. 1.07066380e-03 3.21199140e-03 0. 2.14132760e-03
      2.14132760e-03 5.35331899e-03 7.49464659e-03 0. 2.14132760e-03
      6.42398279e-03 0. 2.14132760e-03 2.14132760e-03 3.21199140e-03 0.
      1.07066380e-03 7.49464659e-03 3.21199140e-03 4.28265519e-03
      2.14132760e-03 1.07066380e-03 7.49464659e-03 2.14132760e-03
      3.21199140e-03 1.07066380e-03 3.21199140e-03 1.07066380e-03
      5.35331899e-03 1.07066380e-03 4.28265519e-03 0. 0. 0.
      2.14132760e-03 2.14132760e-03 2.14132760e-03 2.14132760e-03
      1.07066380e-03 1.07066380e-03 0. 0. 0. 2.14132760e-03
      2.14132760e-03 4.28265519e-03 2.14132760e-03 3.21199140e-03
      1.07066380e-03 2.14132760e-03 1.07066380e-03 7.49464659e-03
      3.21199140e-03 1.07066380e-03 4.28265519e-03 4.28265519e-03 0.
      4.28265519e-03 7.49464659e-03 3.21199140e-03 1.07066380e-03 0.
      2.14132760e-03 0. 0. 0. 2.14132760e-03 0. 1.07066380e-03
      4.28265519e-03 1.07066380e-03 0. 4.28265519e-03 2.14132760e-03
      1.07066380e-03 2.14132760e-03 2.14132760e-03 0. 1.07066380e-03 0.
      1.07066380e-03 1.07066380e-03 2.14132760e-03 6.42398279e-03
      3.21199140e-03 1.07066380e-03 1.07066380e-03 0. 0. 2.14132760e-03
      0. 3.21199140e-03 1.07066380e-03 0. 3.21199140e-03 0.
      3.21199140e-03 0. 0. 2.14132760e-03 1.07066380e-03 2.14132760e-03
      1.07066380e-03 2.14132760e-03 2.14132760e-03 0. 0. 0.
      5.35331899e-03 4.28265519e-03 5.35331899e-03 0. 3.21199140e-03 0.
      4.28265519e-03 2.14132760e-03 0. 0. 3.21199140e-03 5.35331899e-03
      0. 0. 4.28265519e-03 0. 4.28265519e-03 1.07066380e-03
      4.28265519e-03 0. 2.14132760e-03 1.07066380e-03 0. 1.07066380e-03
      0. 2.14132760e-03 0. 5.35331899e-03 1.07066380e-03 1.07066380e-03
      0. 1.07066380e-03 1.07066380e-03 1.07066380e-03 0. 1.07066380e-03
      7.49464659e-03 1.07066380e-03 0. 3.21199140e-03 2.14132760e-03 0.
      0. 5.35331899e-03 4.28265519e-03 3.21199140e-03 5.35331899e-03
      1.07066380e-03 0. 0. 1.07066380e-03 0. 0. 1.07066380e-03 0. 0.
      5.35331899e-03 4.28265519e-03 1.07066380e-03 3.21199140e-03
      1.07066380e-03 0. 3.21199140e-03 0. 0. 2.14132760e-03 0.
      4.28265519e-03 2.14132760e-03 2.14132760e-03 3.21199140e-03
      1.07066380e-03 0. 4.28265519e-03 0. 4.28265519e-03 2.14132760e-03
      3.21199140e-03 2.14132760e-03 2.14132760e-03 5.35331899e-03
      1.07066380e-03 1.07066380e-03 0. 0. 4.28265519e-03 3.21199140e-03
      2.14132760e-03 4.28265519e-03 0. 2.14132760e-03 4.28265519e-03 0.
      1.07066380e-03 1.07066380e-03 4.28265519e-03 0. 3.21199140e-03 0.
      0. 1.07066380e-03 0. 4.28265519e-03 3.21199140e-03 3.21199140e-03
      1.07066380e-03 2.14132760e-03 2.14132760e-03 6.42398279e-03
      2.14132760e-03 3.21199140e-03 0. 1.07066380e-03 0. 1.07066380e-03
      6.42398279e-03 0. 1.07066380e-03 2.14132760e-03 3.21199140e-03 0.
      1.07066380e-03 0. 4.28265519e-03 8.56531039e-03 3.21199140e-03
      2.14132760e-03 0. 9.63597372e-03 2.14132760e-03 0. 2.14132760e-03
      3.21199140e-03 0. 5.35331899e-03 3.21199140e-03 1.07066380e-03
      1.07066380e-03 7.49464659e-03 0. 2.14132760e-03 0. 5.35331899e-03
      3.21199140e-03 1.07066380e-03 3.21199140e-03 5.35331899e-03
      3.21199140e-03 5.35331899e-03 3.21199140e-03 7.49464659e-03
      2.14132760e-03 2.14132760e-03 0. 0. 2.14132760e-03 0. 0.
      2.14132760e-03 0. 3.21199140e-03 1.07066380e-03 3.21199140e-03
      2.14132760e-03 0. 2.14132760e-03 1.07066380e-03 2.14132760e-03
      4.28265519e-03 2.14132760e-03 3.21199140e-03 3.21199140e-03
      3.21199140e-03 4.28265519e-03 3.21199140e-03 0. 0. 0.
      5.35331899e-03 1.07066380e-03 2.14132760e-03 9.63597372e-03
      2.14132760e-03 2.14132760e-03 1.07066380e-03 1.07066380e-03
      5.35331899e-03 1.07066380e-03 4.28265519e-03 2.14132760e-03 0.
      3.21199140e-03 1.07066380e-03 0. 2.14132760e-03 4.28265519e-03 0.
      2.14132760e-03 0. 2.14132760e-03 0. 5.35331899e-03 8.56531039e-03
      4.28265519e-03 0. 1.07066380e-03 2.14132760e-03 2.14132760e-03
      2.14132760e-03 0. 2.14132760e-03 0. 1.07066380e-03 4.28265519e-03
      0. 2.14132760e-03 2.14132760e-03 2.14132760e-03 4.28265519e-03
      4.28265519e-03 0. 0. 1.07066380e-03 2.14132760e-03 0. 0.
      2.14132760e-03 1.07066380e-03 0. 1.07066380e-03 3.21199140e-03
      4.28265519e-03 1.07066380e-03 0. 0. 0. 2.14132760e-03
      3.21199140e-03 1.07066380e-03 6.42398279e-03 0. 5.35331899e-03 0.
      2.14132760e-03 2.14132760e-03 0. 0. 1.07066380e-03 1.07066380e-03
      0. 1.07066380e-03 1.07066380e-03 6.42398279e-03 1.07066380e-03 0.
      3.21199140e-03 4.28265519e-03 1.07066380e-03 1.07066380e-03
      2.14132760e-03 0. 2.14132760e-03 0. 3.21199140e-03 0.
      1.07066380e-03 0. 2.14132760e-03 5.35331899e-03 0. 1.07066380e-03
      2.14132760e-03 2.14132760e-03 2.14132760e-03 1.07066380e-03
      3.21199140e-03 1.07066380e-03 0. 3.21199140e-03 0. 0.
      6.42398279e-03 3.21199140e-03 1.07066380e-03 0. 1.07066380e-03
      5.35331899e-03 0. 1.07066380e-03 0. 0. 0. 4.28265519e-03
      1.07066380e-03 0. 3.21199140e-03 1.07066380e-03 5.35331899e-03 0.
      5.35331899e-03 3.21199140e-03 1.07066380e-03 0. 1.07066380e-03
      3.21199140e-03 2.14132760e-03 0. 2.14132760e-03 1.07066380e-03
      2.14132760e-03 0. 2.14132760e-03 3.21199140e-03 0. 1.07066380e-03
      0. 1.07066380e-03 0. 0. 1.07066380e-03 3.21199140e-03
      2.14132760e-03 3.21199140e-03 1.07066380e-03 0. 4.28265519e-03
      2.14132760e-03 0. 0. 0. 3.21199140e-03 4.28265519e-03
      1.07066380e-03 6.42398279e-03 1.07066380e-03 0. 0. 5.35331899e-03
      2.14132760e-03 0. 1.07066380e-03 0. 1.07066380e-03 4.28265519e-03
      2.14132760e-03 3.21199140e-03 3.21199140e-03 0. 0. 0. 0. 0.
      2.14132760e-03 3.21199140e-03 5.35331899e-03 7.49464659e-03 0.
      1.07066380e-03 1.07066380e-03 0. 2.14132760e-03</_>
    <_>
      0. 0. 0. 0. 0. 0. 2.21354179e-02 1.30208337e-03 2.73437500e-02
      5.20833349e-03 0. 1.30208337e-03 0. 0. 5.20833349e-03 0. 0. 0.
      5.20833349e-03 1.30208337e-03 2.60416674e-03 1.30208337e-03 0. 0.
      0. 0. 1.30208337e-03 1.30208337e-03 0. 0. 2.60416674e-03
      1.30208337e-03 0. 0. 1.30208337e-03 6.51041698e-03 0. 0.
      2.60416674e-03 6.51041698e-03 1.30208337e-03 0. 1.30208337e-03
      3.90625000e-03 0. 0. 0. 0. 2.60416674e-03 0. 0. 3.90625000e-03
      3.90625000e-03 0. 0. 2.60416674e-03 2.60416674e-03 2.60416674e-03
      6.51041698e-03 0. 0. 3.90625000e-03 0. 1.30208337e-03 0.
      3.90625000e-03 0. 0. 3.90625000e-03 1.30208337e-03 0.
      2.60416674e-03 2.60416674e-03 0. 0. 1.30208337e-03 0. 0.
      3.90625000e-03 3.90625000e-03 0. 6.51041698e-03 1.30208337e-03 0.
      0. 0. 0. 0. 0. 1.30208337e-03 2.60416674e-03 1.30208337e-03
      1.30208337e-03 7.81250000e-03 1.30208337e-03 2.60416674e-03 0. 0.
      9.11458395e-03 0. 0. 0. 0. 0. 9.11458395e-03 0. 0. 3.90625000e-03
      0. 6.51041698e-03 0. 6.51041698e-03 0. 5.20833349e-03 0. 0.
      2.60416674e-03 2.60416674e-03 0. 0. 0. 0. 0. 0. 0. 0. 0. 0.
      2.60416674e-03 2.60416674e-03 0. 0. 2.60416674e-03 0. 0. 0.
      7.81250000e-03 0. 0. 0. 3.90625000e-03 9.11458395e-03
      2.60416674e-03 5.20833349e-03 1.30208337e-03 0. 0. 7.81250000e-03
      2.60416674e-03 0. 0. 5.20833349e-03 5.20833349e-03 1.17187500e-02
      0. 6.51041698e-03 2.60416674e-03 0. 0. 0. 0. 0. 0. 3.90625000e-03
      1.04166670e-02 2.60416674e-03 0. 2.60416674e-03 1.04166670e-02
      2.60416674e-03 0. 3.90625000e-03 1.30208337e-03 2.60416674e-03 0.
      0. 0. 0. 1.30208337e-03 2.60416674e-03 5.20833349e-03 0. 0.
      1.30208337e-03 0. 1.30208337e-03 6.51041698e-03 0. 0. 0.
      3.90625000e-03 0. 2.60416674e-03 2.08333340e-02 1.30208337e-03
      2.60416674e-03 1.30208337e-03 0. 0. 0. 1.30208337e-03 0. 0. 0. 0.
      0. 3.90625000e-03 9.11458395e-03 2.60416674e-03 1.30208337e-03 0.
      3.90625000e-03 0. 0. 0. 1.17187500e-02 5.20833349e-03 0. 0.
      1.30208337e-03 1.30208337e-03 5.20833349e-03 0. 6.51041698e-03 0.
      5.20833349e-03 0. 2.60416674e-03 0. 1.30208337e-03 0. 0. 0.
      5.20833349e-03 0. 1.30208337e-03 1.30208337e-03 1.30208337e-03
      9.11458395e-03 1.17187500e-02 1.30208337e-03 0. 0. 0. 0. 0.
      1.30208337e-03 0. 0. 0. 1.30208337e-03 0. 0. 7.81250000e-03 0. 0.
      1.30208337e-03 0. 0. 0. 0. 1.30208337e-03 0. 0. 0. 1.30208337e-03
      0. 0. 1.30208337e-03 0. 0. 2.60416674e-03 0. 0. 0. 0. 0. 0.
      1.30208337e-03 1.30208337e-03 0. 0. 0. 3.90625000e-03
      1.30208337e-03 9.11458395e-03 0. 0. 3.90625000e-03 0.
      3.90625000e-03 1.30208337e-03 0. 2.60416674e-03 0. 0.
      5.20833349e-03 0. 0. 1.30208337e-03 1.69270840e-02 0. 0.
      2.60416674e-03 0. 0. 3.90625000e-03 1.30208337e-03 0.
      1.30208337e-03 0. 0. 5.20833349e-03 0. 2.60416674e-03 0. 0. 0.
      3.90625000e-03 1.30208337e-03 3.90625000e-03 9.11458395e-03 0.
      2.60416674e-03 9.11458395e-03 3.90625000e-03 0. 5.20833349e-03
      1.30208337e-03 0. 7.81250000e-03 0. 0. 3.90625000e-03 0. 0.
      2.60416674e-03 2.60416674e-03 0. 0. 0. 0. 1.30208337e-03
      1.17187500e-02 0. 2.60416674e-03 1.04166670e-02 1.30208337e-03
      1.95312500e-02 1.30208337e-03 0. 1.30208337e-03 0. 3.90625000e-03
      0. 0. 1.30208337e-03 1.30208337e-03 0. 7.81250000e-03 0.
      1.30208337e-03 1.30208337e-03 0. 1.30208337e-03 0. 6.51041698e-03
      0. 2.60416674e-03 0. 2.60416674e-03 0. 2.60416674e-03 0.
      1.30208340e-02 0. 0. 0. 0. 1.30208337e-03 7.81250000e-03 0.
      3.90625000e-03 0. 0. 0. 0. 0. 0. 1.82291679e-02 0. 3.90625000e-03
      0. 1.95312500e-02 0. 1.04166670e-02 1.30208337e-03 0.
      3.90625000e-03 1.30208337e-03 7.81250000e-03 3.90625000e-03
      1.30208337e-03 0. 0. 0. 0. 0. 0. 1.30208337e-03 1.30208337e-03 0.
      0. 0. 1.56250000e-02 0. 0. 1.30208337e-03 1.30208337e-03
      1.17187500e-02 0. 0. 0. 5.20833349e-03 0. 1.30208337e-03 0.
      3.90625000e-03 0. 0. 0. 1.30208337e-03 0. 5.20833349e-03
      1.30208337e-03 3.90625000e-03 0. 0. 0. 0. 0. 1.04166670e-02
      1.04166670e-02 3.90625000e-03 0. 5.20833349e-03 0. 0. 0. 0.
      1.30208337e-03 0. 0. 2.60416674e-03 0. 6.51041698e-03
      2.60416674e-03 0. 0. 0. 0. 0. 0. 1.30208337e-03 2.60416674e-03
      1.30208337e-03 0. 1.43229170e-02 1.30208337e-03 2.60416674e-03 0.
      2.60416674e-03 0. 1.30208337e-03 0. 1.30208337e-03 0.
      1.30208337e-03 0. 6.51041698e-03 7.81250000e-03 0. 0.
      1.30208337e-03 1.30208337e-03 5.20833349e-03 1.30208337e-03
      6.51041698e-03 5.20833349e-03 0. 9.11458395e-03 1.30208337e-03 0.
      0. 0. 0. 0. 3.90625000e-03 0. 6.51041698e-03</_>
    <_>
      0. 1.34770887e-03 0. 0. 0. 2.69541773e-03 1.21293794e-02
      2.69541773e-03 6.73854444e-03 9.43396240e-03 1.34770887e-03 0.
      2.69541773e-03 0. 5.39083546e-03 0. 0. 0. 0. 2.69541773e-03
      2.69541773e-03 1.34770887e-03 0. 0. 0. 1.34770887e-03
      1.34770887e-03 2.69541773e-03 2.69541773e-03 1.34770887e-03
      5.39083546e-03 0. 0. 2.69541773e-03 0. 4.04312648e-03 0. 0.
      1.34770887e-03 4.04312648e-03 0. 1.34770887e-03 0. 9.43396240e-03
      1.34770887e-03 0. 5.39083546e-03 0. 0. 1.34770887e-03 0. 0.
      6.73854444e-03 0. 0. 4.04312648e-03 6.73854444e-03 5.39083546e-03
      6.73854444e-03 0. 0. 0. 0. 2.69541773e-03 1.34770889e-02
      1.34770887e-03 1.34770887e-03 1.34770887e-03 4.04312648e-03 0.
      2.69541773e-03 0. 0. 4.04312648e-03 2.69541773e-03 1.34770887e-03
      1.34770887e-03 1.34770887e-03 2.69541773e-03 8.08625296e-03
      2.69541773e-03 1.34770887e-03 2.69541773e-03 0. 0. 0. 0. 0. 0.
      1.34770887e-03 0. 1.07816709e-02 2.69541773e-03 1.34770887e-03
      2.69541773e-03 2.69541773e-03 0. 0. 1.34770887e-03 0. 0. 0. 0.
      2.69541773e-03 2.69541773e-03 0. 1.34770887e-03 6.73854444e-03
      1.34770887e-03 2.69541773e-03 6.73854444e-03 2.69541773e-03 0.
      2.69541773e-03 1.75202154e-02 1.34770887e-03 1.34770887e-03
      5.39083546e-03 0. 0. 0. 0. 5.39083546e-03 0. 0. 2.69541773e-03
      1.34770887e-03 2.69541773e-03 6.73854444e-03 4.04312648e-03 0. 0.
      2.69541773e-03 0. 2.69541773e-03 0. 0. 0. 0. 5.39083546e-03
      2.69541773e-03 9.43396240e-03 6.73854444e-03 4.04312648e-03
      1.34770887e-03 0. 1.34770887e-03 2.69541773e-03 4.04312648e-03 0.
      1.34770887e-03 5.39083546e-03 1.34770887e-03 0. 2.69541773e-03
      1.88679248e-02 2.69541773e-03 0. 0. 1.34770887e-03 1.34770887e-03
      6.73854444e-03 0. 0. 1.34770887e-03 2.69541773e-03 4.04312648e-03
      1.34770887e-03 2.69541773e-03 0. 0. 0. 2.69541773e-03
      1.34770887e-03 0. 4.04312648e-03 0. 0. 1.34770887e-03
      1.34770887e-03 4.04312648e-03 0. 0. 4.04312648e-03 0.
      1.34770887e-03 4.04312648e-03 2.69541773e-03 0. 0. 0.
      4.04312648e-03 1.34770887e-03 0. 0. 8.08625296e-03 4.04312648e-03
      0. 5.39083546e-03 0. 1.34770887e-03 0. 1.34770887e-03
      1.34770887e-03 2.69541773e-03 0. 4.04312648e-03 0. 4.04312648e-03
      0. 0. 2.69541773e-03 9.43396240e-03 0. 0. 0. 5.39083546e-03 0.
      2.69541773e-03 1.34770887e-03 2.69541773e-03 1.34770887e-03 0.
      1.34770887e-03 2.69541773e-03 2.69541773e-03 4.04312648e-03 0. 0.
      1.34770887e-03 0. 1.34770887e-03 2.69541773e-03 1.34770887e-03
      5.39083546e-03 2.69541773e-03 0. 2.69541773e-03 1.34770887e-03
      5.39083546e-03 2.69541773e-03 0. 0. 0. 0. 0. 1.34770887e-03 0.
      2.69541773e-03 1.34770887e-03 0. 5.39083546e-03 1.34770887e-03
      1.34770887e-03 1.34770887e-03 1.34770887e-03 0. 0. 5.39083546e-03
      0. 1.34770887e-03 0. 1.34770887e-03 0. 4.04312648e-03 0.
      1.34770889e-02 0. 1.34770887e-03 0. 1.34770887e-03 0.
      5.39083546e-03 1.34770887e-03 1.34770887e-03 0. 0. 0.
      5.39083546e-03 2.69541773e-03 1.34770887e-03 2.69541773e-03 0.
      2.69541773e-03 2.69541773e-03 2.69541773e-03 0. 2.69541773e-03
      2.69541773e-03 1.34770887e-03 0. 0. 0. 2.69541773e-03
      2.69541773e-03 0. 6.73854444e-03 0. 0. 0. 1.34770887e-03 0. 0.
      9.43396240e-03 1.34770887e-03 1.34770887e-03 1.34770887e-03
      6.73854444e-03 0. 1.34770887e-03 1.34770887e-03 0. 5.39083546e-03
      2.69541773e-03 5.39083546e-03 0. 2.69541773e-03 0. 2.69541773e-03
      1.34770887e-03 1.34770887e-03 1.34770887e-03 0. 1.34770887e-03
      5.39083546e-03 2.69541773e-03 4.04312648e-03 2.69541773e-03
      1.34770887e-03 0. 9.43396240e-03 1.07816709e-02 0. 4.04312648e-03
      0. 1.34770887e-03 0. 5.39083546e-03 1.34770887e-03 4.04312648e-03
      6.73854444e-03 0. 1.34770887e-03 2.69541773e-03 0. 1.34770887e-03
      1.34770887e-03 6.73854444e-03 5.39083546e-03 0. 1.34770887e-03 0.
      4.04312648e-03 6.73854444e-03 0. 0. 0. 0. 5.39083546e-03
      6.73854444e-03 1.34770887e-03 6.73854444e-03 0. 0. 0.
      1.34770887e-03 4.04312648e-03 0. 0. 0. 0. 0. 4.04312648e-03 0.
      8.08625296e-03 1.34770887e-03 0. 0. 1.34770887e-03 0.
      8.08625296e-03 0. 4.04312648e-03 0. 0. 0. 4.04312648e-03 0.
      5.39083546e-03 0. 0. 1.34770887e-03 1.34770887e-03 0.
      1.34770887e-03 1.34770887e-03 1.34770887e-03 2.69541773e-03 0. 0.
      0. 1.34770887e-03 1.34770887e-03 0. 2.69541773e-03 0. 0.
      1.34770887e-03 0. 1.34770887e-03 5.39083546e-03 4.04312648e-03 0.
      1.34770887e-03 2.69541773e-03 0. 1.34770887e-03 1.34770887e-03
      4.04312648e-03 1.34770887e-03 0. 2.69541773e-03 0. 2.69541773e-03
      0. 1.34770887e-03 0. 1.34770887e-03 0. 0. 0. 2.69541773e-03 0.
      5.39083546e-03 0. 0. 0. 0. 2.69541773e-03 0. 1.34770887e-03
      2.69541773e-03 2.69541773e-03 4.04312648e-03 1.34770887e-03
      2.69541773e-03 0. 0. 5.39083546e-03 0. 0. 5.39083546e-03 0. 0. 0.
      8.08625296e-03 0. 0. 0. 0. 2.69541773e-03 2.69541773e-03 0. 0.
      1.34770887e-03 0. 2.15633418e-02 1.34770887e-03 1.34770889e-02
      1.07816709e-02 0. 4.04312648e-03 6.73854444e-03 0. 0. 0. 0.
      4.04312648e-03 0. 6.73854444e-03 4.04312648e-03 0. 1.34770887e-03
      0. 0. 1.34770887e-03 4.04312648e-03 0. 2.69541773e-03 0.
      2.69541773e-03 0. 4.04312648e-03 1.34770887e-03 1.34770887e-03 0.
      4.04312648e-03 2.69541773e-03 1.34770887e-03 1.34770887e-03</_>
    <_>
      2.74725282e-03 5.49450563e-03 0. 0. 0. 6.18131878e-03
      6.86813204e-04 1.37362641e-03 0. 2.74725282e-03 2.74725282e-03
      2.74725282e-03 0. 0. 6.86813204e-04 0. 6.86813204e-04
      6.86813204e-04 1.37362641e-03 2.06043967e-03 4.12087934e-03
      6.86813204e-04 0. 6.86813204e-04 1.37362641e-03 6.86813204e-04 0.
      2.74725282e-03 1.37362641e-03 2.06043967e-03 4.12087934e-03 0.
      4.80769249e-03 4.80769249e-03 2.74725282e-03 1.37362641e-03
      2.74725282e-03 3.43406596e-03 1.37362641e-03 4.12087934e-03
      6.86813204e-04 2.74725282e-03 0. 2.74725282e-03 1.37362641e-03
      3.43406596e-03 2.06043967e-03 1.37362641e-03 1.37362641e-03
      4.80769249e-03 0. 3.43406596e-03 0. 8.92857183e-03 1.37362641e-03
      3.43406596e-03 3.43406596e-03 1.37362641e-03 6.86813204e-04
      3.43406596e-03 0. 0. 0. 0. 0. 4.12087934e-03 1.37362641e-03
      3.43406596e-03 2.06043967e-03 1.37362641e-03 2.74725282e-03 0.
      6.86813204e-04 6.86813204e-04 8.92857183e-03 1.37362641e-03
      6.86813204e-04 2.06043967e-03 1.37362641e-03 3.43406596e-03
      6.86813204e-04 2.06043967e-03 3.43406596e-03 4.80769249e-03
      2.06043967e-03 1.37362641e-03 0. 0. 1.37362641e-03 0.
      1.37362641e-03 6.86813204e-04 1.37362641e-03 6.86813204e-04
      2.74725282e-03 6.86813204e-04 0. 2.74725282e-03 6.86813204e-04
      4.80769249e-03 2.74725282e-03 2.06043967e-03 0. 3.43406596e-03
      2.06043967e-03 0. 6.86813204e-04 2.06043967e-03 6.86813204e-04
      2.06043967e-03 0. 0. 0. 1.37362641e-03 2.06043967e-03
      2.06043967e-03 4.12087934e-03 2.74725282e-03 0. 0. 0. 0.
      5.49450563e-03 1.37362641e-03 6.86813204e-04 6.18131878e-03 0.
      8.24175868e-03 0. 2.74725282e-03 0. 8.24175868e-03 3.43406596e-03
      0. 6.86813204e-04 6.86813204e-04 0. 0. 6.86813204e-04
      6.86813204e-04 5.49450563e-03 4.12087934e-03 3.43406596e-03
      6.18131878e-03 0. 1.37362641e-03 4.80769249e-03 1.37362641e-03
      1.37362641e-03 6.86813204e-04 4.12087934e-03 2.06043967e-03 0.
      1.37362641e-03 6.86813204e-04 8.92857183e-03 1.37362641e-03
      6.86813192e-03 6.86813204e-04 2.06043967e-03 3.43406596e-03
      2.06043967e-03 6.86813204e-04 1.37362641e-03 6.86813204e-04 0.
      2.06043967e-03 1.37362641e-03 6.86813204e-04 0. 2.06043967e-03
      2.06043967e-03 6.86813204e-04 6.86813204e-04 6.86813204e-04
      2.06043967e-03 0. 6.86813204e-04 6.86813204e-04 1.37362641e-03
      1.37362641e-03 0. 6.86813204e-04 6.86813204e-04 3.43406596e-03
      2.06043967e-03 2.06043967e-03 1.37362641e-03 0. 6.86813204e-04
      1.37362641e-03 6.86813204e-04 2.06043967e-03 0. 2.74725282e-03
      1.37362641e-03 6.86813204e-04 0. 2.06043967e-03 4.80769249e-03
      2.74725282e-03 1.37362641e-03 0. 2.06043967e-03 3.43406596e-03 0.
      4.12087934e-03 2.74725282e-03 1.37362641e-03 4.12087934e-03 0.
      6.86813204e-04 4.12087934e-03 0. 1.37362641e-03 1.37362641e-03
      1.37362641e-03 6.86813204e-04 2.06043967e-03 3.43406596e-03
      3.43406596e-03 3.43406596e-03 0. 0. 1.37362641e-03 4.12087934e-03
      1.37362641e-03 2.06043967e-03 0. 2.06043967e-03 4.80769249e-03
      5.49450563e-03 3.43406596e-03 0. 3.43406596e-03 0. 4.12087934e-03
      6.86813204e-04 1.37362641e-03 6.86813204e-04 6.86813204e-04
      1.37362641e-03 5.49450563e-03 5.49450563e-03 6.86813204e-04
      6.86813204e-04 6.86813204e-04 4.80769249e-03 2.74725282e-03
      2.74725282e-03 0. 2.74725282e-03 6.86813204e-04 6.86813204e-04
      3.43406596e-03 6.86813204e-04 1.37362641e-03 0. 6.86813192e-03 0.
      6.18131878e-03 2.06043967e-03 4.12087934e-03 4.80769249e-03
      6.86813204e-04 3.43406596e-03 2.74725282e-03 2.74725282e-03
      6.86813204e-04 4.12087934e-03 5.49450563e-03 8.24175868e-03 0.
      4.80769249e-03 4.80769249e-03 4.12087934e-03 0. 6.18131878e-03
      1.37362641e-03 4.80769249e-03 6.86813204e-04 1.37362641e-03
      6.86813204e-04 2.06043967e-03 1.37362641e-03 2.74725282e-03 0.
      6.86813204e-04 2.06043967e-03 4.12087934e-03 2.06043967e-03
      1.37362641e-03 4.80769249e-03 1.37362641e-03 6.18131878e-03
      6.86813192e-03 6.86813204e-04 6.86813204e-04 0. 1.37362641e-03 0.
      3.43406596e-03 2.74725282e-03 4.80769249e-03 4.80769249e-03
      2.74725282e-03 6.86813204e-04 6.18131878e-03 2.74725282e-03
      1.37362641e-03 1.37362641e-03 7.55494507e-03 6.86813204e-04
      1.37362641e-03 6.86813204e-04 0. 3.43406596e-03 0. 4.12087934e-03
      2.74725282e-03 1.37362641e-03 6.86813204e-04 6.86813204e-04
      1.37362641e-03 1.37362641e-03 2.74725282e-03 4.12087934e-03
      1.37362641e-03 4.12087934e-03 2.06043967e-03 2.74725282e-03
      1.37362641e-03 2.06043967e-03 3.43406596e-03 2.06043967e-03
      4.12087934e-03 4.12087934e-03 0. 6.86813192e-03 6.86813204e-04
      2.06043967e-03 6.86813192e-03 4.80769249e-03 2.06043967e-03
      4.12087934e-03 2.06043967e-03 0. 6.86813204e-04 6.86813204e-04
      3.43406596e-03 6.86813204e-04 4.12087934e-03 2.74725282e-03 0.
      6.86813204e-04 6.86813204e-04 3.43406596e-03 2.06043967e-03
      2.74725282e-03 1.37362641e-03 6.86813204e-04 1.37362641e-03
      4.12087934e-03 0. 1.37362641e-03 2.06043967e-03 1.37362641e-03 0.
      6.86813204e-04 2.74725282e-03 1.37362641e-03 2.06043967e-03
      1.37362641e-03 0. 3.43406596e-03 2.74725282e-03 1.37362641e-03 0.
      6.86813204e-04 0. 6.18131878e-03 0. 2.06043967e-03 2.74725282e-03
      2.06043967e-03 6.86813204e-04 6.86813204e-04 0. 2.06043967e-03
      6.86813204e-04 3.43406596e-03 1.37362641e-03 6.86813204e-04 0.
      2.06043967e-03 6.86813204e-04 2.74725282e-03 1.37362641e-03
      2.06043967e-03 1.37362641e-03 1.37362641e-03 6.86813204e-04
      4.80769249e-03 0. 1.37362641e-03 0. 4.12087934e-03 1.37362641e-03
      2.06043967e-03 2.06043967e-03 0. 8.92857183e-03 2.06043967e-03
      6.86813204e-04 2.74725282e-03 2.74725282e-03 1.37362641e-03
      2.06043967e-03 5.49450563e-03 2.06043967e-03 2.06043967e-03
      6.86813204e-04 2.06043967e-03 4.12087934e-03 2.74725282e-03
      5.49450563e-03 0. 6.86813204e-04 0. 0. 2.06043967e-03
      2.74725282e-03 0. 6.86813204e-04 4.80769249e-03 0. 2.06043967e-03
      0. 4.12087934e-03 6.18131878e-03 6.86813204e-04 0. 0.
      6.86813204e-04 4.80769249e-03 6.86813204e-04 6.86813204e-04
      5.49450563e-03 0. 0. 3.43406596e-03 3.43406596e-03 0.
      6.86813204e-04 6.86813204e-04 4.12087934e-03 0. 0. 6.18131878e-03
      2.06043967e-03 4.80769249e-03 6.86813204e-04 4.80769249e-03
      6.86813204e-04 8.24175868e-03 7.55494507e-03 0. 6.86813204e-04 0.
      5.49450563e-03 4.12087934e-03 0. 6.86813204e-04 0. 6.86813204e-04
      2.06043967e-03 6.18131878e-03 4.80769249e-03 6.86813204e-04
      1.37362641e-03 2.74725282e-03 6.86813204e-04 2.06043967e-03
      2.06043967e-03 4.80769249e-03 1.37362641e-03 1.37362641e-03 0. 0.
      0. 0. 6.86813204e-04 1.37362641e-03 0. 2.06043967e-03
      6.86813204e-04 1.37362641e-03 2.06043967e-03 1.37362641e-03
      1.37362641e-03</_></support_vectors>
  <decision_functions>
    <_>
      <sv_count>11</sv_count>
      <rho>-9.2357683216700237e-01</rho>
      <alpha>
        6.1604606061777098e+01 2.8853936179493678e+02
        2.2566774482023212e+02 2.1911975478306630e+02
        1.0518363866558570e+02 3.0276275808855416e+01
        -6.0463229104208040e+01 -2.8771675282115638e+02
        -8.6687539330630372e+01 -1.8302386067845862e+02
        -3.1250000000000000e+02</alpha>
      <index>
        0 1 2 3 4 5 6 7 8 9 10</index></_></decision_functions></my_svm>
</opencv_storage>
