%YAML:1.0
my_svm: !!opencv-ml-svm
   svm_type: C_SVC
   kernel: { type:RBF, gamma:5.0625000000000009e-01 }
   C: 3.1250000000000000e+02
   term_criteria: { epsilon:2.2204460492503131e-16, iterations:100 }
   var_all: 1000
   var_count: 1000
   class_count: 2
   class_labels: !!opencv-matrix
      rows: 1
      cols: 2
      dt: i
      data: [ 0, 1 ]
   sv_total: 6
   support_vectors:
      - [ 3.15656565e-04, 9.46969725e-04, 3.15656565e-04, 0.,
          3.15656565e-04, 0., 3.15656565e-04, 0., 3.15656565e-04,
          1.57828280e-03, 6.31313131e-04, 0., 1.26262626e-03, 0.,
          1.26262626e-03, 2.20959587e-03, 6.31313131e-04, 0.,
          6.31313131e-04, 0., 6.31313131e-04, 3.78787890e-03, 0.,
          9.46969725e-04, 0., 9.46969725e-04, 0., 3.15656560e-03,
          4.10353532e-03, 0., 2.84090918e-03, 0., 3.15656565e-04, 0.,
          6.31313131e-04, 3.15656565e-04, 1.89393945e-03, 3.15656565e-04,
          3.47222225e-03, 3.15656565e-04, 4.73484863e-03, 3.15656565e-04,
          1.89393945e-03, 0., 0., 6.31313131e-04, 6.31313131e-04, 0.,
          6.31313131e-04, 0., 5.05050505e-03, 6.31313131e-04,
          1.57828280e-03, 0., 6.31313131e-04, 2.52525252e-03,
          3.15656560e-03, 0., 1.26262626e-03, 0., 1.89393945e-03, 0., 0.,
          0., 1.26262626e-03, 3.15656565e-04, 0., 2.52525252e-03, 0., 0.,
          0., 1.26262626e-03, 1.26262626e-03, 0., 9.46969725e-04,
          2.52525252e-03, 3.15656565e-04, 0., 1.26262626e-03,
          6.31313131e-04, 3.15656565e-04, 2.20959587e-03, 0.,
          1.57828280e-03, 5.05050505e-03, 1.26262626e-03, 0.,
          9.46969725e-04, 1.57828280e-03, 0., 0., 3.15656565e-04,
          3.15656565e-04, 2.20959587e-03, 0., 6.31313131e-04,
          9.46969725e-04, 0., 3.15656565e-04, 0., 1.26262626e-03, 0., 0.,
          1.26262626e-03, 1.26262626e-03, 3.15656565e-04, 0.,
          3.15656560e-03, 0., 1.26262626e-03, 0., 3.15656565e-04,
          4.41919174e-03, 9.46969725e-04, 3.15656560e-03, 0.,
          1.26262626e-03, 0., 0., 0., 0., 1.57828280e-03, 2.84090918e-03,
          0., 9.46969725e-04, 6.31313131e-04, 3.15656565e-04,
          9.46969725e-04, 1.26262626e-03, 3.78787890e-03, 6.31313131e-04,
          0., 1.26262626e-03, 9.46969725e-04, 0., 6.31313131e-04,
          6.31313131e-04, 1.89393945e-03, 0., 0., 0., 6.31313131e-04,
          1.26262626e-03, 0., 1.57828280e-03, 0., 0., 0., 0.,
          1.57828280e-03, 4.41919174e-03, 6.31313131e-04, 2.20959587e-03,
          0., 1.26262626e-03, 0., 2.84090918e-03, 3.15656560e-03,
          1.89393945e-03, 3.15656565e-04, 3.15656565e-04, 3.15656565e-04,
          3.15656565e-04, 0., 3.15656565e-04, 1.89393945e-03, 0.,
          3.15656565e-04, 1.57828280e-03, 2.20959587e-03, 9.46969725e-04,
          6.31313131e-04, 6.31313131e-04, 0., 1.26262626e-03,
          4.41919174e-03, 0., 6.31313131e-04, 6.31313131e-04,
          3.15656565e-04, 0., 9.46969725e-04, 6.31313131e-04,
          2.52525252e-03, 3.15656560e-03, 3.15656565e-04, 0., 0.,
          1.89393945e-03, 3.78787890e-03, 0., 3.15656565e-04,
          9.46969725e-04, 2.52525252e-03, 6.31313131e-04, 0., 0., 0.,
          1.89393945e-03, 9.46969725e-04, 6.31313131e-04, 2.20959587e-03,
          1.89393945e-03, 3.15656560e-03, 1.26262626e-03, 1.57828280e-03,
          0., 1.26262626e-03, 4.41919174e-03, 2.84090918e-03, 0.,
          1.26262626e-03, 3.15656565e-04, 3.15656565e-04, 0.,
          3.15656560e-03, 9.46969725e-04, 6.31313131e-04, 0.,
          3.15656565e-04, 1.89393945e-03, 3.15656565e-04, 0.,
          3.15656565e-04, 2.20959587e-03, 0., 0., 2.52525252e-03,
          1.26262626e-03, 6.31313131e-04, 0., 4.73484863e-03, 0.,
          3.15656565e-04, 0., 2.84090918e-03, 1.26262626e-03, 0.,
          2.20959587e-03, 3.15656565e-04, 0., 6.31313131e-04,
          9.46969725e-04, 3.15656560e-03, 1.89393945e-03, 2.52525252e-03,
          1.26262626e-03, 5.36616147e-03, 0., 0., 0., 3.47222225e-03, 0.,
          6.31313131e-04, 0., 1.57828280e-03, 3.47222225e-03, 0.,
          6.31313131e-04, 0., 0., 6.31313131e-04, 0., 0., 3.15656565e-04,
          6.31313131e-04, 0., 0., 1.89393945e-03, 3.15656560e-03,
          2.52525252e-03, 0., 5.99747477e-03, 6.31313131e-04, 0., 0., 0.,
          0., 0., 9.46969725e-04, 0., 0., 0., 0., 0., 0., 2.20959587e-03,
          0., 3.78787890e-03, 3.47222225e-03, 0., 2.84090918e-03,
          3.15656565e-04, 0., 3.15656565e-04, 3.15656565e-04,
          6.31313131e-04, 9.46969725e-04, 3.15656565e-04, 0., 0.,
          1.26262626e-03, 0., 9.46969725e-04, 6.31313131e-04,
          5.99747477e-03, 3.47222225e-03, 2.20959587e-03, 3.15656565e-04,
          0., 0., 0., 2.52525252e-03, 0., 2.20959587e-03, 1.89393945e-03,
          2.84090918e-03, 0., 2.84090918e-03, 2.20959587e-03,
          1.57828280e-03, 3.15656565e-04, 0., 1.57828280e-03,
          9.46969725e-04, 3.15656565e-04, 0., 0., 0., 9.46969725e-04,
          1.57828280e-03, 2.84090918e-03, 1.26262626e-03, 1.57828280e-03,
          0., 0., 0., 1.89393945e-03, 0., 6.31313131e-04, 1.26262626e-03,
          6.31313131e-04, 3.47222225e-03, 3.15656565e-04, 3.15656565e-04,
          5.36616147e-03, 1.26262626e-03, 3.15656565e-04, 1.89393945e-03,
          9.46969725e-04, 1.26262626e-03, 1.57828280e-03, 6.31313131e-04,
          5.05050505e-03, 1.57828280e-03, 9.46969725e-04, 0., 0.,
          3.15656565e-04, 0., 3.15656565e-04, 9.46969725e-04,
          9.46969725e-04, 1.26262626e-03, 0., 0., 6.31313131e-04, 0., 0.,
          0., 6.31313131e-04, 3.15656565e-04, 0., 0., 3.15656560e-03,
          1.57828280e-03, 0., 3.15656565e-04, 0., 1.57828280e-03,
          9.46969725e-04, 0., 3.15656565e-04, 1.89393945e-03, 0.,
          1.57828280e-03, 6.31313131e-04, 9.46969725e-04, 3.47222225e-03,
          1.57828280e-03, 6.31313131e-04, 0., 0., 0., 0., 5.36616147e-03,
          0., 2.52525252e-03, 2.52525252e-03, 6.31313131e-04,
          3.78787890e-03, 6.31313131e-04, 2.20959587e-03, 4.10353532e-03,
          1.57828280e-03, 1.89393945e-03, 1.57828280e-03, 1.57828280e-03,
          0., 0., 1.26262626e-03, 5.05050505e-03, 9.46969725e-04,
          3.15656565e-04, 0., 6.31313131e-04, 0., 1.26262626e-03, 0.,
          3.78787890e-03, 0., 0., 3.15656565e-04, 9.46969725e-04, 0., 0.,
          0., 1.57828280e-03, 2.20959587e-03, 4.73484863e-03,
          1.57828280e-03, 1.57828280e-03, 1.57828280e-03, 9.46969725e-04,
          0., 3.15656565e-04, 2.84090918e-03, 0., 2.52525252e-03,
          1.26262626e-03, 0., 1.26262626e-03, 9.46969725e-04, 0.,
          2.52525252e-03, 3.15656565e-04, 1.57828280e-03, 0., 0., 0.,
          1.26262626e-03, 0., 6.62878808e-03, 3.47222225e-03,
          6.31313131e-04, 4.73484863e-03, 0., 6.31313131e-04,
          3.15656565e-04, 0., 6.31313131e-04, 3.15656565e-04,
          9.46969725e-04, 1.26262626e-03, 8.83838348e-03, 6.31313131e-04,
          4.73484863e-03, 2.84090918e-03, 3.15656560e-03, 1.26262626e-03,
          9.46969725e-04, 3.15656560e-03, 1.26262626e-03, 3.15656565e-04,
          2.52525252e-03, 0., 0., 3.15656565e-04, 0., 3.47222225e-03,
          3.15656565e-04, 0., 3.15656565e-04, 6.31313131e-04, 0., 0., 0.,
          0., 3.15656565e-04, 0., 6.31313131e-04, 6.31313131e-04,
          6.31313131e-04, 0., 0., 0., 0., 0., 9.46969725e-04,
          2.52525252e-03, 6.31313131e-04, 0., 1.57828280e-03,
          3.15656565e-04, 0., 6.31313131e-04, 6.31313131e-04,
          9.46969725e-04, 0., 3.78787890e-03, 3.15656560e-03,
          2.52525252e-03, 1.26262626e-03, 3.47222225e-03, 9.46969725e-04,
          2.20959587e-03, 0., 2.52525252e-03, 3.15656565e-04,
          2.84090918e-03, 0., 0., 0., 1.26262626e-03, 1.57828280e-03,
          3.15656565e-04, 6.31313131e-04, 0., 6.31313131e-04, 0.,
          1.89393945e-03, 4.10353532e-03, 2.20959587e-03, 3.78787890e-03,
          3.78787890e-03, 1.26262626e-03, 0., 1.26262626e-03,
          3.15656565e-04, 6.31313131e-04, 0., 9.46969725e-04,
          3.15656565e-04, 0., 3.15656565e-04, 3.15656565e-04,
          1.57828280e-03, 3.15656565e-04, 0., 0., 1.26262626e-03,
          2.52525252e-03, 3.15656565e-04, 1.26262626e-03, 0.,
          2.20959587e-03, 9.46969725e-04, 2.52525252e-03, 0., 0., 0., 0.,
          3.78787890e-03, 0., 6.31313131e-04, 6.31313131e-04, 0., 0.,
          1.26262626e-03, 9.46969725e-04, 0., 0., 0., 4.73484863e-03,
          1.26262626e-03, 3.15656560e-03, 1.26262626e-03, 0.,
          2.20959587e-03, 0., 0., 3.15656565e-04, 3.15656560e-03,
          9.46969725e-04, 0., 0., 0., 0., 2.52525252e-03, 6.31313131e-04,
          1.57828280e-03, 0., 0., 0., 0., 6.31313131e-04, 3.78787890e-03,
          6.31313131e-04, 2.20959587e-03, 9.46969725e-04, 3.15656565e-04,
          1.26262626e-03, 3.15656565e-04, 0., 0., 0., 1.89393945e-03,
          3.15656565e-04, 0., 4.41919174e-03, 6.31313131e-04,
          1.26262626e-03, 2.52525252e-03, 3.15656565e-04, 1.57828280e-03,
          3.15656565e-04, 6.31313131e-04, 0., 0., 1.89393945e-03, 0., 0.,
          6.31313131e-04, 3.15656565e-04, 0., 0., 0., 0., 4.41919174e-03,
          3.15656565e-04, 1.26262626e-03, 0., 0., 3.15656565e-04,
          1.89393945e-03, 0., 1.57828280e-03, 0., 0., 6.31313131e-04,
          6.31313131e-04, 0., 2.84090918e-03, 1.89393945e-03,
          5.99747477e-03, 0., 3.47222225e-03, 0., 6.31313131e-04, 0.,
          9.46969725e-04, 0., 6.31313119e-03, 0., 0., 1.26262626e-03,
          3.15656565e-04, 0., 6.31313131e-04, 1.57828280e-03,
          3.15656565e-04, 0., 0., 2.52525252e-03, 2.84090918e-03, 0.,
          6.31313131e-04, 3.15656565e-04, 0., 1.26262626e-03,
          2.20959587e-03, 6.31313131e-04, 2.20959587e-03, 1.89393945e-03,
          4.73484863e-03, 3.15656565e-04, 2.84090918e-03, 0., 0.,
          9.46969725e-04, 1.57828280e-03, 0., 4.10353532e-03, 0.,
          3.15656565e-04, 3.15656565e-04, 1.26262626e-03, 0., 0., 0.,
          9.46969725e-04, 2.84090918e-03, 0., 9.46969725e-04,
          5.68181835e-03, 3.15656565e-04, 9.46969725e-04, 9.46969725e-04,
          6.31313131e-04, 3.78787890e-03, 5.68181835e-03, 0., 0.,
          4.41919174e-03, 1.26262626e-03, 3.47222225e-03, 1.26262626e-03,
          1.89393945e-03, 1.89393945e-03, 3.15656565e-04, 3.47222225e-03,
          3.15656565e-04, 9.46969725e-04, 0., 1.26262626e-03,
          3.15656565e-04, 1.89393945e-03, 1.26262626e-03, 6.31313131e-04,
          0., 6.31313131e-04, 0., 9.46969725e-04, 1.89393945e-03,
          3.15656565e-04, 1.57828280e-03, 0., 1.57828280e-03,
          2.52525252e-03, 0., 9.46969725e-04, 0., 6.31313131e-04,
          3.15656565e-04, 1.26262626e-03, 2.20959587e-03, 1.89393945e-03,
          3.15656565e-04, 0., 0., 6.31313131e-04, 2.20959587e-03,
          6.31313131e-04, 6.31313131e-04, 0., 9.46969725e-04,
          6.31313131e-04, 9.46969725e-04, 0., 0., 9.46969725e-04,
          6.31313131e-04, 0., 6.31313131e-04, 1.89393945e-03,
          1.57828280e-03, 9.46969725e-04, 1.89393945e-03, 3.15656565e-04,
          9.46969725e-04, 9.46969725e-04, 3.15656560e-03, 0.,
          9.46969725e-04, 3.15656565e-04, 1.89393945e-03, 3.15656565e-04,
          6.31313131e-04, 1.89393945e-03, 1.89393945e-03, 3.15656565e-04,
          3.15656565e-04, 3.15656565e-04, 3.15656565e-04, 2.20959587e-03,
          0., 2.20959587e-03, 0., 4.73484863e-03, 0., 3.15656565e-04,
          1.26262626e-03, 1.26262626e-03, 0., 2.84090918e-03, 0., 0., 0.,
          3.15656565e-04, 0., 3.15656565e-04, 0., 1.57828280e-03,
          1.26262626e-03, 6.31313131e-04, 0., 0., 0., 3.15656565e-04, 0.,
          0., 0., 0., 1.57828280e-03, 3.15656565e-04, 1.57828280e-03, 0.,
          6.31313131e-04, 1.89393945e-03, 3.15656565e-04, 0.,
          3.15656565e-04, 2.52525252e-03, 0., 3.15656565e-04, 0., 0., 0.,
          9.46969725e-04, 3.15656565e-04, 6.31313131e-04, 6.31313131e-04,
          6.31313131e-04, 6.31313131e-04, 0., 3.15656565e-04,
          9.46969725e-04, 0., 3.15656565e-04, 9.46969725e-04,
          1.89393945e-03, 0., 3.78787890e-03, 1.89393945e-03, 0.,
          4.41919174e-03, 6.31313131e-04, 2.52525252e-03, 1.26262626e-03,
          1.57828280e-03, 3.15656565e-04, 0., 9.46969725e-04,
          1.26262626e-03, 3.15656565e-04, 0., 0., 3.15656565e-04,
          6.31313131e-04, 3.15656565e-04, 0., 3.15656565e-04,
          3.15656565e-04, 6.31313131e-04, 0., 1.57828280e-03, 0.,
          6.31313131e-04, 1.26262626e-03, 1.26262626e-03, 0., 0., 0.,
          6.31313131e-04, 0., 3.15656565e-04, 6.31313131e-04, 0., 0.,
          4.41919174e-03, 2.20959587e-03, 1.26262626e-03, 1.89393945e-03,
          6.31313131e-04, 3.15656565e-04, 0., 3.15656565e-04,
          6.31313131e-04, 9.46969725e-04, 0., 3.15656565e-04, 0.,
          3.15656565e-04, 1.57828280e-03, 3.15656565e-04, 6.31313131e-04,
          0., 0., 3.15656565e-04, 6.31313131e-04, 0., 1.89393945e-03,
          1.89393945e-03, 3.15656565e-04, 0., 6.31313131e-04,
          6.31313131e-04, 0., 0., 9.46969725e-04, 2.20959587e-03,
          1.26262626e-03, 2.52525252e-03, 3.15656565e-04, 6.31313131e-04,
          2.52525252e-03, 3.15656565e-04, 2.20959587e-03, 0.,
          3.15656565e-04, 0., 0., 1.57828280e-03, 1.26262626e-03, 0.,
          6.31313131e-04, 9.46969725e-04, 2.20959587e-03, 0.,
          3.15656565e-04, 1.89393945e-03, 0., 5.68181835e-03,
          3.15656565e-04, 4.41919174e-03, 0., 0., 2.52525252e-03, 0., 0.,
          0., 6.31313131e-04, 0., 0., 1.26262626e-03, 3.78787890e-03,
          1.57828280e-03, 0., 6.31313131e-04, 0., 0., 2.20959587e-03,
          6.31313131e-04, 1.89393945e-03, 0., 0., 2.52525252e-03,
          6.31313131e-04, 3.15656565e-04, 0., 9.46969725e-04, 0.,
          3.15656565e-04, 0., 1.89393945e-03, 4.73484863e-03,
          6.31313131e-04, 6.31313131e-04, 5.68181835e-03, 6.31313131e-04,
          3.15656565e-04, 9.46969725e-04, 4.41919174e-03, 0., 0.,
          2.20959587e-03, 1.26262626e-03, 0., 0., 0., 1.26262626e-03,
          3.15656565e-04, 0., 3.47222225e-03, 0., 0., 3.15656565e-04,
          9.46969725e-04, 2.20959587e-03, 0., 1.57828280e-03,
          3.15656560e-03, 4.10353532e-03, 1.57828280e-03, 1.89393945e-03,
          1.57828280e-03, 3.15656565e-04, 9.46969725e-04, 1.89393945e-03,
          1.89393945e-03, 1.26262626e-03, 0., 0., 9.46969725e-04,
          3.15656565e-04, 0., 0., 9.46969725e-04, 9.46969725e-04,
          3.15656560e-03 ]
      - [ 8.39278218e-04, 0., 2.51783477e-03, 0., 4.19639109e-04, 0.,
          4.19639109e-04, 4.19639109e-04, 8.39278218e-04, 4.19639109e-04,
          1.25891739e-03, 0., 1.25891739e-03, 0., 0., 8.39278218e-04,
          6.29458670e-03, 0., 0., 0., 0., 1.25891739e-03, 0.,
          8.39278218e-04, 0., 3.77675192e-03, 0., 4.19639109e-04,
          4.19639109e-04, 2.09819549e-03, 4.19639109e-04, 0., 0., 0., 0.,
          8.39278218e-04, 1.80444811e-02, 1.25891739e-03, 5.03566954e-03,
          4.19639109e-04, 3.77675192e-03, 0., 1.67855644e-03, 0., 0.,
          4.19639109e-04, 0., 0., 8.39278218e-04, 8.39278218e-04,
          4.19639109e-04, 0., 8.39278218e-04, 0., 2.09819549e-03,
          4.19639109e-04, 4.19639109e-04, 6.71422575e-03, 8.39278218e-04,
          4.19639109e-04, 0., 0., 4.19639109e-04, 4.19639109e-04,
          8.39278218e-04, 0., 0., 1.25891739e-03, 1.25891739e-03, 0.,
          4.19639109e-04, 4.19639109e-04, 8.39278218e-04, 0.,
          8.39278218e-04, 4.19639109e-04, 1.25891739e-03, 8.39278218e-04,
          1.67855644e-03, 1.25891739e-03, 0., 0., 1.25891739e-03,
          8.39278218e-04, 4.19639109e-04, 0., 8.39278195e-03,
          8.39278218e-04, 0., 1.67855644e-03, 5.87494764e-03, 0.,
          1.25891739e-03, 1.25891739e-03, 0., 2.14015953e-02,
          2.51783477e-03, 4.19639098e-03, 1.67855644e-03, 4.19639109e-04,
          8.39278218e-04, 7.13386480e-03, 4.19639109e-04, 1.25891739e-03,
          8.39278218e-04, 1.25891739e-03, 0., 0., 0., 1.67855644e-03,
          4.19639109e-04, 1.25891739e-03, 4.19639109e-04, 3.35711287e-03,
          4.19639109e-04, 0., 0., 2.51783477e-03, 1.25891739e-03,
          4.19639109e-04, 4.19639109e-04, 4.61603003e-03, 4.19639109e-04,
          0., 1.25891739e-03, 0., 5.03566954e-03, 0., 1.25891739e-03,
          1.25891739e-03, 4.19639109e-04, 2.09819549e-03, 4.19639109e-04,
          0., 8.39278218e-04, 4.19639098e-03, 6.29458670e-03,
          3.18925716e-02, 0., 0., 0., 1.25891739e-03, 0., 4.19639109e-04,
          4.19639109e-04, 4.19639098e-03, 0., 0., 0., 0., 4.19639109e-04,
          3.35711287e-03, 4.19639109e-04, 0., 1.25891739e-03,
          7.97314290e-03, 8.39278218e-04, 4.19639109e-04, 0., 0.,
          1.46873686e-02, 8.39278218e-04, 7.55350385e-03, 3.35711287e-03,
          4.19639109e-04, 8.39278218e-04, 0., 0., 2.09819549e-03, 0., 0.,
          4.19639109e-04, 0., 0., 4.19639109e-04, 2.09819549e-03,
          8.39278218e-04, 4.19639109e-04, 0., 0., 2.93747382e-03,
          1.67855644e-03, 4.19639109e-04, 0., 1.25891739e-03,
          4.19639109e-04, 0., 0., 2.93747382e-03, 0., 0., 4.19639109e-04,
          4.19639109e-04, 1.67855644e-03, 1.67855644e-03, 0., 0.,
          4.19639109e-04, 0., 5.03566954e-03, 3.35711287e-03,
          4.19639109e-04, 2.09819549e-03, 0., 1.67855644e-03,
          4.19639109e-04, 0., 4.19639109e-04, 4.19639109e-04,
          8.39278218e-04, 4.19639109e-04, 3.35711287e-03, 0.,
          8.39278218e-04, 4.19639109e-04, 0., 2.93747382e-03, 0., 0., 0.,
          4.19639109e-04, 1.25891739e-03, 0., 0., 1.25891739e-03, 0., 0.,
          4.19639109e-04, 0., 4.19639109e-04, 0., 4.19639109e-04,
          2.09819549e-03, 0., 4.19639109e-04, 0., 0., 0., 8.39278218e-04,
          3.35711287e-03, 0., 0., 8.39278218e-04, 8.39278218e-04,
          1.67855644e-03, 0., 0., 4.19639109e-04, 0., 8.39278218e-04, 0.,
          4.19639109e-04, 1.25891739e-03, 0., 0., 4.19639109e-04,
          4.19639109e-04, 0., 4.19639109e-04, 4.19639109e-04, 0.,
          5.87494764e-03, 0., 0., 0., 1.67855644e-03, 7.97314290e-03,
          7.97314290e-03, 4.19639109e-04, 8.39278218e-04, 4.19639109e-04,
          4.19639109e-04, 4.19639109e-04, 0., 0., 0., 0., 0., 0.,
          1.25891739e-03, 4.19639109e-04, 0., 0., 0., 2.51783477e-03, 0.,
          1.67855644e-03, 8.39278218e-04, 0., 8.39278218e-04,
          3.35711287e-03, 4.19639109e-04, 4.19639109e-04, 9.23206005e-03,
          0., 4.19639109e-04, 1.25891739e-03, 4.19639109e-04,
          4.19639109e-04, 0., 4.19639109e-04, 4.19639109e-04, 0., 0.,
          2.93747382e-03, 4.19639109e-04, 1.25891739e-03, 4.19639109e-04,
          0., 1.67855644e-03, 8.39278195e-03, 0., 4.19639109e-04, 0.,
          2.51783477e-03, 8.39278218e-04, 4.19639109e-04, 0.,
          1.25891739e-03, 1.67855644e-03, 4.19639109e-04, 8.39278218e-04,
          8.39278218e-04, 8.39278218e-04, 4.19639109e-04, 8.39278218e-04,
          8.39278218e-04, 0., 4.19639109e-04, 0., 8.39278218e-04,
          4.19639109e-04, 0., 0., 0., 4.61603003e-03, 4.19639109e-04,
          4.19639098e-03, 0., 4.19639109e-04, 0., 0., 3.35711287e-03,
          1.25891739e-03, 4.19639109e-04, 1.67855644e-03, 0., 0., 0.,
          4.19639109e-04, 0., 0., 8.39278218e-04, 1.67855644e-03,
          1.67855644e-03, 0., 0., 0., 4.19639109e-04, 0., 0., 0., 0.,
          4.19639109e-04, 0., 0., 3.35711287e-03, 3.35711287e-03, 0.,
          4.19639109e-04, 1.67855644e-03, 0., 4.19639109e-04, 0., 0., 0.,
          0., 1.25891739e-03, 0., 0., 2.09819549e-03, 0., 0.,
          4.19639109e-04, 1.25891739e-03, 8.39278218e-04, 8.39278218e-04,
          4.19639109e-04, 2.51783477e-03, 4.19639109e-04, 5.45530859e-03,
          0., 0., 0., 0., 0., 1.67855644e-03, 8.39278218e-04,
          4.19639109e-04, 4.19639098e-03, 1.67855644e-03, 2.93747382e-03,
          0., 8.39278218e-04, 8.39278218e-04, 0., 4.19639109e-04,
          8.39278218e-04, 4.19639109e-04, 0., 3.35711287e-03,
          1.25891739e-03, 0., 4.19639109e-04, 0., 4.19639109e-04,
          4.19639109e-04, 8.39278218e-04, 8.39278218e-04, 0.,
          8.39278218e-04, 0., 0., 2.93747382e-03, 4.19639109e-04, 0., 0.,
          2.51783477e-03, 4.19639109e-04, 8.39278218e-04, 1.25891739e-03,
          8.39278218e-04, 4.19639109e-04, 5.87494764e-03, 4.19639109e-04,
          0., 2.51783477e-03, 5.45530859e-03, 4.19639109e-04,
          1.25891739e-03, 0., 1.67855644e-03, 0., 4.19639109e-04,
          1.67855644e-03, 4.19639109e-04, 0., 4.19639109e-04, 0., 0., 0.,
          2.51783477e-03, 4.19639109e-04, 8.39278218e-04, 0.,
          8.39278218e-04, 0., 0., 0., 0., 8.39278218e-04, 8.39278218e-04,
          4.19639109e-04, 0., 4.19639109e-04, 4.19639109e-04, 0.,
          1.25891739e-03, 4.19639109e-04, 8.39278218e-04, 2.93747382e-03,
          8.39278218e-04, 3.77675192e-03, 1.25891739e-03, 0.,
          4.19639109e-04, 0., 1.25891739e-03, 0., 0., 8.39278218e-04,
          4.19639109e-04, 4.19639109e-04, 4.19639109e-04, 4.19639109e-04,
          4.19639109e-04, 2.51783477e-03, 1.67855644e-03, 0.,
          4.19639109e-04, 8.39278218e-04, 3.35711287e-03, 4.19639109e-04,
          0., 0., 8.39278218e-04, 2.93747382e-03, 8.39278218e-04, 0.,
          4.19639109e-04, 0., 5.03566954e-03, 8.39278218e-04,
          4.61603003e-03, 4.19639109e-04, 0., 8.39278218e-04,
          1.25891739e-03, 4.19639109e-04, 4.19639109e-04, 0.,
          2.51783477e-03, 1.67855644e-03, 0., 2.09819549e-03,
          1.25891739e-03, 0., 4.19639109e-04, 3.77675192e-03, 0., 0.,
          4.19639109e-04, 0., 4.19639109e-04, 0., 4.19639109e-04,
          2.09819549e-03, 2.51783477e-03, 1.25891739e-03, 0.,
          1.67855644e-03, 8.39278218e-04, 0., 0., 0., 2.09819549e-03,
          4.19639109e-04, 0., 4.19639109e-04, 1.25891739e-03, 0.,
          8.39278218e-04, 0., 8.39278218e-04, 1.67855644e-03, 0.,
          8.39278218e-04, 4.19639109e-04, 4.19639109e-04, 1.04909781e-02,
          0., 0., 0., 5.45530859e-03, 6.71422575e-03, 5.45530859e-03, 0.,
          0., 8.39278218e-04, 4.19639109e-04, 0., 0., 8.39278218e-04,
          8.39278218e-04, 1.25891739e-03, 0., 0., 0., 1.25891739e-03,
          8.39278218e-04, 1.67855644e-03, 4.19639109e-04, 4.19639109e-04,
          1.67855644e-03, 4.19639109e-04, 4.19639109e-04, 8.39278218e-04,
          3.35711287e-03, 8.39278218e-04, 2.93747382e-03, 1.67855644e-03,
          4.19639109e-04, 4.19639109e-04, 4.19639109e-04, 0.,
          1.25891739e-03, 0., 0., 4.19639109e-04, 0., 1.25891739e-03, 0.,
          5.03566954e-03, 0., 2.93747382e-03, 0., 2.09819549e-03,
          8.39278218e-04, 8.39278218e-04, 1.25891739e-03, 4.19639098e-03,
          0., 0., 0., 0., 0., 4.19639109e-04, 8.39278218e-04, 0.,
          1.25891739e-03, 0., 4.19639098e-03, 0., 1.67855644e-03, 0., 0.,
          0., 0., 4.19639109e-04, 1.25891739e-03, 4.19639109e-04,
          1.25891739e-03, 8.39278218e-04, 0., 4.19639109e-04,
          4.19639109e-04, 0., 1.25891739e-03, 8.39278218e-04, 0.,
          4.19639109e-04, 0., 8.39278218e-04, 4.19639109e-04,
          4.19639109e-04, 0., 1.67855644e-03, 1.25891739e-03, 0., 0., 0.,
          8.39278218e-04, 0., 1.25891739e-03, 2.09819549e-03, 0., 0., 0.,
          0., 3.35711287e-03, 0., 1.67855644e-03, 0., 4.19639109e-04,
          4.19639109e-04, 4.19639109e-04, 2.51783477e-03, 0., 0.,
          1.25891739e-03, 2.09819549e-03, 0., 0., 0., 1.67855644e-03, 0.,
          0., 0., 0., 1.25891739e-03, 1.25891739e-03, 0., 4.19639109e-04,
          4.19639109e-04, 8.39278218e-04, 4.19639109e-04, 0., 0., 0., 0.,
          0., 8.39278218e-04, 4.19639109e-04, 0., 0., 4.19639109e-04,
          5.03566954e-03, 2.93747382e-03, 0., 4.19639109e-04,
          4.19639109e-04, 1.25891739e-03, 0., 0., 4.19639109e-04, 0., 0.,
          1.25891739e-03, 0., 0., 1.25891739e-03, 4.19639098e-03, 0., 0.,
          1.25891739e-03, 4.19639109e-04, 3.35711287e-03, 4.19639109e-04,
          4.19639109e-04, 1.25891739e-03, 4.19639109e-04, 2.93747382e-03,
          0., 0., 0., 4.19639109e-04, 0., 1.25891739e-03, 8.39278218e-04,
          0., 1.67855644e-03, 0., 8.39278218e-04, 8.39278218e-04, 0.,
          4.19639109e-04, 4.61603003e-03, 1.25891739e-03, 4.19639109e-04,
          1.25891739e-03, 0., 4.19639109e-04, 1.25891739e-03,
          7.97314290e-03, 0., 8.39278218e-04, 1.25891739e-03, 0., 0., 0.,
          1.67855644e-03, 0., 0., 2.09819549e-03, 2.09819549e-03, 0.,
          1.67855644e-03, 8.39278218e-04, 0., 0., 0., 8.39278218e-04, 0.,
          4.19639109e-04, 8.39278218e-04, 1.67855644e-03, 8.39278218e-04,
          1.25891739e-03, 0., 4.19639109e-04, 0., 2.09819549e-03,
          1.25891739e-03, 1.67855644e-03, 0., 1.67855644e-03, 0.,
          4.19639098e-03, 2.09819549e-03, 8.39278218e-04, 3.35711287e-03,
          0., 4.19639109e-04, 8.39278218e-04, 1.67855644e-03,
          1.67855644e-03, 1.13302562e-02, 4.19639109e-04, 0., 0., 0., 0.,
          8.39278218e-04, 0., 0., 4.19639109e-04, 0., 0., 4.19639098e-03,
          1.67855644e-03, 0., 4.19639109e-04, 0., 0., 4.19639109e-04,
          7.13386480e-03, 0., 0., 4.19639109e-04, 0., 1.25891739e-03,
          8.39278218e-04, 1.25891739e-03, 2.51783477e-03, 1.25891734e-02,
          0., 4.19639109e-04, 0., 0., 0., 0., 3.77675192e-03,
          8.39278218e-04, 2.93747382e-03, 0., 0., 0., 4.19639109e-04, 0.,
          0., 4.19639109e-04, 2.09819549e-03, 0., 8.39278218e-04,
          4.19639109e-04, 4.19639109e-04, 8.39278218e-04, 0., 0.,
          2.09819549e-03, 0., 0., 0., 4.19639109e-04, 0., 4.19639109e-04,
          4.19639109e-04, 0., 9.65169910e-03, 0., 2.51783477e-03,
          4.19639109e-04, 0., 0., 8.39278218e-04, 0., 4.19639109e-04, 0.,
          0., 0., 2.09819549e-03, 0., 4.19639109e-04, 1.25891739e-03, 0.,
          0., 0., 4.19639109e-04, 8.39278218e-04, 4.19639109e-04,
          2.09819549e-03, 4.19639109e-04, 0., 8.39278218e-04, 0., 0., 0.,
          0., 2.09819549e-03, 4.19639109e-04, 4.19639109e-04,
          8.39278218e-04, 4.19639109e-04, 8.39278218e-04, 3.35711287e-03,
          0., 2.51783477e-03, 1.25891739e-03, 0., 1.25891739e-03, 0.,
          3.77675192e-03, 0., 0., 3.77675192e-03, 0., 2.93747382e-03, 0.,
          0., 0., 0., 0., 8.39278218e-04, 1.67855644e-03, 0.,
          4.19639109e-04, 4.19639109e-04, 0., 6.71422575e-03, 0.,
          2.09819549e-03, 4.19639109e-04, 8.39278218e-04, 1.25891739e-03,
          0., 0., 0., 0., 2.51783477e-03, 5.03566954e-03, 0., 0.,
          1.25891739e-03, 8.39278218e-04, 1.25891739e-03, 0.,
          8.39278218e-04, 8.39278218e-04, 0., 0., 8.39278218e-04,
          8.39278218e-04, 8.39278218e-04, 0., 1.25891739e-03,
          4.19639109e-04, 0., 8.39278218e-04, 0., 4.19639109e-04,
          1.67855644e-03, 0., 2.51783477e-03, 0., 4.19639109e-04,
          8.39278218e-04, 4.19639109e-04, 0., 2.09819549e-03,
          4.19639109e-04, 1.67855644e-03, 0., 4.19639109e-04,
          8.39278218e-04, 0., 5.45530859e-03, 1.25891739e-03,
          4.19639109e-04, 0., 0., 8.39278218e-04, 4.19639109e-04,
          4.19639098e-03, 0., 4.19639109e-04, 4.19639109e-04,
          4.19639109e-04, 1.25891739e-03, 4.19639109e-04, 0., 0.,
          8.39278218e-04, 4.19639109e-04, 2.51783477e-03, 0.,
          4.19639109e-04, 4.19639109e-04, 2.93747382e-03, 0.,
          4.19639109e-04, 0., 1.25891739e-03, 0., 8.39278218e-04, 0., 0.,
          4.19639109e-04, 4.19639109e-04, 8.39278218e-04, 1.67855644e-03,
          4.19639109e-04, 1.25891739e-03, 8.39278218e-04, 1.67855644e-03,
          0., 2.09819549e-03, 3.35711287e-03, 0., 4.19639109e-04,
          4.19639109e-04, 1.67855644e-03, 4.61603003e-03, 4.19639109e-04,
          4.19639109e-04, 1.67855644e-03, 0., 4.19639109e-04,
          8.39278218e-04, 8.39278218e-04, 4.19639109e-04 ]
      - [ 5.65930968e-04, 0., 2.82965484e-04, 5.65930968e-04, 0.,
          8.77192989e-03, 2.82965484e-04, 0., 2.82965484e-04,
          4.81041335e-03, 1.69779290e-03, 0., 2.82965484e-04, 0.,
          2.82965484e-04, 5.65930968e-04, 0., 0., 0., 0., 0.,
          1.13186194e-03, 0., 5.65930968e-04, 4.81041335e-03, 0., 0.,
          5.65930968e-04, 8.48896452e-04, 2.82965484e-04, 1.41482742e-03,
          0., 0., 3.11262021e-03, 0., 8.48896452e-04, 6.22524042e-03,
          1.69779290e-03, 2.82965484e-04, 0., 2.82965484e-04, 0.,
          3.11262021e-03, 0., 0., 5.37634408e-03, 1.98075827e-03,
          2.82965484e-04, 2.26372387e-03, 4.81041335e-03, 4.52744775e-03,
          5.37634408e-03, 2.82965484e-04, 0., 1.69779290e-03,
          5.65930968e-04, 0., 4.24448214e-03, 0., 0., 1.98075827e-03, 0.,
          0., 0., 0., 1.13186194e-03, 0., 1.13186194e-03, 2.82965484e-03,
          0., 7.07413722e-03, 0., 0., 2.54668947e-03, 1.13186194e-03,
          5.65930968e-04, 0., 1.69779290e-03, 8.48896452e-04,
          8.48896452e-04, 5.65930968e-03, 2.82965484e-04, 0.,
          1.41482742e-03, 1.69779290e-03, 8.48896452e-04, 0.,
          2.82965484e-04, 2.82965484e-04, 0., 2.82965484e-04,
          1.69779290e-03, 1.13186194e-03, 2.54668947e-03, 5.09337895e-03,
          1.13186194e-03, 5.94227528e-03, 0., 1.13186194e-03, 0.,
          1.41482742e-03, 0., 0., 8.48896452e-04, 3.39558581e-03, 0.,
          5.65930968e-04, 0., 0., 2.54668947e-03, 0., 2.26372387e-03,
          5.65930968e-04, 5.65930968e-04, 1.41482742e-03, 1.41482742e-03,
          2.82965484e-04, 4.81041335e-03, 1.98075827e-03, 2.82965484e-03,
          8.48896429e-03, 7.35710282e-03, 5.65930968e-04, 5.65930968e-03,
          2.82965484e-04, 0., 3.39558581e-03, 0., 3.11262021e-03,
          5.65930968e-04, 2.82965484e-03, 2.82965484e-04, 1.69779290e-03,
          5.65930968e-04, 8.48896452e-04, 5.65930968e-04, 0.,
          3.96151654e-03, 0., 0., 0., 1.13186194e-03, 2.26372387e-03, 0.,
          5.65930968e-04, 0., 0., 2.82965484e-04, 0., 4.81041335e-03,
          8.48896452e-04, 8.48896452e-04, 5.65930968e-04, 4.81041335e-03,
          2.82965484e-04, 5.65930968e-04, 2.82965484e-04, 1.13186194e-03,
          0., 2.82965484e-04, 0., 2.82965484e-03, 3.39558581e-03,
          2.82965484e-04, 5.65930968e-04, 1.41482742e-03, 5.65930968e-04,
          0., 5.65930968e-04, 2.82965484e-04, 2.82965484e-03,
          7.92303309e-03, 1.69779290e-03, 0., 8.48896452e-04,
          1.41482742e-03, 0., 2.82965484e-04, 0., 1.98075827e-03, 0.,
          5.65930968e-04, 2.82965484e-04, 3.39558581e-03, 2.82965484e-04,
          6.50820602e-03, 0., 0., 5.65930968e-04, 1.13186194e-03,
          5.65930968e-03, 1.41482742e-03, 5.65930968e-04, 0.,
          5.94227528e-03, 2.82965484e-04, 0., 2.82965484e-04,
          5.65930968e-04, 2.26372387e-03, 1.13186194e-03, 4.52744775e-03,
          1.41482742e-03, 2.82965484e-04, 3.11262021e-03, 4.24448214e-03,
          0., 1.13186194e-03, 0., 5.65930968e-04, 0., 1.13186194e-03,
          1.69779290e-03, 0., 8.48896452e-04, 0., 0., 0., 0.,
          2.82965484e-04, 0., 2.82965484e-04, 0., 0., 5.09337895e-03,
          1.13186194e-03, 1.13186194e-03, 0., 1.13186194e-03, 0., 0.,
          2.82965484e-04, 0., 0., 0., 5.65930968e-04, 7.64006795e-03, 0.,
          0., 4.52744775e-03, 0., 0., 3.11262021e-03, 0., 2.82965484e-03,
          5.65930968e-04, 2.82965484e-03, 1.13186194e-03, 6.22524042e-03,
          5.65930968e-04, 1.69779290e-03, 2.82965484e-04, 0., 0., 0.,
          5.65930968e-03, 0., 3.11262021e-03, 0., 0., 0., 0., 0.,
          1.21675162e-02, 0., 1.13186194e-03, 0., 0., 5.65930968e-04,
          3.11262021e-03, 1.13186194e-03, 2.82965484e-04, 0.,
          1.41482742e-03, 0., 5.65930968e-04, 0., 2.54668947e-03, 0.,
          2.82965484e-04, 8.48896452e-04, 0., 0., 0., 1.41482742e-03, 0.,
          1.13186194e-03, 8.48896452e-04, 0., 1.41482742e-03, 0.,
          5.65930968e-04, 0., 0., 0., 5.65930968e-04, 5.65930968e-04, 0.,
          2.82965484e-03, 2.26372387e-03, 0., 3.67855141e-03, 0.,
          2.82965484e-04, 1.13186194e-03, 0., 0., 2.82965484e-04,
          5.09337895e-03, 2.82965484e-04, 5.65930968e-04, 0., 0., 0.,
          2.26372387e-03, 3.39558581e-03, 8.48896452e-04, 0.,
          1.69779290e-03, 4.24448214e-03, 5.65930968e-04, 5.37634408e-03,
          0., 1.69779290e-03, 8.48896452e-04, 2.82965484e-04,
          2.82965484e-04, 3.11262021e-03, 8.48896452e-04, 0.,
          2.82965484e-04, 0., 0., 0., 0., 5.65930968e-04, 1.41482742e-03,
          2.82965484e-04, 0., 5.65930968e-04, 8.48896452e-04,
          1.98075827e-03, 0., 0., 2.82965484e-04, 1.41482742e-03,
          5.65930968e-04, 1.98075827e-03, 2.82965484e-04, 2.26372387e-03,
          2.82965484e-04, 2.82965484e-04, 5.65930968e-03, 2.82965484e-04,
          5.65930968e-04, 2.82965484e-04, 0., 8.48896452e-04, 0.,
          2.82965484e-04, 0., 1.41482742e-03, 0., 2.82965484e-04,
          2.82965484e-04, 0., 0., 0., 0., 2.82965484e-04, 0.,
          1.98075827e-03, 8.48896452e-04, 1.98075827e-03, 0.,
          2.82965484e-04, 0., 2.82965484e-04, 2.82965484e-04, 0.,
          7.07413722e-03, 2.82965484e-04, 1.41482742e-03, 1.98075827e-03,
          8.48896452e-04, 5.65930968e-04, 5.65930968e-04, 5.65930968e-04,
          3.67855141e-03, 2.54668947e-03, 0., 5.65930968e-04, 0., 0., 0.,
          8.48896452e-04, 2.82965484e-04, 5.65930968e-04, 3.39558581e-03,
          2.82965484e-04, 3.11262021e-03, 6.50820602e-03, 1.41482742e-03,
          8.48896452e-04, 5.65930968e-04, 5.65930968e-04, 5.65930968e-04,
          1.41482742e-03, 5.65930968e-04, 0., 2.82965484e-04,
          2.82965484e-04, 0., 5.65930968e-04, 1.41482742e-03,
          5.65930968e-04, 0., 2.82965484e-04, 2.82965484e-04, 0., 0., 0.,
          1.13186194e-03, 0., 0., 0., 1.69779290e-03, 8.48896452e-04,
          3.11262021e-03, 2.82965484e-04, 5.65930968e-04, 8.48896452e-04,
          0., 1.13186194e-03, 0., 2.82965484e-04, 8.48896452e-04, 0., 0.,
          5.65930968e-04, 2.54668947e-03, 0., 0., 1.13186194e-03,
          1.13186194e-03, 8.48896452e-04, 0., 8.48896452e-04, 0., 0., 0.,
          0., 8.48896452e-04, 5.65930968e-04, 5.65930968e-04,
          2.82965484e-04, 0., 5.65930968e-04, 8.48896452e-04, 0.,
          3.67855141e-03, 1.41482742e-03, 1.69779290e-03, 1.69779290e-03,
          3.39558581e-03, 0., 0., 0., 2.82965484e-04, 8.48896452e-04,
          8.48896452e-04, 2.82965484e-04, 2.26372387e-03, 6.50820602e-03,
          1.13186194e-03, 0., 0., 0., 0., 0., 0., 5.65930968e-04,
          8.48896452e-04, 1.13186194e-03, 1.98075827e-03, 3.39558581e-03,
          2.54668947e-03, 2.82965484e-04, 0., 2.82965484e-04,
          5.65930968e-04, 2.82965484e-04, 1.41482742e-03, 0.,
          2.54668947e-03, 1.69779290e-03, 8.77192989e-03, 0.,
          2.82965484e-04, 0., 0., 8.48896452e-04, 1.41482742e-03,
          1.69779290e-03, 8.48896452e-04, 0., 1.13186194e-03, 0.,
          6.50820602e-03, 0., 5.65930968e-04, 0., 2.82965484e-04,
          1.98075827e-03, 0., 0., 0., 0., 0., 8.48896452e-04, 0., 0., 0.,
          0., 5.65930968e-04, 2.82965484e-04, 0., 1.41482742e-03,
          1.13186194e-03, 0., 0., 2.82965484e-04, 8.48896452e-04,
          8.48896452e-04, 8.48896452e-04, 8.48896452e-04, 0.,
          2.82965484e-04, 8.48896452e-04, 8.20599869e-03, 0.,
          8.48896452e-04, 0., 1.13186194e-03, 0., 0., 1.13186194e-03,
          1.41482742e-03, 4.52744775e-03, 0., 0., 0., 0., 1.69779290e-03,
          1.13186194e-03, 1.13186194e-03, 0., 0., 5.65930968e-04,
          1.41482742e-03, 3.67855141e-03, 7.35710282e-03, 1.13186194e-03,
          0., 2.82965484e-04, 1.41482742e-03, 5.94227528e-03, 0.,
          1.13186194e-03, 5.65930968e-04, 0., 0., 1.41482742e-03,
          1.41482742e-03, 2.82965484e-04, 2.82965484e-04, 0., 0., 0., 0.,
          0., 8.48896452e-04, 5.65930968e-04, 2.82965484e-04, 0.,
          4.52744775e-03, 0., 0., 5.65930968e-04, 0., 0., 0.,
          2.82965484e-04, 1.69779290e-03, 5.65930968e-04, 8.48896452e-04,
          4.24448214e-03, 5.94227528e-03, 1.13186194e-03, 5.65930968e-04,
          2.82965484e-04, 0., 2.26372387e-03, 0., 0., 3.67855141e-03,
          1.69779290e-03, 2.54668947e-03, 0., 1.41482742e-03,
          5.65930968e-04, 1.69779290e-03, 8.48896452e-04, 1.98075827e-03,
          5.65930968e-04, 0., 5.65930968e-04, 2.82965484e-04,
          2.82965484e-04, 1.41482742e-03, 0., 0., 0., 0., 0.,
          5.09337895e-03, 8.48896452e-04, 0., 1.69779290e-03, 0.,
          2.82965484e-04, 0., 1.13186194e-03, 0., 2.82965484e-04, 0.,
          1.41482742e-03, 0., 0., 5.65930968e-04, 0., 2.82965484e-04,
          1.13186194e-03, 8.48896452e-04, 2.82965484e-04, 0.,
          1.13186194e-03, 5.65930968e-04, 2.82965484e-04, 5.65930968e-04,
          0., 0., 2.82965484e-04, 0., 2.82965484e-04, 1.13186194e-03,
          1.13186194e-03, 0., 0., 1.69779290e-03, 2.82965484e-04, 0., 0.,
          0., 8.48896452e-04, 8.48896452e-04, 0., 1.69779290e-03, 0.,
          1.98075827e-03, 3.11262021e-03, 0., 5.09337895e-03,
          1.13186194e-03, 1.13186194e-03, 5.65930968e-04, 2.82965484e-04,
          0., 2.82965484e-04, 2.54668947e-03, 2.82965484e-04, 0.,
          2.54668947e-03, 0., 8.48896452e-04, 8.48896452e-04,
          1.13186194e-03, 0., 0., 0., 2.82965484e-04, 0., 2.82965484e-04,
          0., 0., 5.65930968e-04, 0., 0., 8.48896452e-04, 1.13186194e-03,
          5.65930968e-04, 0., 0., 2.82965484e-04, 0., 2.82965484e-04,
          5.65930968e-04, 5.65930968e-04, 1.13186194e-03, 1.13186194e-03,
          5.65930968e-04, 2.82965484e-04, 8.48896452e-04, 0.,
          8.48896452e-04, 5.65930968e-03, 1.41482742e-03, 2.82965484e-04,
          0., 0., 1.41482742e-03, 0., 8.48896452e-04, 1.41482742e-03, 0.,
          5.65930968e-04, 1.13186194e-03, 5.65930968e-04, 0.,
          2.82965484e-04, 0., 2.82965484e-04, 5.09337895e-03, 0.,
          5.65930968e-03, 1.41482742e-03, 3.96151654e-03, 0., 0.,
          2.26372387e-03, 4.81041335e-03, 2.54668947e-03, 0.,
          5.65930968e-04, 1.41482742e-03, 0., 2.82965484e-03,
          5.37634408e-03, 0., 0., 0., 1.13186194e-03, 0., 5.65930968e-03,
          2.26372387e-03, 1.13186194e-03, 4.81041335e-03, 4.52744775e-03,
          0., 2.82965484e-04, 2.82965484e-04, 1.98075827e-03,
          2.82965484e-04, 2.82965484e-04, 0., 8.48896452e-04,
          5.65930968e-04, 0., 2.82965484e-04, 0., 0., 2.82965484e-04,
          2.82965484e-04, 1.13186194e-03, 2.54668947e-03, 2.82965484e-04,
          0., 0., 0., 2.82965484e-03, 2.82965484e-04, 0., 1.13186194e-03,
          0., 0., 3.11262021e-03, 2.82965484e-04, 0., 2.54668947e-03,
          5.65930968e-04, 2.82965484e-04, 2.82965484e-04, 1.41482742e-03,
          4.24448214e-03, 8.48896452e-04, 2.82965484e-04, 5.65930968e-04,
          5.65930968e-04, 1.13186194e-03, 0., 5.65930968e-04,
          2.82965484e-04, 2.82965484e-04, 1.41482742e-03, 3.67855141e-03,
          0., 1.69779290e-03, 0., 0., 0., 0., 2.82965484e-04,
          1.13186194e-03, 0., 0., 8.48896452e-04, 2.82965484e-04,
          1.41482742e-03, 1.41482742e-03, 0., 1.41482742e-03, 0.,
          8.48896452e-04, 0., 2.26372387e-03, 0., 2.82965484e-04, 0., 0.,
          2.82965484e-04, 0., 0., 1.69779290e-03, 8.48896452e-04, 0.,
          2.82965484e-04, 5.65930968e-04, 0., 3.11262021e-03, 0.,
          1.13186194e-03, 1.04697226e-02, 0., 5.65930968e-04,
          5.65930968e-04, 1.69779290e-03, 8.48896452e-04, 0.,
          8.48896452e-04, 1.98075827e-03, 1.13186194e-03, 0.,
          4.24448214e-03, 0., 0., 0., 1.69779290e-03, 1.41482742e-03,
          8.48896452e-04, 5.65930968e-04, 0., 0., 0., 2.54668947e-03,
          5.65930968e-04, 5.65930968e-04, 5.65930968e-04, 8.48896452e-04,
          8.48896452e-04, 1.41482742e-03, 3.39558581e-03, 1.69779290e-03,
          5.65930968e-04, 0., 0., 0., 2.54668947e-03, 2.82965484e-04,
          2.82965484e-04, 8.48896452e-04, 1.41482742e-03, 2.54668947e-03,
          8.48896452e-04, 8.48896452e-04, 8.48896452e-04, 2.82965484e-04,
          8.48896452e-04, 2.82965484e-04, 1.69779290e-03, 5.65930968e-04,
          0., 2.54668947e-03, 0., 0., 0., 0., 0., 2.82965484e-04, 0.,
          2.82965484e-04, 0., 0., 2.82965484e-04, 0., 0., 0., 0.,
          1.41482742e-03, 2.82965484e-04, 1.13186194e-03, 0., 0.,
          3.11262021e-03, 1.69779290e-03, 0., 5.65930968e-04,
          8.48896452e-04, 2.26372387e-03, 5.65930968e-04, 2.82965484e-04,
          2.54668947e-03, 3.11262021e-03, 5.65930968e-04, 0.,
          5.65930968e-04, 0., 5.65930968e-04, 2.82965484e-04, 0.,
          2.82965484e-04, 5.65930968e-04, 8.48896452e-04, 0.,
          3.39558581e-03, 2.26372387e-03, 8.48896452e-04, 1.98075827e-03,
          4.24448214e-03, 1.13186194e-03, 3.67855141e-03, 0.,
          8.48896452e-04, 0., 1.98075827e-03, 2.26372387e-03, 0., 0.,
          5.09337895e-03, 0., 8.48896452e-04, 1.41482742e-03,
          5.65930968e-04, 0., 1.41482742e-03, 0., 5.65930968e-04,
          5.65930968e-04, 0., 8.48896452e-04, 0., 2.82965484e-04,
          8.48896452e-04, 5.65930968e-04, 0., 5.65930968e-04,
          2.82965484e-04, 2.26372387e-03, 2.82965484e-04, 0., 0.,
          5.65930968e-04, 5.65930968e-03, 0., 1.98075827e-03, 0.,
          2.82965484e-04, 2.54668947e-03, 3.39558581e-03, 2.82965484e-04,
          8.48896452e-04, 5.65930968e-04, 1.98075827e-03, 0.,
          1.41482742e-03, 2.82965484e-04, 3.39558581e-03, 1.13186194e-03,
          0., 2.82965484e-04, 5.65930968e-04, 1.41482742e-03,
          5.65930968e-04, 0., 0., 5.65930968e-04, 2.26372387e-03, 0.,
          2.82965484e-04, 2.82965484e-04, 0. ]
      - [ 3.78357916e-04, 0., 0., 0., 1.13507372e-03, 7.56715832e-04,
          3.78357916e-04, 0., 7.56715832e-04, 1.51343166e-03,
          1.13507372e-03, 3.02686333e-03, 0., 1.96746122e-02,
          1.13507372e-03, 3.78357922e-03, 0., 2.27014758e-02, 0.,
          3.78357922e-03, 7.56715832e-04, 3.78357916e-04, 3.78357916e-04,
          3.78357916e-04, 0., 5.67536894e-03, 0., 7.56715832e-04, 0.,
          3.78357916e-04, 0., 0., 5.67536894e-03, 0., 0., 7.56715832e-04,
          5.67536894e-03, 1.89178961e-03, 1.89178961e-03, 3.40522127e-03,
          3.78357916e-04, 1.89178961e-03, 0., 1.13507379e-02, 0., 0., 0.,
          1.13507372e-03, 0., 0., 3.78357916e-04, 7.56715832e-04,
          7.56715832e-04, 0., 0., 0., 0., 3.78357916e-04, 7.56715832e-04,
          3.78357916e-04, 1.13507372e-03, 0., 0., 4.54029487e-03, 0.,
          2.64850538e-03, 4.54029487e-03, 3.78357916e-04, 1.89178961e-03,
          0., 3.78357916e-04, 0., 3.78357916e-04, 3.78357916e-04, 0., 0.,
          1.51343166e-03, 3.78357916e-04, 2.27014744e-03, 0.,
          3.78357916e-04, 0., 3.78357916e-04, 7.56715832e-04, 0.,
          1.51343166e-03, 0., 0., 1.13507372e-03, 1.51343166e-03, 0., 0.,
          3.78357916e-04, 2.64850538e-03, 0., 0., 0., 0., 0.,
          7.56715832e-04, 1.89178961e-03, 0., 7.56715832e-04,
          1.13507372e-03, 3.78357916e-04, 0., 4.16193716e-03,
          3.78357916e-04, 2.27014744e-03, 7.56715832e-04, 0., 0.,
          7.56715832e-04, 3.78357916e-04, 0., 0., 1.51343166e-03, 0.,
          1.13507372e-03, 0., 3.78357916e-04, 3.02686333e-03, 0., 0.,
          4.16193716e-03, 0., 7.56715832e-04, 2.64850538e-03,
          7.56715832e-04, 0., 7.56715832e-04, 0., 0., 1.13507372e-03,
          3.78357916e-04, 7.56715832e-04, 0., 0., 0., 0., 4.54029487e-03,
          0., 0., 0., 3.78357916e-04, 0., 2.64850538e-03, 7.56715832e-04,
          5.67536894e-03, 3.78357916e-04, 1.89178961e-03, 3.78357922e-03,
          1.13507372e-03, 0., 7.56715832e-04, 2.64850538e-03,
          3.78357916e-04, 7.56715832e-04, 1.13507372e-03, 5.29701076e-03,
          0., 2.64850538e-03, 1.89178961e-03, 3.78357916e-04, 0.,
          3.78357916e-04, 0., 0., 1.13507372e-03, 3.78357916e-04, 0.,
          7.56715832e-04, 3.78357916e-04, 1.13507372e-03, 1.51343166e-03,
          0., 3.40522127e-03, 1.89178961e-03, 0., 0., 0., 7.56715832e-04,
          3.40522127e-03, 1.51343166e-03, 7.56715832e-04, 0., 0., 0.,
          3.78357916e-04, 3.40522127e-03, 3.78357916e-04, 7.56715832e-04,
          3.78357916e-04, 0., 3.78357916e-04, 0., 1.36208851e-02, 0., 0.,
          3.78357916e-04, 0., 0., 3.78357916e-04, 0., 0., 0., 0.,
          3.78357916e-04, 3.78357916e-04, 7.56715832e-04, 7.56715832e-04,
          7.56715832e-04, 1.51343166e-03, 0., 0., 1.89178961e-03, 0.,
          1.13507372e-03, 3.02686333e-03, 0., 3.78357916e-04, 0.,
          6.05372665e-03, 7.56715832e-04, 7.56715832e-04, 3.78357916e-04,
          0., 3.78357916e-04, 3.78357916e-04, 7.56715832e-04, 0., 0., 0.,
          1.89178961e-03, 3.02686333e-03, 1.89178961e-03, 0.,
          1.13507372e-03, 7.56715832e-04, 3.78357916e-04, 4.16193716e-03,
          0., 2.27014744e-03, 1.89178961e-03, 0., 0., 0., 0., 0., 0.,
          1.51343166e-03, 0., 3.02686333e-03, 0., 2.64850538e-03, 0., 0.,
          0., 0., 0., 0., 3.78357922e-03, 0., 0., 3.78357916e-04,
          3.78357922e-03, 0., 0., 3.78357916e-04, 1.13507372e-03, 0.,
          6.81044254e-03, 7.56715832e-04, 0., 4.54029487e-03,
          1.89178961e-03, 3.78357916e-04, 0., 7.56715832e-04,
          3.78357916e-04, 0., 7.94551615e-03, 0., 0., 4.16193716e-03,
          7.56715832e-04, 0., 1.13507372e-03, 3.78357916e-04,
          7.56715832e-04, 0., 0., 2.64850538e-03, 0., 0., 3.78357916e-04,
          7.56715832e-04, 2.27014744e-03, 0., 3.78357916e-04,
          6.81044254e-03, 0., 8.70223250e-03, 3.78357916e-04,
          1.13507372e-03, 1.89178961e-03, 4.91865305e-03, 2.64850538e-03,
          0., 3.78357916e-04, 7.56715832e-04, 4.16193716e-03, 0.,
          7.18880026e-03, 3.78357916e-04, 0., 2.64850538e-03,
          1.89178961e-03, 3.78357916e-04, 3.78357916e-04, 0.,
          3.78357916e-04, 0., 1.13507372e-03, 0., 0., 0., 1.51343166e-03,
          0., 0., 0., 1.13507372e-03, 3.78357916e-04, 0., 7.18880026e-03,
          0., 0., 0., 3.78357916e-04, 7.56715832e-04, 3.78357916e-04, 0.,
          0., 0., 2.64850538e-03, 7.56715832e-04, 3.78357916e-04, 0., 0.,
          7.56715832e-04, 0., 3.78357916e-04, 0., 0., 1.51343166e-03,
          8.32387432e-03, 8.32387432e-03, 3.78357916e-04, 7.56715832e-04,
          0., 7.18880026e-03, 3.78357916e-04, 3.78357916e-04, 0.,
          3.02686333e-03, 0., 3.78357916e-04, 0., 7.56715843e-03,
          1.13507372e-03, 0., 7.56715832e-04, 0., 0., 3.78357916e-04, 0.,
          0., 0., 0., 0., 3.78357916e-04, 0., 3.78357916e-04,
          3.78357916e-04, 3.40522127e-03, 3.78357916e-04, 1.89178961e-03,
          0., 3.78357916e-04, 0., 0., 0., 0., 0., 0., 0., 2.27014744e-03,
          3.78357916e-04, 7.56715832e-04, 0., 7.56715832e-04,
          7.56715832e-04, 3.78357916e-04, 0., 0., 3.78357916e-04,
          3.78357916e-04, 0., 0., 0., 3.78357916e-04, 0., 0.,
          2.64850538e-03, 0., 2.64850538e-03, 4.54029487e-03, 0.,
          1.89178961e-03, 3.78357916e-04, 0., 0., 0., 5.29701076e-03, 0.,
          7.56715832e-04, 0., 0., 0., 3.78357916e-04, 3.78357916e-04,
          4.16193716e-03, 3.78357916e-04, 0., 3.40522127e-03, 0.,
          3.78357916e-04, 1.13507372e-03, 0., 0., 0., 3.40522127e-03, 0.,
          0., 3.78357916e-04, 3.78357916e-04, 1.13507372e-03, 0.,
          3.78357916e-04, 4.91865305e-03, 0., 0., 0., 1.13507372e-03,
          3.78357916e-04, 1.13507372e-03, 1.51343166e-03, 1.51343166e-03,
          1.13507372e-03, 1.51343166e-03, 0., 0., 3.40522127e-03, 0., 0.,
          0., 7.56715832e-04, 4.16193716e-03, 0., 1.51343166e-03,
          2.64850538e-03, 3.78357916e-04, 1.13507372e-03, 0., 0., 0.,
          5.29701076e-03, 5.67536894e-03, 0., 0., 7.56715832e-04, 0., 0.,
          3.78357916e-04, 7.56715832e-04, 0., 2.27014744e-03, 0., 0., 0.,
          3.78357916e-04, 0., 7.56715832e-04, 0., 7.56715832e-04,
          3.78357916e-04, 0., 0., 0., 7.56715832e-04, 4.54029487e-03,
          2.64850538e-03, 1.51343166e-03, 0., 1.13507372e-03, 0., 0.,
          3.78357916e-04, 0., 3.78357916e-04, 3.78357916e-04,
          3.78357916e-04, 3.78357916e-04, 0., 0., 3.78357916e-04, 0.,
          7.56715832e-04, 3.78357916e-04, 2.27014744e-03, 3.78357916e-04,
          0., 0., 1.47559587e-02, 7.56715832e-04, 3.78357916e-04,
          3.78357916e-04, 3.78357916e-04, 0., 1.51343166e-03,
          3.78357916e-04, 0., 7.56715832e-04, 0., 3.78357916e-04, 0.,
          1.92962531e-02, 1.13507372e-03, 7.56715832e-04, 7.56715832e-04,
          0., 1.51343166e-03, 0., 0., 3.78357916e-04, 0., 3.78357916e-04,
          7.56715832e-04, 7.56715832e-04, 0., 0., 0., 3.78357916e-04,
          7.56715832e-04, 3.78357916e-04, 3.78357916e-04, 3.78357916e-04,
          7.56715832e-04, 0., 1.13507372e-03, 0., 0., 7.56715832e-04,
          7.56715832e-04, 2.27014744e-03, 3.78357916e-04, 0.,
          3.78357916e-04, 0., 3.02686333e-03, 3.78357916e-04,
          7.56715832e-04, 0., 7.56715832e-04, 0., 3.78357916e-04,
          2.27014744e-03, 0., 0., 0., 0., 0., 0., 7.56715832e-04, 0., 0.,
          0., 3.78357916e-04, 0., 1.89178961e-03, 3.78357916e-04, 0.,
          5.29701076e-03, 0., 3.78357916e-04, 0., 0., 0., 3.78357916e-04,
          0., 1.13507372e-03, 1.51343166e-03, 7.56715832e-04, 0.,
          3.40522127e-03, 3.78357916e-04, 7.56715832e-04, 0., 0., 0., 0.,
          1.89178961e-03, 4.54029487e-03, 0., 3.78357916e-04,
          2.27014744e-03, 0., 3.78357916e-04, 3.78357922e-03, 0., 0.,
          3.78357916e-04, 0., 3.78357916e-04, 0., 3.78357916e-04, 0.,
          6.05372665e-03, 3.78357916e-04, 0., 3.78357916e-04,
          1.89178961e-03, 2.27014744e-03, 3.78357916e-04, 1.13507372e-03,
          0., 4.54029487e-03, 3.78357916e-04, 0., 0., 0., 7.56715832e-04,
          7.56715832e-04, 0., 0., 3.78357922e-03, 3.40522127e-03, 0.,
          7.56715832e-04, 0., 1.13507372e-03, 0., 0., 3.78357916e-04, 0.,
          0., 6.05372665e-03, 1.89178961e-03, 7.56715832e-04, 0., 0., 0.,
          7.56715832e-04, 3.78357916e-04, 1.89178961e-03, 0.,
          7.56715832e-04, 3.78357916e-04, 2.64850538e-03, 3.78357916e-04,
          1.51343166e-03, 0., 3.78357916e-04, 0., 0., 6.43208437e-03, 0.,
          4.16193716e-03, 0., 0., 1.89178961e-03, 3.78357916e-04,
          3.78357916e-04, 9.08058975e-03, 3.78357916e-04, 3.78357916e-04,
          1.13507372e-03, 0., 3.78357916e-04, 0., 0., 3.78357916e-04, 0.,
          3.78357916e-04, 7.56715832e-04, 0., 0., 0., 1.51343166e-03,
          3.78357916e-04, 3.78357916e-04, 7.56715832e-04, 0., 0.,
          3.78357916e-04, 1.13507372e-03, 0., 3.78357916e-04,
          3.78357916e-04, 1.51343166e-03, 7.56715832e-04, 0.,
          1.51343166e-03, 7.56715832e-04, 0., 3.78357916e-04, 0.,
          7.56715832e-04, 0., 1.89178961e-03, 3.78357922e-03, 0.,
          7.56715843e-03, 7.56715832e-04, 0., 7.56715832e-04,
          7.56715832e-04, 7.56715832e-04, 0., 3.78357916e-04, 0.,
          1.51343166e-03, 0., 0., 3.78357916e-04, 0., 0., 1.51343166e-03,
          0., 3.78357916e-04, 7.56715832e-04, 0., 7.56715832e-04, 0., 0.,
          3.78357916e-04, 0., 3.78357916e-04, 0., 5.67536894e-03, 0.,
          1.51343166e-03, 3.78357916e-04, 3.78357916e-04, 7.56715832e-04,
          0., 0., 7.56715832e-04, 0., 0., 2.27014744e-03, 0., 0.,
          1.13507372e-03, 1.36208851e-02, 3.78357916e-04, 3.78357916e-04,
          0., 3.78357916e-04, 0., 1.51343166e-03, 7.56715843e-03, 0.,
          3.02686333e-03, 7.56715832e-04, 7.56715832e-04, 3.78357916e-04,
          3.78357916e-04, 0., 0., 0., 0., 3.78357916e-04, 0.,
          7.56715832e-04, 0., 2.64850538e-03, 1.05940215e-02,
          3.78357922e-03, 0., 3.78357916e-04, 3.78357916e-04,
          3.78357916e-04, 0., 7.56715832e-04, 0., 0., 1.89178961e-03, 0.,
          3.78357916e-04, 0., 0., 0., 0., 8.70223250e-03, 3.78357916e-04,
          0., 0., 0., 3.78357916e-04, 0., 2.27014744e-03, 2.27014744e-03,
          0., 0., 0., 4.16193716e-03, 4.16193716e-03, 0., 3.40522127e-03,
          1.13507372e-03, 0., 7.56715832e-04, 0., 0., 1.51343166e-03, 0.,
          3.40522127e-03, 0., 7.56715832e-04, 3.78357916e-04,
          3.78357916e-04, 0., 2.27014744e-03, 3.78357916e-04,
          3.78357916e-04, 4.16193716e-03, 2.27014744e-03, 3.40522127e-03,
          7.56715832e-04, 1.13507372e-03, 0., 7.56715832e-04,
          1.13507372e-03, 0., 0., 0., 5.67536894e-03, 1.89178961e-03, 0.,
          1.13507372e-03, 7.56715832e-04, 7.56715832e-04, 3.78357916e-04,
          2.27014744e-03, 0., 0., 1.13507372e-03, 1.89178961e-03,
          1.89178961e-03, 0., 7.56715832e-04, 2.27014744e-03, 0.,
          4.54029487e-03, 7.56715832e-04, 0., 3.78357916e-04, 0., 0., 0.,
          1.89178961e-03, 0., 6.81044254e-03, 0., 1.13507372e-03, 0.,
          2.27014744e-03, 1.89178961e-03, 0., 7.56715832e-04,
          3.78357916e-04, 1.51343166e-03, 0., 3.78357916e-04,
          3.78357916e-04, 3.02686333e-03, 0., 3.78357916e-04,
          7.56715832e-04, 2.64850538e-03, 3.78357916e-04, 1.13507372e-03,
          6.81044254e-03, 3.78357916e-04, 7.56715832e-04, 7.56715832e-04,
          4.54029487e-03, 0., 0., 0., 0., 1.51343166e-03, 3.78357916e-04,
          1.13507372e-03, 0., 0., 0., 3.78357916e-04, 3.78357916e-04,
          1.51343166e-03, 1.13507372e-03, 3.78357916e-04, 0.,
          1.51343166e-03, 0., 1.13507372e-03, 0., 0., 3.40522127e-03, 0.,
          3.78357916e-04, 3.78357916e-04, 0., 4.16193716e-03,
          3.78357916e-04, 6.43208437e-03, 0., 0., 1.13507372e-03, 0.,
          3.78357916e-04, 0., 0., 0., 3.78357916e-04, 3.78357916e-04,
          3.78357916e-04, 1.89178961e-03, 1.51343166e-03, 7.56715832e-04,
          3.78357916e-04, 2.64850538e-03, 3.78357916e-04, 0., 0., 0., 0.,
          0., 7.56715832e-04, 3.78357916e-04, 1.13507372e-03,
          4.54029487e-03, 0., 1.13507372e-03, 7.56715832e-04, 0.,
          3.40522127e-03, 7.56715832e-04, 0., 1.89178961e-03,
          1.13507372e-03, 1.51343166e-03, 0., 3.78357916e-04,
          3.78357916e-04, 7.56715832e-04, 1.13507372e-03, 0., 0.,
          3.78357916e-04, 3.78357916e-04, 1.13507372e-03, 7.56715832e-04,
          0., 1.51343166e-03, 0., 0., 2.64850538e-03, 1.13507372e-03, 0.,
          7.56715832e-04, 0., 0., 3.78357916e-04, 3.78357916e-04,
          3.78357916e-04, 0., 3.78357916e-04, 3.02686333e-03,
          3.78357916e-04, 0., 0., 7.56715832e-04, 0., 3.78357916e-04,
          4.91865305e-03, 0., 0., 7.56715832e-04 ]
      - [ 0., 4.60696826e-03, 8.63806577e-04, 0., 0., 2.01554853e-03,
          5.75871032e-04, 0., 2.87935516e-04, 0., 5.75871032e-04, 0.,
          3.45522631e-03, 0., 2.87935510e-03, 2.01554853e-03, 0., 0.,
          2.01554853e-03, 0., 1.15174206e-03, 5.75871032e-04, 0.,
          5.75871032e-04, 2.87935516e-04, 0., 0., 0., 8.63806577e-04,
          3.74316168e-03, 5.75871032e-04, 0., 0., 2.30348413e-03,
          8.63806577e-04, 5.75871021e-03, 1.15174206e-03, 2.87935516e-04,
          0., 8.63806577e-04, 2.87935516e-04, 0., 1.72761315e-03, 0., 0.,
          1.15174206e-03, 1.15174206e-03, 6.91045262e-03, 5.75871032e-04,
          2.87935516e-04, 1.15174206e-03, 1.72761315e-03, 2.87935516e-04,
          0., 8.63806577e-04, 2.87935516e-04, 2.59141973e-03,
          4.03109705e-03, 1.43967755e-03, 0., 0., 0., 0., 1.72761315e-03,
          0., 6.04664581e-03, 2.87935516e-04, 2.87935516e-04,
          2.01554853e-03, 2.87935510e-03, 3.16729071e-03, 0., 0., 0.,
          2.59141973e-03, 3.45522631e-03, 1.15174206e-03, 3.74316168e-03,
          2.87935516e-04, 0., 4.60696826e-03, 7.48632336e-03,
          1.15174206e-03, 3.45522631e-03, 3.45522631e-03, 5.75871032e-04,
          0., 0., 2.87935516e-04, 2.30348413e-03, 0., 2.87935516e-04, 0.,
          2.59141973e-03, 4.89490386e-03, 0., 0., 0., 2.01554853e-03, 0.,
          1.43967755e-03, 0., 1.15174206e-03, 2.87935516e-04, 0., 0.,
          2.30348413e-03, 1.15174206e-03, 0., 2.87935516e-04,
          8.63806577e-04, 1.15174206e-03, 2.01554853e-03, 0.,
          2.59141973e-03, 0., 0., 2.87935516e-04, 0., 2.87935516e-04, 0.,
          5.75871032e-04, 5.75871032e-04, 2.30348413e-03, 2.01554853e-03,
          0., 5.18283946e-03, 3.45522631e-03, 0., 0., 4.31903265e-03,
          5.75871032e-04, 0., 3.16729071e-03, 0., 2.87935516e-04, 0., 0.,
          2.87935516e-04, 0., 0., 5.75871032e-04, 1.72761315e-03, 0.,
          2.87935516e-04, 0., 0., 2.01554853e-03, 0., 3.16729071e-03,
          1.43967755e-03, 2.87935516e-04, 8.63806577e-04, 0.,
          2.87935516e-04, 0., 2.87935516e-04, 8.63806577e-04, 0.,
          8.63806577e-04, 5.75871032e-04, 2.87935516e-04, 1.43967755e-03,
          8.63806577e-04, 0., 1.72761315e-03, 0., 4.89490386e-03,
          5.75871032e-04, 2.59141973e-03, 0., 5.75871032e-04,
          2.30348413e-03, 0., 0., 1.72761315e-03, 2.87935516e-04,
          5.75871032e-04, 5.75871032e-04, 8.63806577e-04, 2.87935516e-04,
          0., 1.15174206e-03, 5.75871032e-04, 1.15174206e-03,
          5.18283946e-03, 0., 0., 0., 1.72761315e-03, 2.87935516e-04,
          2.87935516e-04, 1.15174206e-03, 8.63806577e-04, 1.43967755e-03,
          0., 0., 4.03109705e-03, 0., 1.43967755e-03, 1.46847116e-02,
          5.75871032e-04, 0., 5.75871032e-04, 8.63806577e-04,
          1.15174206e-03, 0., 8.63806577e-04, 0., 0., 0., 2.87935516e-04,
          1.43967755e-03, 0., 2.87935516e-04, 1.43967755e-03,
          5.75871032e-04, 0., 0., 5.75871032e-04, 1.72761315e-03, 0., 0.,
          2.87935516e-04, 1.15174206e-03, 0., 1.15174206e-03, 0.,
          2.87935516e-04, 1.43967755e-03, 0., 0., 0., 2.87935516e-04,
          2.87935516e-04, 5.75871032e-04, 0., 0., 2.59141973e-03,
          3.45522631e-03, 0., 2.87935516e-04, 2.30348413e-03,
          2.01554853e-03, 1.43967755e-03, 2.87935516e-04, 0.,
          1.43967755e-03, 2.87935516e-04, 0., 5.75871032e-04,
          8.63806577e-04, 8.63806577e-04, 0., 0., 5.75871032e-04,
          1.15174206e-03, 2.87935516e-04, 6.91045262e-03, 2.87935516e-04,
          5.75871032e-04, 0., 5.75871032e-04, 0., 0., 0., 0., 0.,
          8.63806577e-04, 2.30348413e-03, 8.63806577e-04, 0., 0.,
          8.63806577e-04, 2.87935516e-04, 0., 0., 2.87935516e-04, 0.,
          2.87935510e-03, 0., 0., 0., 0., 1.72761315e-03, 1.15174206e-03,
          5.75871032e-04, 0., 5.75871032e-04, 8.63806577e-04,
          5.75871032e-04, 1.43967755e-03, 2.87935516e-04, 0.,
          1.72761315e-03, 2.87935516e-04, 0., 1.72761315e-03,
          8.63806577e-04, 0., 0., 5.75871032e-04, 0., 5.75871032e-04,
          2.87935516e-04, 5.75871032e-04, 0., 8.63806577e-04,
          2.59141973e-03, 8.63806577e-04, 0., 0., 1.72761315e-03, 0.,
          2.30348413e-03, 0., 2.30348413e-03, 0., 2.87935516e-04,
          1.15174206e-03, 0., 1.43967755e-03, 2.87935510e-03,
          3.74316168e-03, 8.63806577e-04, 0., 0., 2.87935516e-04,
          2.87935516e-04, 0., 2.87935510e-03, 0., 0., 0., 0.,
          2.87935516e-04, 2.87935516e-04, 0., 1.43967755e-03,
          1.43967755e-03, 0., 1.72761315e-03, 0., 1.72761315e-03, 0.,
          2.59141973e-03, 8.63806577e-04, 8.63806577e-04, 5.75871032e-04,
          2.87935516e-04, 0., 0., 3.16729071e-03, 2.87935516e-04, 0.,
          2.87935510e-03, 0., 2.59141973e-03, 5.75871021e-03,
          4.89490386e-03, 0., 2.87935510e-03, 0., 5.75871032e-04,
          5.75871032e-04, 0., 0., 0., 0., 2.87935516e-04, 0.,
          1.06536141e-02, 3.74316168e-03, 2.01554853e-03, 0., 0., 0.,
          4.31903265e-03, 5.75871032e-04, 8.63806577e-04, 1.43967755e-03,
          0., 0., 8.63806577e-04, 0., 1.72761315e-03, 5.75871032e-04,
          6.33458141e-03, 4.03109705e-03, 1.15174206e-03, 0.,
          2.87935516e-04, 5.75871032e-04, 2.87935516e-04, 0., 0., 0., 0.,
          1.15174206e-03, 3.74316168e-03, 2.87935516e-04, 2.87935516e-04,
          1.15174206e-03, 5.75871032e-04, 8.63806577e-04, 0.,
          2.87935516e-04, 4.60696826e-03, 1.15174206e-03, 0.,
          1.15174206e-03, 2.87935516e-04, 0., 1.43967755e-03, 0.,
          6.04664581e-03, 2.87935516e-04, 2.87935516e-04, 0., 0., 0.,
          2.87935516e-04, 2.30348413e-03, 1.43967755e-03, 0., 0., 0., 0.,
          3.74316168e-03, 0., 4.03109705e-03, 5.75871032e-04,
          2.59141973e-03, 0., 0., 0., 2.01554853e-03, 3.45522631e-03,
          3.45522631e-03, 2.59141973e-03, 0., 2.87935510e-03, 0., 0.,
          1.72761315e-03, 2.87935510e-03, 0., 0., 0., 2.87935516e-04, 0.,
          2.87935516e-04, 1.15174206e-03, 1.43967755e-03, 0.,
          2.01554853e-03, 1.15174206e-03, 1.43967755e-03, 1.15174206e-03,
          2.87935516e-04, 6.33458141e-03, 5.75871021e-03, 2.30348413e-03,
          2.87935516e-04, 2.87935516e-04, 4.89490386e-03, 1.43967755e-03,
          0., 8.63806577e-04, 1.43967755e-03, 0., 2.87935516e-04,
          2.30348413e-03, 0., 0., 0., 0., 0., 1.15174206e-03, 0.,
          8.35013017e-03, 1.06536141e-02, 5.75871032e-04, 2.87935510e-03,
          1.15174206e-03, 2.87935510e-03, 0., 2.87935516e-04, 0.,
          2.01554853e-03, 5.75871032e-04, 2.01554853e-03, 2.87935516e-04,
          0., 1.72761315e-03, 2.01554853e-03, 2.30348413e-03,
          1.72761315e-03, 0., 5.75871032e-04, 0., 2.87935516e-04,
          3.74316168e-03, 0., 4.03109705e-03, 0., 2.87935516e-04,
          2.87935510e-03, 2.87935516e-04, 0., 2.87935516e-04,
          2.59141973e-03, 0., 2.01554853e-03, 8.63806577e-04, 0.,
          2.87935516e-04, 3.16729071e-03, 0., 5.75871032e-04, 0.,
          1.15174206e-03, 0., 2.30348413e-03, 2.59141973e-03,
          8.63806577e-04, 0., 0., 2.87935516e-04, 0., 2.30348413e-03, 0.,
          0., 8.63806577e-04, 0., 2.87935510e-03, 0., 0., 5.75871032e-04,
          8.63806577e-04, 0., 1.72761315e-03, 2.87935516e-04,
          2.87935516e-04, 2.87935516e-04, 0., 2.01554853e-03,
          2.87935516e-04, 1.43967755e-03, 0., 0., 2.87935516e-04,
          3.45522631e-03, 1.15174206e-03, 0., 0., 8.63806577e-04, 0., 0.,
          5.75871032e-04, 0., 0., 1.43967755e-03, 2.87935516e-04,
          2.87935516e-04, 2.87935510e-03, 1.72761315e-03, 0.,
          5.75871021e-03, 2.87935510e-03, 0., 0., 8.63806577e-04,
          1.72761315e-03, 8.63806577e-04, 0., 5.75871032e-04, 0., 0.,
          1.43967755e-03, 2.87935516e-04, 2.01554853e-03, 1.15174206e-03,
          0., 2.01554853e-03, 8.63806577e-04, 0., 8.63806577e-04, 0., 0.,
          2.87935516e-04, 0., 0., 2.87935516e-04, 3.16729071e-03, 0.,
          3.16729071e-03, 5.75871032e-04, 0., 0., 0., 1.43967755e-03, 0.,
          5.75871032e-04, 0., 0., 3.16729071e-03, 0., 0., 2.87935516e-04,
          2.87935516e-04, 8.63806577e-04, 5.75871032e-04, 3.16729071e-03,
          2.01554853e-03, 8.63806577e-04, 0., 1.15174206e-03,
          2.87935516e-04, 2.59141973e-03, 0., 2.87935516e-04,
          8.63806577e-04, 0., 2.87935516e-04, 0., 0., 5.75871032e-04,
          5.75871032e-04, 7.48632336e-03, 1.43967755e-03, 0.,
          2.87935516e-04, 0., 0., 1.15174206e-03, 6.04664581e-03, 0., 0.,
          2.87935516e-04, 2.59141973e-03, 5.75871032e-04, 1.43967755e-03,
          1.15174206e-03, 2.87935516e-04, 0., 1.43967755e-03,
          8.63806577e-04, 0., 2.87935516e-04, 1.72761315e-03, 0., 0., 0.,
          2.87935510e-03, 0., 2.87935516e-04, 0., 4.03109705e-03,
          4.03109705e-03, 2.87935516e-04, 0., 0., 1.15174206e-03,
          2.59141973e-03, 2.87935516e-04, 8.63806577e-04, 5.47077460e-03,
          0., 0., 2.01554853e-03, 0., 2.87935510e-03, 5.75871021e-03,
          1.15174206e-03, 1.15174206e-03, 2.87935516e-04, 0., 0.,
          8.63806577e-04, 3.74316168e-03, 0., 2.87935516e-04, 0.,
          8.63806577e-04, 8.63806577e-04, 2.87935516e-04, 0.,
          2.01554853e-03, 0., 0., 2.87935516e-04, 1.15174206e-03, 0.,
          8.63806577e-04, 2.87935516e-04, 0., 0., 0., 0., 0., 0.,
          8.63806577e-04, 8.63806577e-04, 2.87935516e-04, 0.,
          5.75871032e-04, 2.87935516e-04, 2.01554853e-03, 0., 0.,
          8.35013017e-03, 5.18283946e-03, 0., 0., 3.45522631e-03,
          5.75871032e-04, 0., 5.75871032e-04, 0., 2.01554853e-03, 0., 0.,
          3.16729071e-03, 0., 0., 5.75871032e-04, 1.15174206e-03, 0.,
          2.87935516e-04, 0., 0., 5.75871032e-04, 2.87935516e-04, 0.,
          5.75871032e-04, 2.01554853e-03, 0., 2.01554853e-03, 0.,
          2.87935510e-03, 2.87935516e-04, 0., 0., 2.87935516e-04,
          2.87935516e-04, 1.15174206e-03, 4.03109705e-03, 0., 0., 0.,
          1.15174206e-03, 2.87935516e-04, 1.72761315e-03, 2.87935516e-04,
          1.15174206e-03, 1.72761315e-03, 2.59141973e-03, 0., 0.,
          4.03109705e-03, 3.45522631e-03, 6.04664581e-03, 9.21393652e-03,
          0., 1.43967755e-03, 0., 0., 0., 6.33458141e-03, 6.33458141e-03,
          2.87935516e-04, 1.43967755e-03, 0., 5.47077460e-03,
          2.87935510e-03, 0., 0., 0., 0., 1.15174206e-03, 0.,
          8.63806577e-04, 0., 1.72761315e-03, 0., 2.87935516e-04, 0.,
          5.75871032e-04, 0., 5.75871032e-04, 8.63806577e-04,
          2.87935516e-04, 5.75871032e-04, 4.89490386e-03, 0., 0.,
          1.15174206e-03, 0., 2.87935516e-04, 4.89490386e-03, 0.,
          5.75871032e-04, 1.43967755e-03, 0., 0., 5.75871032e-04,
          8.63806577e-04, 0., 2.30348413e-03, 0., 1.15174206e-03,
          1.72761315e-03, 0., 0., 0., 0., 5.75871032e-04, 0., 0.,
          1.15174206e-03, 2.01554853e-03, 2.87935516e-04, 0.,
          1.43967755e-03, 8.63806577e-04, 2.87935516e-04, 0., 0.,
          5.75871032e-04, 2.87935516e-04, 2.87935516e-04, 1.72761315e-03,
          5.75871032e-04, 5.75871032e-04, 2.87935516e-04, 3.16729071e-03,
          0., 2.87935516e-04, 1.72761315e-03, 2.01554853e-03, 0.,
          5.75871032e-04, 1.15174206e-03, 3.74316168e-03, 0., 0., 0.,
          5.75871032e-04, 5.75871032e-04, 2.87935516e-04, 8.63806577e-04,
          4.60696826e-03, 2.87935516e-04, 0., 8.63806577e-04, 0.,
          2.87935516e-04, 2.59141973e-03, 1.43967755e-03, 0., 0., 0., 0.,
          5.75871032e-04, 0., 0., 2.87935516e-04, 1.43967755e-03,
          1.72761315e-03, 2.59141973e-03, 8.63806577e-04, 0.,
          2.30348413e-03, 0., 1.43967755e-03, 0., 0., 5.75871032e-04,
          2.87935516e-04, 8.35013017e-03, 1.15174206e-03, 5.75871021e-03,
          2.87935516e-04, 2.87935516e-04, 0., 0., 0., 0., 0., 0.,
          4.03109705e-03, 5.75871032e-04, 4.31903265e-03, 1.15174206e-03,
          0., 0., 0., 2.87935516e-04, 0., 0., 0., 1.15174206e-03, 0.,
          8.63806577e-04, 0., 0., 2.87935516e-04, 5.75871032e-04,
          2.87935516e-04, 2.87935516e-04, 0., 5.75871032e-04,
          1.15174206e-03, 0., 2.87935516e-04, 4.31903265e-03,
          4.60696826e-03, 0., 0., 1.72761315e-03, 5.75871032e-04,
          1.15174206e-03, 5.75871032e-04, 1.15174206e-03, 0., 0.,
          2.87935516e-04, 0., 2.87935516e-04, 0., 3.74316168e-03, 0.,
          5.75871032e-04, 2.30348413e-03, 3.16729071e-03, 4.60696826e-03,
          0., 8.63806577e-04, 0., 0., 2.01554853e-03, 0., 4.03109705e-03,
          0., 2.87935516e-04, 0., 7.77425896e-03, 0., 0., 8.63806577e-04,
          0., 0., 8.63806531e-03, 0., 2.30348413e-03, 5.75871032e-04, 0.,
          2.87935516e-04, 0., 8.63806577e-04, 8.63806577e-04,
          8.63806577e-04, 2.87935516e-04, 5.75871032e-04, 2.87935516e-04,
          3.16729071e-03, 5.75871032e-04, 2.87935516e-04, 0., 0.,
          5.75871032e-04, 0., 5.75871032e-04, 0., 0., 5.18283946e-03,
          4.89490386e-03, 1.43967755e-03, 2.87935516e-04, 1.15174206e-03,
          2.87935516e-04, 0., 5.75871032e-04, 8.63806577e-04, 0., 0.,
          8.63806577e-04, 1.72761315e-03, 0., 8.63806577e-04, 0.,
          3.74316168e-03, 2.87935516e-04, 0., 0., 0., 8.63806577e-04,
          5.75871032e-04, 2.87935516e-04 ]
      - [ 0., 2.74047692e-04, 2.74047692e-04, 6.57714438e-03,
          1.09619077e-03, 0., 0., 5.48095384e-04, 3.28857219e-03,
          8.22143047e-04, 0., 0., 0., 0., 0., 3.01452470e-03, 0.,
          1.64428609e-03, 0., 0., 1.91833382e-03, 1.09619077e-03,
          4.38476307e-03, 8.22143047e-04, 5.48095396e-03, 8.22143047e-04,
          8.76952615e-03, 5.48095384e-04, 5.48095384e-04, 2.74047692e-04,
          5.48095384e-04, 1.01397643e-02, 4.65881079e-03, 0., 0.,
          2.74047692e-04, 3.83666763e-03, 2.74047698e-03, 1.09619077e-03,
          0., 2.74047692e-04, 2.74047692e-04, 2.74047692e-04,
          2.46642926e-03, 5.48095384e-04, 0., 8.22143047e-04,
          5.48095384e-04, 5.48095384e-04, 0., 2.74047692e-04,
          5.48095384e-04, 0., 1.91833382e-03, 2.74047692e-04, 0.,
          1.91833382e-03, 2.74047692e-04, 2.74047692e-04, 2.74047698e-03,
          2.74047692e-04, 2.46642926e-03, 1.37023849e-03, 5.48095384e-04,
          5.48095384e-04, 2.74047692e-04, 0., 0., 0., 0., 2.74047692e-04,
          4.11071535e-03, 1.09619077e-03, 2.74047692e-04, 0.,
          5.48095384e-04, 0., 5.48095384e-04, 1.83611959e-02,
          1.09619077e-03, 2.74047692e-04, 1.91833382e-03, 0.,
          1.37023849e-03, 2.74047692e-04, 1.64428609e-03, 1.64428609e-03,
          0., 1.37023849e-03, 2.74047692e-04, 1.91833382e-03, 0.,
          3.83666763e-03, 2.74047692e-04, 0., 1.64428609e-03, 0.,
          5.48095384e-04, 0., 2.74047698e-03, 1.64428609e-03, 0.,
          2.74047698e-03, 8.22143047e-04, 2.74047692e-04, 1.37023849e-03,
          0., 0., 0., 1.09619077e-03, 0., 0., 1.09619077e-03,
          5.48095384e-04, 0., 6.02904940e-03, 2.74047692e-04,
          2.74047692e-04, 2.74047692e-04, 0., 0., 2.74047692e-04,
          2.74047692e-04, 2.74047692e-04, 0., 0., 5.48095384e-04,
          1.09619077e-03, 5.48095384e-04, 8.22143047e-04, 2.74047692e-04,
          2.74047692e-04, 0., 3.01452470e-03, 8.22143047e-04,
          1.09619077e-03, 0., 1.37023849e-03, 0., 1.09619077e-03,
          2.74047692e-04, 1.37023849e-03, 1.37023849e-03, 1.37023849e-03,
          0., 0., 5.48095384e-04, 4.38476307e-03, 0., 2.74047692e-04,
          8.22143047e-04, 8.22143047e-04, 1.09619077e-03, 0.,
          1.09619077e-03, 1.37023849e-03, 1.37023849e-03, 0.,
          8.22143047e-04, 8.22143047e-04, 3.28857219e-03, 0.,
          1.37023849e-03, 1.37023849e-03, 2.74047692e-04, 0.,
          8.76952615e-03, 0., 1.09619077e-03, 1.37023849e-03, 0.,
          8.22143047e-04, 0., 3.01452470e-03, 1.09619077e-03,
          1.09619077e-03, 1.37023849e-03, 0., 2.74047692e-04, 0., 0.,
          5.48095384e-04, 6.57714438e-03, 1.91833382e-03, 1.09619077e-03,
          0., 1.64428609e-03, 5.48095396e-03, 2.74047692e-04,
          1.64428609e-03, 0., 2.74047692e-04, 8.22143047e-04,
          2.74047692e-04, 0., 1.37023849e-03, 5.48095384e-04,
          2.74047692e-04, 1.09619077e-03, 8.22143047e-04, 0.,
          8.22143047e-04, 0., 2.74047692e-04, 2.74047692e-04,
          8.22143047e-04, 1.91833382e-03, 5.48095384e-04, 2.74047692e-04,
          1.09619077e-03, 1.09619077e-03, 5.48095384e-04, 5.48095384e-04,
          5.48095384e-04, 5.48095384e-04, 2.74047692e-04, 1.09619077e-03,
          5.48095384e-04, 0., 2.46642926e-03, 2.74047692e-04,
          2.74047692e-04, 0., 2.19238158e-02, 0., 0., 0., 0., 0.,
          5.48095384e-04, 1.64428609e-03, 1.64428609e-03, 0.,
          2.46642926e-03, 2.74047692e-04, 3.01452470e-03, 1.28802415e-02,
          2.74047692e-04, 2.74047692e-04, 2.74047692e-04, 0.,
          3.28857219e-03, 1.64428609e-03, 5.48095384e-04, 0.,
          8.22143047e-04, 0., 5.48095384e-04, 4.93285852e-03,
          7.39928754e-03, 8.22143047e-04, 1.09619077e-03, 1.09619077e-03,
          0., 0., 5.48095384e-04, 5.48095384e-04, 0., 0., 4.38476307e-03,
          0., 1.04138125e-02, 0., 2.74047692e-04, 2.74047692e-04,
          1.91833382e-03, 8.22143047e-04, 2.74047698e-03, 8.22143047e-04,
          5.48095384e-04, 8.22143047e-04, 1.37023849e-03, 0.,
          5.48095384e-04, 3.01452470e-03, 2.74047692e-04, 1.91833382e-03,
          0., 5.20690624e-03, 2.74047692e-04, 0., 0., 2.19238154e-03,
          2.74047698e-03, 2.74047698e-03, 0., 8.22143047e-04, 0.,
          2.74047692e-04, 5.48095384e-04, 0., 8.22143047e-04,
          2.74047692e-04, 0., 1.37023849e-03, 0., 1.91833382e-03,
          5.48095384e-04, 2.74047692e-04, 1.64428609e-03, 5.48095384e-04,
          0., 0., 8.22143047e-04, 2.74047692e-04, 5.48095384e-04,
          6.02904940e-03, 1.09619077e-03, 0., 0., 2.74047692e-04,
          1.91833382e-03, 5.48095384e-04, 0., 8.22143047e-04, 0.,
          1.64428609e-03, 3.56261991e-03, 5.48095384e-04, 0.,
          2.74047692e-04, 0., 2.74047692e-04, 5.48095384e-04,
          8.22143047e-04, 1.09619077e-03, 0., 5.48095384e-04, 0., 0.,
          2.74047692e-04, 8.22143047e-04, 5.48095384e-04, 1.37023849e-03,
          5.48095384e-04, 6.85119210e-03, 0., 0., 0., 0., 2.19238154e-03,
          0., 5.48095384e-04, 0., 5.48095384e-04, 1.09619077e-03,
          2.74047692e-04, 1.09619077e-03, 2.74047692e-04, 2.74047692e-04,
          1.64428609e-03, 0., 5.48095384e-04, 0., 8.22143047e-04,
          8.22143047e-04, 0., 0., 0., 0., 0., 2.74047692e-04,
          1.09619077e-03, 5.48095384e-04, 2.74047698e-03, 1.64428609e-03,
          1.09619077e-03, 0., 0., 2.19238154e-03, 8.22143047e-04, 0., 0.,
          0., 2.74047692e-04, 3.28857219e-03, 1.09619077e-03,
          1.64428609e-03, 0., 6.85119210e-03, 2.74047692e-04,
          5.20690624e-03, 0., 8.22143047e-04, 2.74047692e-04, 0., 0.,
          5.48095384e-04, 8.22143047e-04, 0., 2.74047692e-04, 0.,
          2.74047692e-04, 2.74047698e-03, 3.56261991e-03, 0., 0.,
          2.74047692e-04, 0., 0., 5.48095384e-04, 0., 8.22143047e-04,
          1.09619077e-03, 2.74047692e-04, 8.22143047e-04, 1.91833382e-03,
          2.74047692e-04, 0., 8.22143047e-04, 5.48095384e-04,
          5.48095384e-04, 0., 8.22143047e-04, 0., 1.64428609e-03, 0.,
          2.74047692e-04, 5.48095384e-04, 5.48095384e-04, 2.74047692e-04,
          3.28857219e-03, 8.22143047e-04, 5.48095384e-04, 2.74047698e-03,
          6.02904940e-03, 3.01452470e-03, 2.46642926e-03, 5.48095384e-04,
          2.74047692e-04, 2.74047692e-04, 3.56261991e-03, 2.74047692e-04,
          1.37023849e-03, 5.48095384e-04, 2.19238154e-03, 2.74047692e-04,
          0., 1.37023849e-03, 5.48095384e-04, 3.56261991e-03,
          5.48095384e-04, 0., 0., 2.74047692e-04, 1.37023849e-03,
          2.74047692e-04, 5.48095384e-04, 5.48095384e-04, 2.74047692e-04,
          2.19238154e-03, 2.74047692e-04, 2.74047692e-04, 2.74047692e-04,
          1.37023849e-03, 2.74047692e-04, 2.74047692e-04, 1.37023849e-03,
          2.74047692e-04, 1.37023849e-03, 0., 2.74047692e-04,
          1.09619077e-03, 0., 0., 5.48095384e-04, 2.74047692e-04, 0.,
          1.37023849e-03, 8.22143047e-04, 2.74047692e-04, 8.22143047e-04,
          2.74047692e-04, 0., 2.74047692e-04, 8.22143047e-04, 0.,
          2.46642926e-03, 2.74047692e-04, 0., 2.74047692e-04, 0., 0.,
          1.09619077e-03, 5.48095384e-04, 0., 0., 0., 2.74047698e-03,
          2.74047692e-04, 2.19238154e-03, 2.74047692e-04, 2.74047692e-04,
          1.37023849e-03, 5.48095384e-04, 2.74047692e-04, 2.74047692e-04,
          0., 5.48095384e-04, 1.64428609e-03, 2.46642926e-03,
          1.09619077e-03, 8.22143047e-04, 1.09619077e-03, 5.48095384e-04,
          5.48095396e-03, 2.74047692e-04, 1.09619077e-03, 2.74047692e-04,
          2.74047692e-04, 8.22143047e-04, 0., 8.22143047e-04,
          8.22143047e-04, 8.22143047e-04, 5.48095384e-04, 8.22143070e-03,
          2.74047692e-04, 5.48095384e-04, 2.19238154e-03, 2.74047698e-03,
          1.09619077e-03, 4.65881079e-03, 0., 0., 1.64428609e-03, 0.,
          2.74047692e-04, 2.74047692e-04, 0., 2.74047692e-04,
          2.74047698e-03, 8.22143047e-04, 2.74047692e-04, 5.48095384e-04,
          0., 8.22143047e-04, 5.48095384e-04, 2.74047692e-04, 0.,
          5.48095384e-04, 5.48095384e-04, 8.22143047e-04, 2.74047692e-04,
          2.74047692e-04, 3.01452470e-03, 2.74047692e-04, 1.09619077e-03,
          1.91833382e-03, 5.48095384e-04, 0., 5.48095384e-04, 0.,
          5.48095384e-04, 8.22143047e-04, 5.48095384e-04, 3.28857219e-03,
          0., 2.74047692e-04, 2.74047692e-04, 0., 5.48095384e-04,
          1.09619077e-03, 2.74047692e-04, 3.28857219e-03, 5.48095384e-04,
          0., 2.46642926e-03, 0., 0., 0., 2.74047692e-04, 2.74047692e-04,
          2.74047692e-04, 0., 0., 2.74047692e-04, 0., 0., 2.74047692e-04,
          0., 1.64428609e-03, 0., 2.74047692e-04, 2.74047692e-04, 0.,
          8.22143047e-04, 2.74047692e-04, 5.48095384e-04, 5.48095384e-04,
          2.46642926e-03, 8.22143047e-04, 1.37023849e-03, 2.74047692e-04,
          0., 0., 5.48095384e-04, 2.74047692e-04, 8.22143047e-04,
          1.09619077e-03, 5.48095384e-04, 2.46642926e-03, 2.74047692e-04,
          1.09619077e-03, 0., 0., 1.37023849e-03, 2.74047692e-04,
          2.74047692e-04, 8.22143047e-04, 0., 1.09619077e-03,
          1.37023849e-03, 0., 5.48095384e-04, 3.28857219e-03,
          3.56261991e-03, 5.48095384e-04, 1.37023849e-03, 8.22143047e-04,
          8.22143047e-04, 1.91833382e-03, 2.74047692e-04, 4.11071535e-03,
          0., 8.22143047e-04, 2.74047692e-04, 3.28857219e-03,
          1.91833382e-03, 2.74047692e-04, 5.48095384e-04, 0., 0.,
          1.64428609e-03, 2.74047692e-04, 0., 2.74047692e-04,
          5.48095384e-04, 1.91833382e-03, 4.65881079e-03, 1.09619077e-03,
          1.37023849e-03, 2.74047692e-04, 0., 8.22143047e-04,
          5.48095384e-04, 1.64428609e-03, 2.19238154e-03, 5.48095384e-04,
          5.48095384e-04, 5.48095384e-04, 0., 1.09619077e-03,
          6.02904940e-03, 2.74047692e-04, 5.48095384e-04, 0., 0., 0., 0.,
          2.74047692e-04, 1.91833382e-03, 4.65881079e-03, 2.74047692e-04,
          5.48095384e-04, 2.74047692e-04, 2.74047692e-04, 5.48095384e-04,
          2.74047692e-04, 5.48095384e-04, 0., 4.38476307e-03,
          8.22143047e-04, 5.48095384e-04, 8.22143047e-04, 4.93285852e-03,
          5.48095384e-04, 2.74047692e-04, 0., 5.48095384e-04,
          8.22143047e-04, 2.74047698e-03, 1.64428609e-03, 2.74047692e-04,
          0., 0., 3.28857219e-03, 0., 0., 0., 2.46642926e-03,
          1.37023849e-03, 2.74047692e-04, 3.28857219e-03, 8.22143047e-04,
          0., 8.22143047e-04, 4.38476307e-03, 1.37023849e-03,
          5.48095384e-04, 8.22143047e-04, 0., 0., 2.74047692e-04,
          2.19238154e-03, 2.74047692e-04, 5.48095384e-04, 0.,
          2.74047692e-04, 5.48095384e-04, 0., 8.22143047e-04,
          2.74047692e-04, 5.48095384e-04, 1.61688142e-02, 1.37023849e-03,
          5.48095384e-04, 2.74047692e-04, 2.74047692e-04, 0., 0.,
          4.11071535e-03, 1.37023849e-03, 5.48095384e-04, 1.09619077e-03,
          0., 2.74047692e-04, 8.22143047e-04, 0., 1.37023849e-03,
          2.74047692e-04, 0., 2.74047692e-04, 6.02904940e-03,
          2.74047692e-04, 1.37023849e-03, 0., 5.75500168e-03, 0.,
          8.22143047e-04, 2.74047692e-04, 2.74047692e-04, 8.22143047e-04,
          0., 2.74047692e-04, 1.37023849e-03, 5.48095384e-04,
          5.48095384e-04, 1.64428609e-03, 8.22143047e-04, 1.37023849e-03,
          5.48095384e-04, 2.74047692e-04, 8.22143047e-04, 5.48095384e-04,
          1.37023849e-03, 0., 2.74047692e-04, 5.48095384e-04, 0.,
          1.37023849e-03, 5.48095384e-04, 0., 2.74047692e-04,
          2.74047692e-04, 2.74047692e-04, 1.91833382e-03, 8.22143047e-04,
          0., 5.48095384e-04, 5.48095384e-04, 8.22143047e-04,
          2.19238154e-03, 0., 2.74047692e-04, 2.74047692e-04,
          8.22143047e-04, 8.22143047e-04, 8.22143047e-04, 0., 0., 0.,
          8.22143047e-04, 1.64428609e-03, 8.22143047e-04, 2.74047692e-04,
          1.09619077e-03, 0., 0., 1.09619077e-03, 1.37023849e-03,
          4.65881079e-03, 0., 2.74047692e-04, 0., 0., 0., 2.74047698e-03,
          8.22143047e-04, 1.37023849e-03, 0., 5.20690624e-03,
          2.74047692e-04, 5.48095384e-04, 5.48095384e-04, 0., 0.,
          8.22143047e-04, 1.64428609e-03, 0., 6.30309712e-03,
          1.09619077e-03, 1.64428609e-03, 0., 3.56261991e-03, 0.,
          2.74047698e-03, 1.91833382e-03, 0., 0., 0., 2.74047692e-04,
          5.48095384e-04, 0., 0., 8.22143047e-04, 5.48095384e-04, 0.,
          3.28857219e-03, 2.74047692e-04, 0., 8.49547889e-03,
          1.09619077e-03, 5.48095384e-04, 2.19238154e-03, 5.48095384e-04,
          0., 3.56261991e-03, 0., 2.74047692e-04, 8.22143047e-04, 0.,
          8.22143047e-04, 3.56261991e-03, 0., 8.22143047e-04, 0., 0.,
          7.67333526e-03, 0., 2.74047692e-04, 6.02904940e-03,
          5.48095384e-04, 0., 0., 2.74047692e-04, 0., 2.46642926e-03,
          8.22143047e-04, 1.91833382e-03, 0., 4.38476307e-03,
          1.09619077e-03, 4.11071535e-03, 0., 0., 1.64428609e-03, 0., 0.,
          1.09619077e-03, 5.48095384e-04, 1.09619077e-03, 0., 0., 0., 0.,
          2.74047692e-04, 0., 8.22143047e-04, 2.74047692e-04,
          2.74047692e-04, 5.48095384e-04, 0., 0., 0., 2.74047692e-04,
          2.74047692e-04, 3.83666763e-03, 0., 1.91833382e-03, 0., 0.,
          8.22143047e-04, 2.74047692e-04, 2.74047692e-04, 2.74047692e-04,
          0., 0., 6.57714438e-03, 2.74047692e-04, 1.64428609e-03, 0.,
          1.09619077e-03, 1.91833382e-03, 2.74047692e-04, 0.,
          2.19238154e-03, 2.74047692e-04, 8.22143047e-04, 0.,
          1.37023849e-03, 0., 5.48095384e-04, 0., 1.37023849e-03,
          6.85119210e-03, 0., 5.48095384e-04, 2.74047698e-03,
          2.74047692e-04, 8.22143047e-04, 0., 2.74047692e-04, 0.,
          1.09619077e-03, 0., 2.74047692e-04, 2.74047692e-04,
          1.09619077e-03, 1.91833382e-03, 0., 2.74047692e-04, 0.,
          8.22143047e-04, 2.74047692e-04, 0., 5.48095384e-04, 0.,
          1.09619077e-03, 8.22143047e-04, 1.17840506e-02, 2.74047692e-04,
          0., 0., 7.39928754e-03, 0., 8.22143047e-04, 2.74047692e-04, 0.,
          5.48095384e-04, 5.48095384e-04, 2.74047692e-04, 4.11071535e-03,
          2.74047692e-04, 2.74047692e-04, 5.48095384e-04, 0.,
          5.48095384e-04, 2.74047692e-04, 0., 7.94738345e-03,
          8.22143047e-04, 2.74047692e-04, 5.48095384e-04, 2.74047692e-04,
          0., 5.48095384e-04, 5.48095396e-03, 8.22143047e-04,
          5.48095384e-04, 0., 2.74047692e-04, 0., 2.74047692e-04,
          1.37023849e-03, 8.22143047e-04, 2.74047692e-04, 2.74047692e-04,
          1.09619077e-03, 5.48095384e-04, 1.09619077e-03, 1.37023849e-03,
          5.48095384e-04, 8.22143047e-04, 5.48095384e-04, 2.74047692e-04,
          0., 0., 5.48095384e-04, 8.22143047e-04, 2.74047692e-04,
          2.74047692e-04, 0., 0., 0., 0., 5.48095384e-04, 1.09619077e-03,
          0., 5.48095384e-04 ]
   decision_functions:
      -
         sv_count: 6
         rho: 2.3851217654635049e-01
         alpha: [ 3.1250000000000000e+02, 2.0740394833341665e+02,
             3.1250000000000000e+02, -2.1130393341716163e+02,
             -3.1250000000000000e+02, -3.0860001491625519e+02 ]
         index: [ 0, 1, 2, 3, 4, 5 ]
