%YAML:1.0
my_svm: !!opencv-ml-svm
   svm_type: C_SVC
   kernel: { type:RBF, gamma:5.0625000000000009e-01 }
   C: 3.1250000000000000e+02
   term_criteria: { epsilon:2.2204460492503131e-16, iterations:100 }
   var_all: 500
   var_count: 500
   class_count: 4
   class_labels: !!opencv-matrix
      rows: 1
      cols: 4
      dt: i
      data: [ 0, 1, 2, 3 ]
   sv_total: 163
   support_vectors:
      - [ 3.92927323e-03, 0., 0., 3.92927323e-03, 0., 0., 0., 0., 0.,
          3.92927323e-03, 1.96463661e-03, 0., 0., 9.82318260e-03, 0., 0.,
          0., 3.92927323e-03, 3.92927323e-03, 0., 5.89390984e-03,
          1.96463661e-03, 0., 1.96463661e-03, 5.89390984e-03, 0.,
          1.37524568e-02, 0., 7.85854645e-03, 0., 1.96463661e-03,
          1.96463661e-03, 1.96463661e-03, 0., 0., 0., 1.17878197e-02,
          3.92927323e-03, 3.92927323e-03, 1.96463661e-03, 0.,
          1.96463661e-03, 7.85854645e-03, 0., 1.96463661e-03,
          3.92927323e-03, 5.89390984e-03, 0., 0., 3.92927323e-03, 0., 0.,
          0., 0., 3.92927323e-03, 1.96463661e-03, 1.96463661e-03, 0., 0.,
          0., 0., 5.89390984e-03, 3.92927323e-03, 5.89390984e-03, 0., 0.,
          3.14341858e-02, 0., 5.89390984e-03, 0., 0., 7.85854645e-03,
          7.85854645e-03, 7.85854645e-03, 0., 0., 1.37524568e-02,
          3.92927323e-03, 0., 0., 0., 1.96463661e-03, 0., 0.,
          1.96463661e-03, 0., 0., 0., 0., 0., 0., 1.96463661e-03, 0.,
          1.96463661e-03, 5.89390984e-03, 3.92927323e-03, 0., 0., 0.,
          3.92927323e-03, 0., 0., 5.89390984e-03, 0., 5.89390984e-03,
          1.96463661e-03, 0., 0., 3.92927323e-03, 3.92927323e-03,
          1.96463661e-03, 0., 1.57170929e-02, 0., 0., 0., 1.96463661e-03,
          0., 1.96463661e-03, 0., 0., 0., 1.96463661e-03, 0.,
          9.82318260e-03, 0., 3.92927323e-03, 3.92927323e-03,
          3.92927323e-03, 0., 0., 0., 0., 1.96463661e-03, 0.,
          1.96463661e-03, 0., 3.92927323e-03, 0., 0., 0., 0.,
          1.96463661e-03, 0., 1.96463661e-03, 0., 1.96463661e-03, 0.,
          1.96463661e-03, 5.89390984e-03, 1.96463661e-03, 0., 0., 0.,
          1.96463661e-03, 0., 0., 0., 3.92927323e-03, 0., 1.96463661e-03,
          5.89390984e-03, 0., 1.96463661e-03, 1.96463661e-03,
          1.96463661e-03, 3.92927323e-03, 3.92927323e-03, 0., 0., 0.,
          1.96463661e-03, 0., 0., 0., 0., 0., 0., 0., 3.92927323e-03, 0.,
          3.92927323e-03, 0., 5.89390984e-03, 1.96463661e-03,
          1.96463661e-03, 0., 1.96463661e-03, 1.96463661e-03,
          1.96463661e-03, 0., 3.92927323e-03, 5.89390984e-03,
          3.92927323e-03, 0., 3.92927323e-03, 0., 0., 0., 1.96463661e-03,
          5.89390984e-03, 0., 0., 0., 0., 0., 0., 1.96463661e-03,
          1.96463661e-03, 0., 0., 0., 1.96463661e-03, 0., 1.96463661e-03,
          2.16110032e-02, 7.85854645e-03, 0., 0., 0., 0., 0.,
          1.96463661e-03, 0., 3.92927323e-03, 0., 0., 0., 0., 0., 0.,
          5.89390984e-03, 3.92927323e-03, 1.96463661e-03, 5.89390984e-03,
          1.96463661e-03, 0., 3.92927323e-03, 1.17878197e-02, 0.,
          1.96463661e-03, 0., 1.96463661e-03, 0., 1.96463661e-03,
          3.92927323e-03, 1.96463661e-03, 1.96463661e-03, 0.,
          3.92927323e-03, 1.96463661e-03, 1.96463661e-03, 0.,
          1.96463661e-03, 3.92927323e-03, 1.96463661e-03, 1.96463661e-03,
          1.96463661e-03, 1.96463661e-03, 3.92927323e-03, 0.,
          1.96463661e-03, 1.96463661e-03, 0., 1.96463661e-03, 0.,
          1.96463661e-03, 3.92927323e-03, 3.92927323e-03, 0.,
          1.96463661e-03, 0., 1.96463661e-03, 1.96463661e-03, 0., 0., 0.,
          0., 0., 1.96463661e-03, 0., 1.96463661e-03, 1.96463661e-03,
          1.96463661e-03, 2.16110032e-02, 0., 0., 0., 0., 1.96463661e-03,
          1.96463661e-03, 0., 0., 0., 1.96463661e-03, 1.96463661e-03, 0.,
          5.89390984e-03, 0., 0., 1.96463661e-03, 3.92927323e-03, 0.,
          1.96463661e-03, 0., 0., 1.96463661e-03, 0., 0., 0.,
          3.92927323e-03, 1.96463661e-03, 1.96463661e-03, 1.96463661e-03,
          1.96463661e-03, 0., 7.85854645e-03, 1.96463661e-03, 0.,
          3.92927323e-03, 0., 1.96463661e-03, 9.82318260e-03,
          3.92927323e-03, 3.92927323e-03, 3.92927323e-03, 1.96463661e-03,
          0., 0., 0., 0., 5.89390984e-03, 0., 1.96463661e-03, 0.,
          3.92927323e-03, 0., 0., 1.96463661e-03, 0., 0., 1.96463661e-03,
          1.96463661e-03, 0., 5.89390984e-03, 0., 0., 0., 0.,
          1.96463661e-03, 7.85854645e-03, 1.96463661e-03, 0.,
          1.57170929e-02, 1.96463661e-03, 0., 0., 0., 3.92927323e-03,
          3.92927323e-03, 0., 0., 5.89390984e-03, 1.96463661e-03, 0., 0.,
          3.92927323e-03, 7.85854645e-03, 5.89390984e-03, 0.,
          1.96463661e-03, 0., 0., 1.96463661e-03, 1.96463661e-03,
          1.96463661e-03, 0., 7.85854645e-03, 3.92927323e-03,
          1.96463661e-03, 7.85854645e-03, 3.92927323e-03, 0.,
          1.96463661e-03, 1.96463661e-03, 1.96463661e-03, 5.89390984e-03,
          0., 0., 1.96463661e-03, 0., 0., 0., 5.89390984e-03,
          3.92927323e-03, 9.82318260e-03, 0., 0., 0., 0., 0., 0., 0., 0.,
          1.96463661e-03, 1.96463661e-03, 0., 1.96463661e-03, 0., 0.,
          1.96463661e-03, 0., 0., 0., 1.96463661e-03, 1.96463661e-03,
          1.96463661e-03, 9.82318260e-03, 0., 0., 1.96463661e-03, 0., 0.,
          0., 5.89390984e-03, 0., 0., 1.96463661e-03, 3.92927323e-03, 0.,
          1.76817290e-02, 3.92927323e-03, 0., 3.92927323e-03, 0., 0.,
          1.96463661e-03, 1.96463661e-03, 0., 0., 7.85854645e-03, 0.,
          1.96463661e-03, 0., 7.85854645e-03, 0., 0., 1.96463661e-03, 0.,
          1.96463661e-03, 0., 1.96463661e-03, 1.96463661e-03, 0., 0.,
          1.96463661e-03, 3.92927323e-03, 1.96463661e-03, 9.82318260e-03,
          0., 0., 0., 1.96463661e-03, 3.92927323e-03, 3.92927323e-03, 0.,
          9.82318260e-03, 1.96463661e-03, 5.89390984e-03, 0., 0.,
          3.92927323e-03, 0., 0., 0., 0., 3.92927323e-03, 1.96463661e-03,
          0., 1.17878197e-02, 1.96463661e-03, 0., 0., 0., 7.85854645e-03,
          5.89390984e-03, 3.92927323e-03, 1.96463661e-03, 0., 0., 0., 0.,
          0., 0., 0., 0., 0., 1.96463661e-03, 5.89390984e-03, 0. ]
      - [ 1.97238661e-03, 1.97238661e-03, 1.97238661e-03, 0., 0., 0., 0.,
          3.94477323e-03, 0., 5.91715984e-03, 1.97238661e-03,
          1.97238661e-03, 0., 5.91715984e-03, 0., 0., 3.94477323e-03,
          7.88954645e-03, 5.91715984e-03, 1.97238661e-03, 1.97238661e-03,
          3.94477323e-03, 5.91715984e-03, 5.91715984e-03, 0.,
          1.97238661e-03, 1.97238661e-03, 0., 1.97238661e-03,
          3.94477323e-03, 0., 0., 0., 1.97238661e-03, 3.94477323e-03, 0.,
          1.97238661e-03, 0., 7.88954645e-03, 0., 1.97238661e-03, 0.,
          1.97238661e-03, 0., 1.97238661e-03, 0., 0., 0., 3.94477323e-03,
          0., 3.94477323e-03, 0., 3.94477323e-03, 0., 1.38067063e-02,
          1.97238661e-03, 0., 1.97238661e-03, 1.97238661e-03,
          1.97238661e-03, 0., 7.88954645e-03, 1.97238661e-03, 0., 0.,
          7.88954645e-03, 0., 3.94477323e-03, 0., 1.97238661e-03,
          1.97238661e-03, 1.97238661e-03, 3.94477323e-03, 5.91715984e-03,
          5.91715984e-03, 1.97238661e-03, 1.97238661e-03, 3.94477323e-03,
          1.97238661e-03, 1.97238661e-03, 0., 7.88954645e-03,
          1.97238661e-03, 0., 0., 5.91715984e-03, 0., 1.97238661e-03,
          1.97238661e-03, 3.94477323e-03, 3.94477323e-03, 0.,
          3.94477323e-03, 0., 1.97238661e-03, 3.94477323e-03, 0., 0., 0.,
          1.97238661e-03, 0., 1.97238661e-03, 9.86193307e-03,
          1.97238661e-03, 0., 0., 0., 0., 1.97238661e-03, 3.94477323e-03,
          3.94477323e-03, 0., 1.97238661e-03, 1.97238661e-03, 0., 0.,
          1.97238661e-03, 1.97238661e-03, 0., 0., 0., 1.97238661e-03,
          1.97238661e-03, 0., 1.97238661e-03, 0., 1.97238661e-03, 0.,
          7.88954645e-03, 1.97238661e-03, 0., 1.97238661e-03, 0., 0., 0.,
          1.97238661e-03, 0., 3.94477323e-03, 1.97238661e-03, 0.,
          1.97238661e-03, 1.97238661e-03, 3.94477323e-03, 0.,
          1.97238661e-03, 0., 5.91715984e-03, 5.91715984e-03, 0.,
          1.97238661e-03, 0., 0., 1.97238661e-03, 5.91715984e-03, 0., 0.,
          5.91715984e-03, 0., 0., 9.86193307e-03, 0., 3.94477323e-03, 0.,
          1.97238661e-03, 5.91715984e-03, 3.94477323e-03, 0.,
          1.97238661e-03, 0., 1.97238661e-03, 3.94477323e-03, 0., 0., 0.,
          0., 0., 3.94477323e-03, 3.94477323e-03, 0., 0., 0., 0.,
          3.94477323e-03, 3.94477323e-03, 0., 5.91715984e-03,
          3.94477323e-03, 0., 0., 0., 0., 1.97238661e-03, 1.97238661e-03,
          0., 1.97238661e-03, 0., 7.88954645e-03, 1.97238661e-03,
          3.94477323e-03, 1.97238661e-03, 0., 0., 1.97238661e-03, 0., 0.,
          1.97238661e-03, 0., 0., 3.94477323e-03, 0., 1.97238661e-03, 0.,
          0., 1.97238661e-03, 0., 3.94477323e-03, 0., 3.94477323e-03, 0.,
          0., 0., 0., 0., 1.97238661e-03, 0., 0., 1.97238661e-03,
          5.91715984e-03, 5.91715984e-03, 0., 0., 3.94477323e-03,
          3.94477323e-03, 3.94477323e-03, 0., 3.94477323e-03, 0.,
          1.97238661e-03, 7.88954645e-03, 1.97238661e-03, 1.97238661e-03,
          0., 0., 0., 5.91715984e-03, 1.97238661e-03, 3.94477323e-03,
          3.94477323e-03, 3.94477323e-03, 1.97238661e-03, 1.77514795e-02,
          0., 5.91715984e-03, 0., 3.94477323e-03, 0., 0., 0., 0., 0., 0.,
          1.97238661e-03, 0., 0., 0., 0., 1.18343197e-02, 1.97238661e-03,
          0., 9.86193307e-03, 7.88954645e-03, 1.97238661e-03,
          7.88954645e-03, 1.97238661e-03, 0., 3.94477323e-03, 0.,
          3.94477323e-03, 0., 3.94477323e-03, 0., 0., 1.97238661e-03,
          1.97238661e-03, 1.38067063e-02, 0., 7.88954645e-03,
          1.77514795e-02, 1.97238661e-03, 5.91715984e-03, 0.,
          3.94477323e-03, 0., 3.94477323e-03, 0., 1.97238661e-03, 0.,
          5.91715984e-03, 0., 0., 0., 3.94477323e-03, 1.97238661e-03,
          1.97238661e-03, 0., 3.94477323e-03, 0., 3.94477323e-03,
          1.97238661e-03, 1.97238661e-03, 7.88954645e-03, 7.88954645e-03,
          0., 3.94477323e-03, 0., 7.88954645e-03, 3.94477323e-03,
          1.97238661e-03, 0., 3.94477323e-03, 0., 0., 0., 0.,
          7.88954645e-03, 0., 7.88954645e-03, 3.94477323e-03, 0.,
          5.91715984e-03, 1.97238661e-03, 3.94477323e-03, 0., 0.,
          1.97238661e-03, 1.97238661e-03, 1.97238661e-03, 0.,
          3.94477323e-03, 1.18343197e-02, 0., 0., 3.94477323e-03, 0.,
          3.94477323e-03, 5.91715984e-03, 1.97238661e-03, 0.,
          5.91715984e-03, 0., 1.97238661e-03, 0., 0., 1.97238661e-03,
          1.97238661e-03, 0., 0., 3.94477323e-03, 1.97238661e-03, 0., 0.,
          0., 1.97238661e-03, 3.94477323e-03, 3.94477323e-03, 0., 0.,
          5.91715984e-03, 1.97238661e-03, 0., 7.88954645e-03, 0., 0., 0.,
          0., 0., 0., 3.94477323e-03, 7.88954645e-03, 0., 1.97238661e-03,
          0., 1.97238661e-03, 0., 1.97238661e-03, 3.94477323e-03,
          7.88954645e-03, 0., 0., 0., 0., 0., 1.97238661e-03,
          3.94477323e-03, 1.97238661e-03, 0., 1.97238661e-03, 0., 0., 0.,
          1.77514795e-02, 1.97238661e-03, 0., 0., 3.94477323e-03, 0., 0.,
          0., 0., 0., 0., 0., 3.94477323e-03, 5.91715984e-03,
          1.97238661e-03, 1.97238661e-03, 0., 0., 0., 0., 0.,
          3.94477323e-03, 0., 0., 0., 0., 1.97238661e-03, 0.,
          1.97238661e-03, 0., 7.88954645e-03, 0., 0., 0., 0., 0., 0.,
          1.97238661e-03, 0., 0., 1.97238661e-03, 1.97238661e-03,
          1.97238661e-03, 1.97238661e-03, 0., 3.94477323e-03, 0.,
          1.97238661e-03, 0., 1.97238661e-03, 1.97238661e-03, 0.,
          1.97238661e-03, 0., 0., 0., 1.97238661e-03, 0., 3.94477323e-03,
          0., 3.94477323e-03, 0., 3.94477323e-03, 0., 0., 0.,
          9.86193307e-03, 0., 0., 0., 1.97238661e-03, 1.97238661e-03,
          3.94477323e-03, 0., 0., 3.94477323e-03, 3.94477323e-03,
          1.97238661e-03, 1.97238661e-03, 0., 0., 0., 0., 0., 0.,
          1.97238661e-03, 3.94477323e-03, 3.94477323e-03, 0., 0., 0., 0.,
          1.97238661e-03, 0., 0., 7.88954645e-03, 0., 3.94477323e-03,
          3.94477323e-03, 5.91715984e-03 ]
      - [ 1.89753319e-03, 1.89753319e-03, 0., 0., 0., 1.89753319e-03,
          1.89753319e-03, 1.13851987e-02, 1.89753319e-03, 3.79506638e-03,
          3.79506638e-03, 9.48766619e-03, 0., 0., 0., 0., 7.59013277e-03,
          1.89753319e-03, 3.79506638e-03, 1.89753319e-03, 3.79506638e-03,
          0., 1.89753319e-03, 3.79506638e-03, 5.69259934e-03, 0.,
          9.48766619e-03, 0., 0., 0., 1.13851987e-02, 0., 0., 0., 0., 0.,
          1.89753319e-03, 0., 0., 0., 3.79506638e-03, 1.89753319e-03,
          1.89753319e-03, 0., 0., 0., 1.89753319e-03, 0., 0.,
          9.48766619e-03, 1.89753319e-03, 0., 7.59013277e-03, 0.,
          3.79506638e-03, 5.69259934e-03, 1.89753319e-03, 0., 0.,
          7.59013277e-03, 0., 1.89753319e-03, 1.89753319e-03,
          5.69259934e-03, 1.89753319e-03, 0., 0., 5.69259934e-03, 0.,
          1.89753319e-03, 5.69259934e-03, 3.79506638e-03, 0.,
          5.69259934e-03, 1.89753319e-03, 1.89753319e-03, 0., 0.,
          1.89753319e-03, 3.79506638e-03, 0., 0., 0., 3.79506638e-03,
          1.89753319e-03, 1.89753319e-03, 0., 0., 1.89753319e-03,
          5.69259934e-03, 1.89753319e-03, 0., 1.89753319e-03, 0., 0.,
          3.79506638e-03, 0., 3.79506638e-03, 0., 1.89753319e-03, 0., 0.,
          0., 1.89753319e-03, 0., 0., 0., 1.89753319e-03, 0.,
          1.89753319e-03, 2.08728649e-02, 0., 0., 0., 0., 0.,
          9.48766619e-03, 0., 0., 0., 0., 3.79506638e-03, 1.89753319e-03,
          1.89753319e-03, 2.08728649e-02, 0., 0., 0., 7.59013277e-03,
          1.89753319e-03, 3.79506638e-03, 1.89753319e-03, 0.,
          1.89753319e-03, 5.69259934e-03, 0., 3.79506638e-03,
          1.89753319e-03, 3.79506638e-03, 0., 0., 7.59013277e-03, 0., 0.,
          1.89753319e-03, 1.89753319e-03, 0., 9.48766619e-03, 0., 0., 0.,
          5.69259934e-03, 7.59013277e-03, 0., 0., 0., 0., 1.89753319e-03,
          0., 1.89753319e-03, 0., 1.89753319e-03, 2.46679317e-02, 0., 0.,
          0., 0., 0., 0., 3.79506638e-03, 0., 0., 0., 0., 0., 0.,
          1.89753319e-03, 9.48766619e-03, 3.79506638e-03, 0., 0., 0.,
          5.69259934e-03, 0., 0., 0., 1.89753319e-03, 0., 1.89753319e-03,
          0., 0., 0., 0., 0., 0., 1.89753319e-03, 1.89753319e-03, 0.,
          5.69259934e-03, 0., 0., 3.79506638e-03, 0., 0., 1.89753319e-03,
          1.89753319e-03, 0., 0., 0., 0., 0., 1.89753324e-02,
          1.89753319e-03, 1.32827321e-02, 0., 0., 1.89753319e-03,
          1.89753319e-03, 0., 0., 1.89753319e-03, 0., 1.89753319e-03, 0.,
          0., 1.89753319e-03, 3.79506638e-03, 1.89753319e-03,
          3.79506638e-03, 0., 1.89753319e-03, 1.89753319e-03, 0.,
          1.89753319e-03, 1.89753319e-03, 1.89753319e-03, 3.79506638e-03,
          1.89753319e-03, 1.89753319e-03, 0., 1.89753319e-03, 0., 0., 0.,
          3.79506638e-03, 0., 1.89753319e-03, 0., 0., 1.89753319e-03,
          3.79506638e-03, 1.89753319e-03, 0., 1.13851987e-02, 0., 0., 0.,
          1.89753319e-03, 1.89753319e-03, 0., 0., 0., 0., 3.79506638e-03,
          5.69259934e-03, 3.79506638e-03, 3.79506638e-03, 0.,
          3.79506638e-03, 0., 1.89753319e-03, 3.79506638e-03, 0., 0., 0.,
          9.48766619e-03, 0., 0., 0., 1.89753319e-03, 0., 0., 0.,
          1.89753319e-03, 0., 0., 0., 0., 1.89753319e-03, 1.89753319e-03,
          3.79506638e-03, 1.89753319e-03, 0., 9.48766619e-03,
          7.59013277e-03, 3.79506638e-03, 1.32827321e-02, 3.79506638e-03,
          0., 0., 0., 1.89753319e-03, 1.89753319e-03, 0., 1.89753319e-03,
          9.48766619e-03, 1.89753319e-03, 5.69259934e-03, 3.79506638e-03,
          9.48766619e-03, 0., 1.89753319e-03, 0., 1.89753319e-03, 0., 0.,
          0., 0., 1.89753319e-03, 1.89753319e-03, 1.89753319e-03, 0.,
          3.79506638e-03, 0., 9.48766619e-03, 0., 3.79506638e-03,
          3.79506638e-03, 0., 1.89753319e-03, 1.89753319e-03,
          1.89753319e-03, 1.89753319e-03, 3.79506638e-03, 0.,
          1.89753319e-03, 1.89753319e-03, 0., 0., 0., 0., 0., 0., 0., 0.,
          0., 0., 5.69259934e-03, 3.79506638e-03, 1.89753319e-03,
          3.79506638e-03, 0., 0., 1.89753319e-03, 0., 0., 0.,
          1.89753319e-03, 1.89753319e-03, 5.69259934e-03, 3.79506638e-03,
          0., 0., 0., 3.79506638e-03, 0., 1.89753319e-03, 0.,
          2.08728649e-02, 1.89753319e-03, 1.89753319e-03, 1.51802655e-02,
          0., 1.89753319e-03, 0., 1.89753319e-03, 1.51802655e-02, 0., 0.,
          0., 0., 0., 0., 0., 1.89753319e-03, 3.79506638e-03,
          1.89753319e-03, 1.89753319e-03, 0., 0., 0., 0., 1.89753319e-03,
          0., 0., 0., 3.79506638e-03, 0., 1.89753319e-03, 0.,
          1.89753319e-03, 1.89753319e-03, 0., 0., 0., 3.79506638e-03, 0.,
          1.89753319e-03, 1.89753319e-03, 1.89753319e-03, 0., 0.,
          1.51802655e-02, 7.59013277e-03, 1.89753319e-03, 1.89753319e-03,
          3.79506638e-03, 5.69259934e-03, 3.79506638e-03, 0.,
          1.89753319e-03, 1.89753319e-03, 1.89753319e-03, 3.79506638e-03,
          0., 1.89753319e-03, 1.89753319e-03, 0., 1.89753319e-03, 0.,
          3.79506638e-03, 1.89753319e-03, 0., 1.89753319e-03, 0., 0., 0.,
          5.69259934e-03, 0., 0., 0., 0., 0., 0., 1.89753319e-03,
          1.89753319e-03, 0., 9.48766619e-03, 0., 1.89753319e-03,
          1.89753319e-03, 1.89753319e-03, 5.69259934e-03, 1.89753319e-03,
          0., 5.69259934e-03, 0., 0., 0., 1.89753319e-03, 5.69259934e-03,
          3.79506638e-03, 1.89753319e-03, 1.89753319e-03, 0., 0.,
          7.59013277e-03, 0., 1.89753319e-03, 0., 0., 3.79506638e-03, 0.,
          0., 0., 0., 0., 0., 0., 0., 3.79506638e-03, 1.89753319e-03,
          3.79506638e-03, 0., 7.59013277e-03, 3.79506638e-03, 0., 0.,
          3.79506638e-03, 3.79506638e-03, 1.89753319e-03, 0.,
          1.13851987e-02, 0., 0., 3.79506638e-03, 5.69259934e-03, 0.,
          7.59013277e-03, 0. ]
      - [ 0., 3.72439483e-03, 0., 0., 0., 5.58659248e-03, 0.,
          5.58659248e-03, 0., 1.86219742e-03, 0., 0., 0., 0., 0.,
          3.72439483e-03, 1.86219742e-03, 1.86219742e-03, 0.,
          3.72439483e-03, 3.72439483e-03, 1.86219742e-03, 1.86219742e-03,
          1.11731850e-02, 3.72439483e-03, 1.86219742e-03, 3.72439483e-03,
          0., 0., 0., 9.31098685e-03, 0., 0., 0., 1.86219742e-03, 0.,
          9.31098685e-03, 1.86219742e-03, 3.72439483e-03, 0.,
          1.86219742e-03, 0., 1.86219742e-03, 0., 1.86219742e-03,
          1.86219742e-03, 1.86219742e-03, 0., 0., 0., 0., 0.,
          3.72439483e-03, 1.86219742e-03, 0., 0., 1.86219742e-03, 0., 0.,
          1.86219742e-03, 0., 0., 5.58659248e-03, 5.58659248e-03,
          5.58659248e-03, 0., 1.86219742e-03, 0., 0., 0., 1.86219742e-03,
          3.72439483e-03, 1.86219742e-03, 7.44878966e-03, 5.58659248e-03,
          0., 1.86219742e-03, 0., 3.72439483e-03, 0., 0., 0., 0., 0., 0.,
          7.44878966e-03, 0., 0., 0., 1.86219742e-03, 9.31098685e-03, 0.,
          0., 0., 1.86219742e-03, 5.58659248e-03, 1.86219742e-03,
          7.44878966e-03, 0., 1.86219742e-03, 7.44878966e-03,
          3.72439483e-03, 1.86219742e-03, 0., 3.72439483e-03,
          1.86219742e-03, 0., 3.72439483e-03, 2.04841718e-02,
          1.86219742e-03, 3.72439483e-03, 0., 9.31098685e-03,
          3.72439483e-03, 0., 0., 1.86219742e-03, 0., 0., 0., 0.,
          1.86219742e-03, 3.72439483e-03, 0., 3.72439483e-03, 0., 0.,
          1.86219742e-03, 0., 3.72439483e-03, 1.86219742e-03, 0., 0., 0.,
          1.86219742e-03, 0., 0., 1.86219742e-03, 3.72439483e-03, 0., 0.,
          3.72439483e-03, 0., 0., 3.72439483e-03, 0., 3.72439483e-03,
          9.31098685e-03, 0., 0., 0., 3.72439483e-03, 1.86219742e-03, 0.,
          7.44878966e-03, 1.86219742e-03, 1.86219742e-03, 0., 0.,
          5.58659248e-03, 1.86219742e-03, 1.86219742e-03, 3.72439483e-03,
          1.86219742e-03, 0., 5.58659248e-03, 5.58659248e-03, 0., 0., 0.,
          0., 0., 5.58659248e-03, 0., 3.72439483e-03, 0., 0., 0.,
          3.72439483e-03, 3.72439483e-03, 1.86219742e-03, 0.,
          1.86219742e-03, 1.86219742e-03, 0., 0., 0., 5.58659248e-03, 0.,
          0., 0., 3.72439483e-03, 1.86219742e-03, 0., 0., 1.86219742e-03,
          7.44878966e-03, 0., 1.86219742e-03, 0., 1.86219742e-03, 0.,
          1.86219742e-03, 0., 0., 0., 0., 0., 1.86219742e-03, 0., 0.,
          4.84171323e-02, 7.44878966e-03, 7.44878966e-03, 0.,
          5.58659248e-03, 0., 0., 0., 0., 0., 0., 0., 0., 0., 0.,
          3.72439483e-03, 1.86219742e-03, 7.44878966e-03, 0., 0.,
          1.86219742e-03, 0., 1.86219742e-03, 3.72439483e-03,
          3.72439483e-03, 0., 1.86219742e-03, 1.86219742e-03,
          7.44878966e-03, 3.72439483e-03, 0., 0., 0., 0., 3.72439483e-03,
          0., 9.31098685e-03, 0., 3.72439483e-03, 0., 1.86219742e-03,
          1.86219742e-03, 1.30353821e-02, 0., 0., 0., 0., 0., 0.,
          1.86219742e-03, 3.72439483e-03, 0., 3.72439483e-03, 0., 0.,
          3.72439483e-03, 0., 0., 0., 0., 0., 5.58659248e-03, 0., 0.,
          7.44878966e-03, 0., 3.72439483e-03, 0., 5.58659248e-03, 0.,
          3.72439483e-03, 3.72439483e-03, 1.86219742e-03, 5.58659248e-03,
          0., 0., 1.86219742e-03, 1.86219742e-03, 1.86219742e-03,
          1.86219742e-03, 0., 5.58659248e-03, 1.86219742e-03,
          5.58659248e-03, 1.86219742e-03, 0., 5.58659248e-03, 0., 0., 0.,
          0., 0., 0., 0., 3.72439483e-03, 1.86219742e-03, 1.86219742e-03,
          0., 9.31098685e-03, 0., 0., 0., 1.86219742e-03, 1.86219742e-03,
          0., 0., 0., 1.86219742e-03, 3.72439483e-03, 0., 0., 0.,
          1.86219742e-03, 1.86219742e-03, 0., 1.86219742e-03, 0., 0.,
          1.86219742e-03, 0., 0., 1.86219742e-03, 1.86219742e-03, 0., 0.,
          1.86219742e-03, 0., 2.04841718e-02, 3.72439483e-03, 0.,
          3.72439483e-03, 1.86219742e-03, 0., 0., 1.86219742e-03,
          1.11731850e-02, 5.58659248e-03, 5.58659248e-03, 0., 0., 0., 0.,
          1.86219742e-03, 1.86219742e-03, 0., 0., 5.58659248e-03, 0.,
          5.58659248e-03, 3.72439483e-03, 0., 0., 0., 0., 0.,
          1.86219742e-03, 0., 0., 0., 5.58659248e-03, 1.86219742e-03,
          3.72439483e-03, 5.58659248e-03, 1.86219742e-03, 3.72439483e-03,
          1.11731850e-02, 0., 0., 1.86219742e-03, 3.72439483e-03, 0.,
          1.86219742e-03, 0., 0., 3.72439483e-03, 0., 5.58659248e-03,
          1.86219742e-03, 7.44878966e-03, 1.86219742e-03, 0., 0.,
          1.86219742e-03, 0., 0., 5.58659248e-03, 0., 0., 0.,
          1.86219742e-03, 1.86219742e-03, 0., 0., 0., 0., 0.,
          5.58659248e-03, 1.86219742e-03, 0., 1.86219742e-03,
          3.72439483e-03, 1.86219742e-03, 3.72439483e-03, 1.86219742e-03,
          0., 1.86219742e-03, 5.58659248e-03, 9.31098685e-03, 0.,
          1.86219742e-03, 0., 5.58659248e-03, 0., 7.44878966e-03,
          3.72439483e-03, 3.72439483e-03, 9.31098685e-03, 3.72439483e-03,
          0., 1.86219742e-03, 5.58659248e-03, 0., 3.72439483e-03, 0., 0.,
          1.86219742e-03, 0., 0., 1.86219742e-03, 5.58659248e-03,
          1.86219742e-03, 0., 5.58659248e-03, 1.86219742e-03, 0., 0.,
          5.58659248e-03, 1.86219742e-03, 1.86219742e-03, 0., 0.,
          1.86219742e-03, 0., 0., 9.31098685e-03, 1.86219742e-03, 0.,
          3.72439483e-03, 0., 5.58659248e-03, 0., 1.86219742e-03,
          7.44878966e-03, 1.86219742e-03, 0., 1.86219742e-03,
          1.86219742e-03, 1.86219742e-03, 1.86219742e-03, 0.,
          1.86219742e-03, 0., 0., 0., 0., 0., 3.72439483e-03, 0.,
          5.58659248e-03, 0., 1.86219742e-03, 5.58659248e-03,
          3.72439483e-03, 3.72439483e-03, 5.58659248e-03, 0., 0.,
          1.86219742e-03, 7.44878966e-03, 0., 1.86219742e-03,
          1.86219742e-03, 0., 0., 0., 1.86219742e-03, 5.58659248e-03,
          3.72439483e-03, 1.86219742e-03 ]
      - [ 0., 0., 1.93423603e-03, 0., 0., 7.73694413e-03, 3.86847206e-03,
          3.86847206e-03, 0., 0., 7.73694413e-03, 0., 0., 0., 0.,
          3.86847206e-03, 5.80270821e-03, 1.93423603e-03, 0., 0., 0.,
          1.93423603e-03, 0., 0., 1.93423603e-03, 0., 1.93423603e-03, 0.,
          0., 1.93423603e-03, 2.12765969e-02, 0., 0., 0., 0., 0.,
          7.73694413e-03, 1.93423603e-03, 1.93423603e-03, 0.,
          1.93423603e-03, 1.93423603e-03, 1.93423603e-03, 0., 0., 0.,
          3.86847206e-03, 0., 5.80270821e-03, 0., 0., 0., 1.35396523e-02,
          0., 3.86847206e-03, 1.93423603e-03, 0., 1.93423603e-03, 0., 0.,
          0., 1.93423603e-03, 5.80270821e-03, 1.93423603e-03, 0., 0., 0.,
          0., 0., 0., 1.93423603e-03, 0., 1.93423603e-03, 1.93423603e-03,
          1.93423603e-03, 0., 3.86847206e-03, 1.93423603e-03,
          1.93423603e-03, 7.73694413e-03, 0., 1.93423603e-03, 0.,
          3.86847206e-03, 0., 0., 0., 1.93423603e-03, 0., 0.,
          5.80270821e-03, 0., 0., 1.93423603e-03, 1.93423603e-03, 0., 0.,
          3.86847206e-03, 0., 0., 0., 7.73694413e-03, 5.80270821e-03, 0.,
          1.93423603e-03, 5.80270821e-03, 0., 3.86847206e-03,
          4.06189561e-02, 0., 3.86847206e-03, 0., 5.80270821e-03, 0., 0.,
          0., 1.93423603e-03, 1.93423603e-03, 3.86847206e-03, 0., 0., 0.,
          1.93423603e-03, 0., 1.93423603e-03, 0., 0., 0., 5.80270821e-03,
          1.93423603e-03, 0., 1.54738883e-02, 0., 0., 0., 0., 0., 0., 0.,
          1.93423603e-03, 1.93423603e-03, 3.86847206e-03, 0., 0.,
          3.86847206e-03, 0., 0., 3.86847206e-03, 1.93423603e-03,
          5.80270821e-03, 1.35396523e-02, 0., 7.73694413e-03, 0., 0.,
          1.93423603e-03, 3.86847206e-03, 0., 0., 0., 0., 0., 0., 0., 0.,
          0., 1.93423603e-03, 9.67118051e-03, 0., 1.93423603e-03, 0.,
          3.86847206e-03, 3.86847206e-03, 0., 7.73694413e-03, 0., 0.,
          1.93423603e-03, 0., 3.86847206e-03, 7.73694413e-03, 0., 0., 0.,
          0., 1.93423603e-03, 1.93423603e-03, 0., 1.93423603e-03, 0.,
          1.93423603e-03, 5.80270821e-03, 0., 1.35396523e-02,
          5.80270821e-03, 3.86847206e-03, 0., 0., 1.93423603e-03, 0., 0.,
          0., 0., 0., 0., 0., 0., 0., 0., 1.93423603e-03, 3.86847206e-03,
          3.48162502e-02, 0., 1.93423603e-03, 0., 3.86847206e-03,
          3.86847206e-03, 0., 0., 0., 0., 0., 0., 0., 0., 0.,
          7.73694413e-03, 1.93423603e-03, 0., 0., 0., 3.86847206e-03, 0.,
          1.93423603e-03, 1.93423603e-03, 0., 0., 5.80270821e-03,
          1.93423603e-03, 0., 0., 1.93423603e-03, 1.93423603e-03, 0.,
          9.67118051e-03, 1.93423603e-03, 1.93423603e-03, 0., 0., 0., 0.,
          0., 0., 0., 1.93423603e-03, 0., 0., 0., 1.93423603e-03, 0., 0.,
          7.73694413e-03, 1.93423603e-03, 5.80270821e-03, 1.93423603e-03,
          1.93423603e-03, 7.73694413e-03, 0., 7.73694413e-03, 0.,
          5.80270821e-03, 1.93423603e-03, 3.86847206e-03, 0., 0.,
          5.80270821e-03, 0., 1.93423603e-03, 1.93423603e-03,
          5.80270821e-03, 0., 0., 1.93423603e-03, 3.86847206e-03,
          7.73694413e-03, 0., 1.93423603e-03, 0., 0., 0., 1.93423603e-03,
          0., 1.93423603e-03, 3.86847206e-03, 9.67118051e-03, 0.,
          5.80270821e-03, 1.93423603e-03, 0., 1.93423603e-03,
          1.93423603e-03, 0., 0., 1.93423603e-03, 0., 3.86847206e-03,
          5.80270821e-03, 0., 0., 3.86847206e-03, 3.86847206e-03,
          1.93423603e-03, 0., 1.93423603e-03, 1.93423603e-03,
          1.93423603e-03, 0., 0., 0., 1.93423603e-03, 0., 1.16054164e-02,
          1.93423603e-03, 1.93423603e-03, 1.93423603e-03, 1.54738883e-02,
          0., 0., 1.93423603e-03, 3.86847206e-03, 0., 0., 1.35396523e-02,
          1.93423603e-03, 1.93423603e-03, 0., 1.93423603e-03, 0.,
          3.86847206e-03, 0., 0., 0., 3.86847206e-03, 0., 0.,
          1.93423603e-03, 5.80270821e-03, 3.86847206e-03, 0., 0.,
          1.93423603e-03, 1.93423603e-03, 0., 1.93423603e-03, 0.,
          1.93423603e-03, 5.80270821e-03, 0., 1.93423603e-03,
          1.93423603e-03, 0., 5.80270821e-03, 9.67118051e-03,
          1.54738883e-02, 1.93423603e-03, 3.86847206e-03, 1.93423603e-03,
          1.93423603e-03, 0., 1.93423603e-03, 0., 3.86847206e-03,
          1.93423603e-03, 5.80270821e-03, 0., 1.93423603e-03, 0.,
          3.86847206e-03, 0., 0., 0., 1.93423603e-03, 3.86847206e-03, 0.,
          1.93423603e-03, 1.93423603e-03, 1.93423603e-03, 1.93423603e-03,
          5.80270821e-03, 7.73694413e-03, 0., 0., 0., 0., 0.,
          3.86847206e-03, 0., 0., 1.93423603e-03, 0., 0., 1.93423603e-03,
          0., 0., 1.93423603e-03, 1.93423603e-03, 0., 3.86847206e-03,
          1.93423603e-03, 0., 1.93423603e-03, 0., 5.80270821e-03,
          1.93423603e-03, 0., 0., 7.73694413e-03, 0., 0., 1.93423603e-03,
          3.86847206e-03, 1.93423603e-03, 1.93423603e-03, 1.93423603e-03,
          0., 0., 0., 1.93423603e-03, 1.93423603e-03, 0., 1.93423603e-03,
          3.86847206e-03, 1.93423603e-03, 0., 1.93423603e-03,
          1.93423603e-03, 1.93423603e-03, 1.93423603e-03, 0.,
          7.73694413e-03, 1.93423603e-03, 1.93423603e-03, 0., 0., 0., 0.,
          0., 3.86847206e-03, 0., 3.86847206e-03, 1.93423603e-03, 0., 0.,
          1.93423603e-03, 0., 7.73694413e-03, 0., 0., 0., 1.93423603e-03,
          3.86847206e-03, 3.86847206e-03, 1.93423603e-03, 0., 0., 0.,
          3.86847206e-03, 0., 5.80270821e-03, 0., 0., 3.86847206e-03, 0.,
          0., 0., 0., 0., 1.93423603e-03, 0., 7.73694413e-03,
          3.86847206e-03, 1.93423603e-03, 7.73694413e-03, 0.,
          5.80270821e-03, 3.86847206e-03, 0., 0., 5.80270821e-03, 0., 0.,
          0., 3.86847206e-03, 0., 5.80270821e-03, 0., 0., 5.80270821e-03,
          0., 0. ]
      - [ 0., 0., 3.89863551e-03, 0., 0., 1.94931775e-03, 0.,
          7.79727101e-03, 1.94931775e-03, 0., 0., 1.94931775e-03,
          1.94931775e-03, 5.84795326e-03, 1.94931775e-03, 1.94931775e-03,
          0., 1.94931775e-03, 0., 0., 0., 5.84795326e-03, 0., 0.,
          7.79727101e-03, 1.94931775e-03, 1.94931775e-03, 0.,
          1.94931775e-03, 3.89863551e-03, 2.33918130e-02, 3.89863551e-03,
          0., 0., 0., 0., 3.89863551e-03, 0., 3.89863551e-03, 0.,
          1.94931775e-03, 0., 0., 0., 0., 3.89863551e-03, 3.89863551e-03,
          0., 0., 0., 0., 0., 5.84795326e-03, 0., 1.94931775e-03,
          7.79727101e-03, 5.84795326e-03, 1.94931775e-03, 5.84795326e-03,
          1.16959065e-02, 0., 1.94931775e-03, 9.74658877e-03,
          3.89863551e-03, 7.79727101e-03, 0., 0., 1.94931775e-03, 0.,
          3.89863551e-03, 0., 0., 1.94931775e-03, 5.84795326e-03, 0., 0.,
          9.74658877e-03, 0., 9.74658877e-03, 0., 3.89863551e-03,
          3.89863551e-03, 9.74658877e-03, 0., 0., 0., 0., 0.,
          1.94931775e-03, 5.84795326e-03, 5.84795326e-03, 0., 0.,
          1.94931775e-03, 3.89863551e-03, 1.94931775e-03, 0., 0., 0.,
          1.94931775e-03, 3.89863551e-03, 7.79727101e-03, 0., 0.,
          1.16959065e-02, 1.16959065e-02, 0., 0., 1.16959065e-02,
          3.89863551e-03, 1.16959065e-02, 0., 1.94931775e-03, 0., 0., 0.,
          1.94931775e-03, 0., 0., 0., 0., 1.94931775e-03, 0., 0., 0., 0.,
          0., 1.94931775e-03, 1.16959065e-02, 3.89863551e-03,
          1.94931775e-03, 3.89863551e-03, 0., 5.84795326e-03,
          1.94931775e-03, 1.94931775e-03, 0., 3.89863551e-03, 0., 0.,
          3.89863551e-03, 1.94931775e-03, 0., 0., 3.89863551e-03, 0., 0.,
          0., 0., 3.89863551e-03, 0., 0., 7.79727101e-03, 0.,
          1.94931775e-03, 0., 7.79727101e-03, 0., 0., 1.94931775e-03,
          3.89863551e-03, 0., 5.84795326e-03, 0., 0., 3.89863551e-03,
          3.89863551e-03, 1.36452243e-02, 0., 0., 1.36452243e-02,
          3.89863551e-03, 5.84795326e-03, 0., 0., 0., 0., 5.84795326e-03,
          0., 5.84795326e-03, 1.94931775e-03, 0., 1.94931775e-03,
          1.94931775e-03, 0., 0., 0., 1.94931775e-03, 0., 0., 0.,
          5.84795326e-03, 0., 3.89863551e-03, 0., 1.94931775e-03,
          1.94931775e-03, 1.94931775e-03, 5.84795326e-03, 1.94931775e-03,
          0., 1.94931775e-03, 1.94931775e-03, 0., 0., 0., 1.94931775e-03,
          0., 0., 0., 0., 1.75438598e-02, 1.94931775e-03, 3.89863551e-03,
          0., 5.84795326e-03, 0., 1.94931775e-03, 0., 0., 1.94931775e-03,
          0., 0., 0., 0., 0., 5.84795326e-03, 3.89863551e-03, 0., 0., 0.,
          0., 0., 0., 1.94931775e-03, 0., 1.94931775e-03, 5.84795326e-03,
          3.89863551e-03, 0., 9.74658877e-03, 0., 0., 0., 3.89863551e-03,
          0., 0., 1.94931775e-03, 0., 0., 0., 0., 0., 3.89863551e-03,
          3.89863551e-03, 0., 0., 1.94931775e-03, 0., 1.94931775e-03,
          1.94931775e-03, 7.79727101e-03, 3.89863551e-03, 9.74658877e-03,
          0., 0., 9.74658877e-03, 0., 0., 0., 1.94931775e-03,
          1.94931775e-03, 0., 1.94931775e-03, 0., 3.89863551e-03,
          1.94931775e-03, 1.94931775e-03, 1.94931775e-03, 0., 0., 0., 0.,
          5.84795326e-03, 0., 0., 0., 0., 1.94931775e-03, 0.,
          3.89863551e-03, 0., 3.89863551e-03, 3.89863551e-03,
          1.36452243e-02, 3.89863551e-03, 0., 1.94931775e-03, 0., 0., 0.,
          0., 1.94931775e-03, 0., 1.94931775e-03, 7.79727101e-03,
          3.89863551e-03, 0., 0., 5.84795326e-03, 1.94931775e-03, 0., 0.,
          0., 1.94931775e-03, 7.79727101e-03, 1.94931775e-03, 0., 0.,
          3.89863551e-03, 0., 0., 7.79727101e-03, 0., 1.16959065e-02, 0.,
          0., 0., 3.89863551e-03, 0., 1.94931775e-03, 0., 1.94931775e-03,
          0., 0., 0., 0., 1.94931775e-03, 1.94931775e-03, 0., 0.,
          3.89863551e-03, 5.84795326e-03, 0., 1.94931775e-03,
          7.79727101e-03, 3.89863551e-03, 1.94931775e-03, 0., 0.,
          1.94931775e-03, 0., 0., 5.84795326e-03, 0., 3.89863551e-03, 0.,
          0., 1.94931775e-03, 1.16959065e-02, 3.89863551e-03, 0.,
          3.89863551e-03, 1.94931775e-03, 0., 0., 3.89863551e-03, 0.,
          5.84795326e-03, 1.94931775e-03, 0., 7.79727101e-03, 0.,
          1.94931775e-03, 0., 3.89863551e-03, 0., 0., 0., 0.,
          3.89863551e-03, 3.89863551e-03, 0., 0., 1.94931775e-03,
          3.89863551e-03, 1.94931775e-03, 1.94931775e-03, 0.,
          5.84795326e-03, 0., 0., 1.94931775e-03, 0., 0., 0., 0., 0.,
          1.94931775e-03, 0., 0., 1.94931775e-03, 0., 0., 5.84795326e-03,
          3.89863551e-03, 0., 5.84795326e-03, 0., 0., 3.89863551e-03, 0.,
          0., 0., 3.89863551e-03, 0., 3.89863551e-03, 7.79727101e-03, 0.,
          0., 1.16959065e-02, 5.84795326e-03, 0., 1.94931775e-03, 0.,
          1.94931775e-03, 0., 0., 0., 0., 1.94931775e-03, 1.94931775e-03,
          3.89863551e-03, 7.79727101e-03, 1.94931775e-03, 0.,
          1.94931775e-03, 7.79727101e-03, 0., 1.94931775e-03,
          1.94931775e-03, 5.84795326e-03, 0., 0., 1.94931775e-03, 0., 0.,
          1.94931775e-03, 0., 5.84795326e-03, 0., 1.94931775e-03,
          5.84795326e-03, 0., 0., 0., 0., 3.89863551e-03, 1.94931775e-03,
          1.94931775e-03, 0., 0., 3.89863551e-03, 0., 1.94931775e-03, 0.,
          0., 0., 1.94931775e-03, 0., 0., 1.94931775e-03, 1.94931775e-03,
          1.94931775e-03, 0., 0., 0., 1.94931775e-03, 0., 0., 0., 0., 0.,
          3.89863551e-03, 0., 0., 0., 0., 1.94931775e-03, 0., 0., 0.,
          9.74658877e-03, 0., 0., 7.79727101e-03, 1.94931775e-03,
          3.89863551e-03, 0., 0. ]
      - [ 2.18340615e-03, 4.36681230e-03, 2.18340615e-03, 0.,
          2.18340615e-03, 0., 2.18340615e-03, 4.36681230e-03, 0.,
          6.55021844e-03, 0., 0., 0., 2.18340615e-03, 0., 0.,
          4.36681230e-03, 4.36681230e-03, 4.36681230e-03, 2.18340615e-03,
          2.18340615e-03, 0., 0., 2.18340615e-03, 0., 0., 2.18340615e-03,
          0., 4.36681230e-03, 0., 2.18340615e-03, 1.09170303e-02, 0.,
          2.18340615e-03, 4.36681230e-03, 0., 4.36681230e-03,
          6.55021844e-03, 2.18340615e-03, 0., 4.36681230e-03,
          2.18340615e-03, 2.18340615e-03, 0., 8.73362459e-03,
          2.18340615e-03, 4.36681230e-03, 0., 0., 2.18340615e-03,
          4.36681230e-03, 0., 4.36681230e-03, 0., 0., 2.18340615e-03,
          6.55021844e-03, 0., 2.18340615e-03, 4.36681230e-03, 0.,
          6.55021844e-03, 2.18340615e-03, 0., 0., 0., 2.18340615e-03,
          4.36681230e-03, 2.18340615e-03, 2.18340615e-03, 0.,
          2.18340615e-03, 4.36681230e-03, 1.09170303e-02, 6.55021844e-03,
          6.55021844e-03, 8.73362459e-03, 2.18340615e-03, 0., 0., 0.,
          4.36681230e-03, 0., 0., 0., 2.18340615e-03, 0., 0., 0.,
          2.18340615e-03, 8.73362459e-03, 2.18340615e-03, 2.18340615e-03,
          4.36681230e-03, 0., 2.18340615e-03, 0., 0., 0., 0., 0.,
          1.09170303e-02, 0., 0., 2.18340615e-03, 2.18340615e-03, 0., 0.,
          0., 0., 0., 0., 1.31004369e-02, 2.18340615e-03, 0., 0.,
          6.55021844e-03, 0., 2.18340615e-03, 0., 2.18340615e-03, 0.,
          2.18340615e-03, 0., 2.18340615e-03, 0., 0., 0., 0.,
          1.09170303e-02, 0., 8.73362459e-03, 0., 2.18340615e-03, 0.,
          2.18340615e-03, 4.36681230e-03, 6.55021844e-03, 0., 0., 0.,
          4.36681230e-03, 4.36681230e-03, 0., 2.18340615e-03, 0., 0.,
          2.18340615e-03, 6.55021844e-03, 6.55021844e-03, 0., 0.,
          6.55021844e-03, 0., 0., 2.18340615e-03, 2.18340615e-03, 0., 0.,
          2.18340615e-03, 0., 2.18340615e-03, 4.36681230e-03, 0., 0.,
          4.36681230e-03, 0., 0., 0., 2.18340615e-03, 0., 2.18340615e-03,
          0., 0., 4.36681230e-03, 0., 0., 4.36681230e-03, 0.,
          4.36681230e-03, 0., 0., 2.18340615e-03, 2.18340615e-03, 0., 0.,
          0., 0., 0., 2.18340615e-03, 0., 0., 8.73362459e-03, 0., 0., 0.,
          0., 0., 4.36681230e-03, 0., 4.36681230e-03, 2.18340615e-03, 0.,
          0., 0., 0., 0., 0., 0., 0., 0., 0., 0., 0., 0., 2.18340615e-03,
          0., 0., 0., 0., 0., 0., 0., 2.18340615e-03, 2.18340615e-03,
          2.18340615e-03, 1.09170303e-02, 8.73362459e-03, 0., 0., 0., 0.,
          2.18340615e-03, 0., 4.36681230e-03, 0., 2.18340615e-03, 0., 0.,
          0., 2.18340615e-03, 0., 4.36681230e-03, 0., 0., 6.55021844e-03,
          2.18340615e-03, 2.18340615e-03, 0., 2.18340615e-03, 0.,
          4.36681230e-03, 4.36681230e-03, 0., 0., 2.18340615e-03, 0., 0.,
          2.18340615e-03, 0., 2.18340615e-03, 8.73362459e-03,
          6.55021844e-03, 2.18340615e-03, 0., 6.55021844e-03,
          2.18340615e-03, 4.36681230e-03, 0., 0., 2.18340615e-03, 0.,
          2.18340615e-03, 0., 0., 8.73362459e-03, 0., 2.18340615e-03,
          4.36681230e-03, 0., 0., 2.18340615e-03, 0., 2.18340615e-03,
          2.18340615e-03, 4.36681230e-03, 2.18340615e-03, 2.18340615e-03,
          4.36681230e-03, 0., 0., 0., 4.36681230e-03, 6.55021844e-03, 0.,
          2.18340615e-03, 0., 8.73362459e-03, 0., 4.36681230e-03, 0.,
          6.55021844e-03, 0., 0., 0., 6.55021844e-03, 4.36681230e-03, 0.,
          0., 6.55021844e-03, 4.36681230e-03, 2.18340615e-03,
          2.18340615e-03, 2.18340615e-03, 2.18340615e-03, 2.18340615e-03,
          6.55021844e-03, 2.18340615e-03, 2.18340615e-03, 0., 0.,
          8.73362459e-03, 0., 0., 8.73362459e-03, 2.18340615e-03,
          6.55021844e-03, 2.18340615e-03, 0., 2.18340615e-03, 0.,
          4.36681230e-03, 4.36681230e-03, 2.18340615e-03, 0.,
          2.18340615e-03, 4.36681230e-03, 0., 2.18340615e-03,
          2.18340615e-03, 0., 0., 8.73362459e-03, 6.55021844e-03,
          2.18340615e-03, 6.55021844e-03, 0., 0., 8.73362459e-03,
          4.36681230e-03, 2.18340615e-03, 4.36681230e-03, 0.,
          1.09170303e-02, 0., 2.18340615e-03, 4.36681230e-03, 0., 0.,
          4.36681230e-03, 0., 0., 2.18340615e-03, 0., 0., 4.36681230e-03,
          0., 2.18340615e-03, 4.36681230e-03, 0., 2.18340615e-03,
          4.36681230e-03, 2.18340615e-03, 4.36681230e-03, 2.18340615e-03,
          0., 0., 4.36681230e-03, 0., 4.36681230e-03, 2.18340615e-03,
          2.18340615e-03, 2.18340615e-03, 2.18340615e-03, 4.36681230e-03,
          4.36681230e-03, 8.73362459e-03, 2.18340615e-03, 0., 0.,
          2.18340615e-03, 0., 0., 0., 2.18340615e-03, 0., 2.18340615e-03,
          0., 2.18340615e-03, 0., 0., 2.18340615e-03, 0., 0.,
          2.18340615e-03, 0., 0., 4.36681230e-03, 0., 0., 0., 0., 0., 0.,
          4.36681230e-03, 0., 1.52838435e-02, 4.36681230e-03, 0., 0.,
          2.18340615e-03, 6.55021844e-03, 0., 0., 2.18340615e-03,
          2.18340615e-03, 0., 2.18340615e-03, 2.18340615e-03,
          2.18340615e-03, 2.18340615e-03, 4.36681230e-03, 4.36681230e-03,
          4.36681230e-03, 8.73362459e-03, 4.36681230e-03, 4.36681230e-03,
          0., 0., 0., 2.18340615e-03, 2.18340615e-03, 0., 0.,
          1.31004369e-02, 0., 0., 4.36681230e-03, 0., 2.18340615e-03,
          2.18340615e-03, 0., 0., 0., 4.36681230e-03, 4.36681230e-03,
          2.18340615e-03, 2.18340615e-03, 2.18340615e-03, 2.18340615e-03,
          2.18340615e-03, 0., 0., 2.18340615e-03, 2.18340615e-03, 0., 0.,
          0., 4.36681230e-03, 0., 2.18340615e-03, 4.36681230e-03, 0., 0.,
          0., 0., 2.18340615e-03, 6.55021844e-03, 4.36681230e-03,
          6.55021844e-03, 2.18340615e-03, 0., 2.18340615e-03, 0., 0.,
          2.18340615e-03, 2.18340615e-03, 0., 0., 6.55021844e-03, 0., 0.,
          0., 0., 0., 2.18340615e-03, 2.18340615e-03, 2.18340615e-03,
          2.18340615e-03, 0. ]
      - [ 2.16919743e-03, 2.16919743e-03, 0., 6.50759228e-03, 0., 0., 0.,
          4.33839485e-03, 8.67678970e-03, 0., 0., 0., 2.16919743e-03, 0.,
          0., 2.16919743e-03, 0., 4.33839485e-03, 0., 2.16919743e-03,
          2.16919743e-03, 2.16919743e-03, 4.33839485e-03, 0.,
          2.16919743e-03, 4.33839485e-03, 2.16919743e-03, 0., 0., 0.,
          4.33839485e-03, 0., 0., 4.33839485e-03, 4.33839485e-03, 0.,
          4.33839485e-03, 0., 1.30151846e-02, 4.33839485e-03,
          2.16919743e-03, 0., 4.33839485e-03, 0., 0., 4.33839485e-03, 0.,
          0., 4.33839485e-03, 4.33839485e-03, 0., 0., 2.16919743e-03, 0.,
          0., 0., 2.16919743e-03, 0., 0., 2.16919743e-03, 2.16919743e-03,
          0., 0., 4.33839485e-03, 0., 0., 0., 6.50759228e-03,
          2.16919743e-03, 0., 4.33839485e-03, 2.16919743e-03,
          4.33839485e-03, 2.16919743e-03, 0., 0., 1.30151846e-02,
          4.33839485e-03, 0., 6.50759228e-03, 0., 0., 2.16919743e-03, 0.,
          2.16919743e-03, 0., 2.16919743e-03, 2.16919743e-03, 0., 0.,
          4.33839485e-03, 0., 0., 0., 6.50759228e-03, 2.16919743e-03, 0.,
          0., 0., 6.50759228e-03, 0., 4.33839485e-03, 2.16919743e-03, 0.,
          0., 2.16919743e-03, 0., 6.50759228e-03, 1.08459871e-02, 0.,
          2.16919743e-03, 0., 2.16919743e-03, 0., 2.16919743e-03, 0., 0.,
          0., 2.16919743e-03, 0., 0., 0., 4.33839485e-03, 0.,
          4.33839485e-03, 2.16919743e-03, 0., 0., 2.16919743e-03, 0.,
          4.33839485e-03, 4.33839485e-03, 0., 0., 2.16919743e-03, 0.,
          6.50759228e-03, 4.33839485e-03, 2.16919743e-03, 0., 0.,
          6.50759228e-03, 4.33839485e-03, 0., 0., 0., 0., 0.,
          4.33839485e-03, 1.08459871e-02, 0., 0., 4.33839485e-03, 0.,
          2.16919743e-03, 0., 0., 2.16919743e-03, 0., 2.16919743e-03,
          2.16919743e-03, 2.16919743e-03, 2.16919743e-03, 0.,
          2.16919743e-03, 2.16919743e-03, 0., 2.16919743e-03, 0., 0.,
          6.50759228e-03, 0., 2.16919743e-03, 0., 2.16919743e-03, 0.,
          2.16919743e-03, 0., 0., 2.16919743e-03, 2.16919743e-03, 0., 0.,
          4.33839485e-03, 0., 4.33839485e-03, 8.67678970e-03, 0.,
          2.16919743e-03, 2.16919743e-03, 0., 0., 0., 2.16919743e-03, 0.,
          0., 4.33839485e-03, 0., 2.16919743e-03, 4.33839485e-03, 0.,
          4.33839485e-03, 0., 0., 0., 2.16919743e-03, 0., 0., 0., 0.,
          2.16919743e-03, 6.50759228e-03, 6.50759228e-03, 0., 0.,
          4.33839485e-03, 0., 0., 0., 2.16919743e-03, 0., 2.16919743e-03,
          2.16919743e-03, 0., 0., 0., 0., 4.33839485e-03, 2.16919743e-03,
          0., 0., 0., 2.16919743e-03, 2.16919743e-03, 8.67678970e-03,
          2.16919743e-03, 0., 0., 0., 0., 2.16919743e-03, 2.16919743e-03,
          0., 0., 2.16919743e-03, 2.16919743e-03, 4.33839485e-03,
          4.33839485e-03, 8.67678970e-03, 2.16919743e-03, 0., 0., 0., 0.,
          6.50759228e-03, 0., 0., 0., 0., 2.16919743e-03, 4.33839485e-03,
          2.16919743e-03, 4.33839485e-03, 2.16919743e-03, 4.33839485e-03,
          0., 0., 4.33839485e-03, 8.67678970e-03, 2.16919743e-03, 0.,
          2.16919743e-03, 2.16919743e-03, 2.16919743e-03, 0.,
          6.50759228e-03, 0., 2.16919743e-03, 0., 0., 0., 0.,
          4.33839485e-03, 0., 2.16919743e-03, 2.16919743e-03, 0., 0.,
          2.16919743e-03, 0., 2.16919743e-03, 0., 2.16919743e-03,
          4.33839485e-03, 2.16919743e-03, 6.50759228e-03, 0.,
          1.08459871e-02, 0., 2.16919743e-03, 0., 0., 2.16919743e-03,
          4.33839485e-03, 2.16919743e-03, 1.73535794e-02, 6.50759228e-03,
          2.16919743e-03, 0., 0., 4.33839485e-03, 2.16919743e-03, 0., 0.,
          2.16919743e-03, 0., 0., 0., 0., 6.50759228e-03, 0.,
          6.50759228e-03, 1.08459871e-02, 4.33839485e-03, 8.67678970e-03,
          6.50759228e-03, 0., 0., 4.33839485e-03, 0., 0., 2.16919743e-03,
          0., 0., 0., 2.16919743e-03, 2.16919743e-03, 0., 4.33839485e-03,
          0., 0., 4.33839485e-03, 8.67678970e-03, 0., 4.33839485e-03,
          2.16919743e-03, 1.30151846e-02, 0., 2.16919743e-03, 0.,
          4.33839485e-03, 2.16919743e-03, 0., 2.16919743e-03,
          6.50759228e-03, 0., 0., 8.67678970e-03, 4.33839485e-03,
          4.33839485e-03, 0., 0., 0., 0., 0., 0., 2.16919743e-03, 0., 0.,
          4.33839485e-03, 2.16919743e-03, 2.16919743e-03, 0.,
          6.50759228e-03, 6.50759228e-03, 4.33839485e-03, 0., 0.,
          2.16919743e-03, 2.16919743e-03, 6.50759228e-03, 0.,
          2.16919743e-03, 0., 0., 2.16919743e-03, 2.16919743e-03,
          4.33839485e-03, 4.33839485e-03, 2.16919743e-03, 0.,
          2.16919743e-03, 2.16919743e-03, 2.16919743e-03, 2.16919743e-03,
          1.73535794e-02, 0., 0., 4.33839485e-03, 0., 0., 2.16919743e-03,
          0., 0., 0., 0., 0., 0., 0., 2.16919743e-03, 0., 4.33839485e-03,
          2.16919743e-03, 0., 0., 6.50759228e-03, 4.33839485e-03,
          2.16919743e-03, 0., 0., 2.16919743e-03, 2.16919743e-03, 0.,
          2.16919743e-03, 2.16919743e-03, 0., 4.33839485e-03, 0.,
          2.16919743e-03, 2.16919743e-03, 2.16919743e-03, 2.16919743e-03,
          2.16919743e-03, 2.16919743e-03, 0., 2.16919743e-03, 0.,
          4.33839485e-03, 0., 0., 6.50759228e-03, 0., 4.33839485e-03, 0.,
          0., 4.33839485e-03, 2.16919743e-03, 4.33839485e-03,
          2.16919743e-03, 0., 0., 0., 0., 0., 2.16919743e-03,
          8.67678970e-03, 2.38611717e-02, 0., 0., 0., 0., 4.33839485e-03,
          0., 8.67678970e-03, 0., 6.50759228e-03, 6.50759228e-03, 0.,
          8.67678970e-03, 0., 2.16919743e-03, 2.16919743e-03,
          2.16919743e-03, 0., 0., 0., 0., 0., 0., 1.08459871e-02,
          1.08459871e-02, 0., 2.16919743e-03, 0., 4.33839485e-03, 0., 0.,
          0., 0., 0., 0., 1.08459871e-02, 0., 0., 0., 0., 0.,
          2.16919743e-03, 0., 0. ]
      - [ 1.85873604e-03, 3.71747208e-03, 0., 5.57620823e-03,
          1.85873604e-03, 1.85873604e-03, 5.57620823e-03, 0.,
          1.85873604e-03, 1.85873604e-03, 1.85873604e-03, 0., 0., 0.,
          3.71747208e-03, 0., 0., 1.85873604e-03, 0., 1.85873604e-03, 0.,
          0., 0., 0., 7.43494416e-03, 1.85873604e-03, 1.85873604e-03, 0.,
          0., 0., 5.57620823e-03, 3.71747208e-03, 0., 5.57620823e-03,
          3.71747208e-03, 0., 1.85873604e-03, 0., 5.57620823e-03,
          1.85873604e-03, 1.85873604e-03, 0., 0., 0., 0., 3.71747208e-03,
          1.85873604e-03, 1.85873604e-03, 7.43494416e-03, 0.,
          9.29368008e-03, 0., 1.11524165e-02, 0., 1.85873604e-03,
          1.85873604e-03, 9.29368008e-03, 0., 5.57620823e-03, 0., 0., 0.,
          1.85873604e-03, 5.57620823e-03, 0., 1.85873604e-03,
          3.71747208e-03, 0., 3.71747208e-03, 3.71747208e-03,
          1.85873604e-03, 3.71747208e-03, 0., 0., 3.71747208e-03, 0., 0.,
          3.71747208e-03, 7.43494416e-03, 3.71747208e-03, 0., 0.,
          5.57620823e-03, 0., 0., 0., 0., 5.57620823e-03, 0.,
          3.71747208e-03, 0., 0., 1.85873604e-03, 0., 5.57620823e-03,
          3.71747208e-03, 7.43494416e-03, 1.85873604e-03, 0.,
          1.85873604e-03, 1.85873604e-03, 5.57620823e-03, 3.71747208e-03,
          0., 0., 1.11524165e-02, 0., 0., 1.11524165e-02, 1.85873604e-03,
          1.85873604e-03, 0., 1.85873604e-03, 7.43494416e-03, 0., 0.,
          1.85873604e-03, 1.85873604e-03, 0., 0., 1.85873604e-03,
          3.71747208e-03, 5.57620823e-03, 0., 1.85873604e-03, 0., 0.,
          5.57620823e-03, 1.85873604e-03, 5.57620823e-03, 5.57620823e-03,
          1.85873604e-03, 0., 1.85873604e-03, 0., 0., 0., 1.85873604e-03,
          0., 0., 3.71747208e-03, 1.85873604e-03, 0., 0., 1.85873604e-03,
          0., 0., 0., 5.57620823e-03, 0., 3.71747208e-03, 1.85873604e-03,
          5.57620823e-03, 0., 5.57620823e-03, 0., 5.57620823e-03, 0., 0.,
          0., 1.85873604e-03, 7.43494416e-03, 3.71747208e-03, 0.,
          1.85873604e-03, 0., 0., 5.57620823e-03, 0., 1.85873604e-03,
          3.71747208e-03, 1.85873604e-03, 0., 0., 1.85873604e-03, 0.,
          7.43494416e-03, 1.85873604e-03, 0., 5.57620823e-03,
          1.85873604e-03, 0., 0., 1.85873604e-03, 0., 3.71747208e-03,
          5.57620823e-03, 0., 1.85873604e-03, 0., 0., 1.85873604e-03, 0.,
          1.85873604e-03, 0., 3.71747208e-03, 1.85873604e-03,
          1.85873604e-03, 3.71747208e-03, 0., 0., 0., 0., 0., 0.,
          1.85873604e-03, 0., 0., 0., 1.85873604e-03, 0., 7.43494416e-03,
          0., 0., 0., 7.43494416e-03, 0., 1.85873604e-03, 0.,
          1.85873604e-03, 0., 0., 0., 0., 0., 0., 5.57620823e-03,
          3.71747208e-03, 0., 0., 0., 1.85873604e-03, 0., 1.85873604e-03,
          3.71747208e-03, 1.85873604e-03, 0., 5.57620823e-03,
          3.71747208e-03, 1.85873604e-03, 1.11524165e-02, 0., 0., 0.,
          7.43494416e-03, 3.71747208e-03, 1.85873604e-03, 1.85873604e-03,
          0., 5.57620823e-03, 0., 0., 0., 1.85873604e-03, 1.85873604e-03,
          7.43494416e-03, 3.71747208e-03, 0., 0., 3.71747208e-03, 0.,
          3.71747208e-03, 1.85873604e-03, 1.85873604e-03, 5.57620823e-03,
          1.85873604e-03, 1.85873604e-03, 0., 5.57620823e-03, 0.,
          1.85873604e-03, 0., 5.57620823e-03, 3.71747208e-03, 0., 0., 0.,
          1.85873604e-03, 0., 0., 0., 7.43494416e-03, 5.57620823e-03,
          3.71747208e-03, 0., 0., 1.85873604e-03, 0., 7.43494416e-03, 0.,
          5.57620823e-03, 0., 5.57620823e-03, 1.85873604e-03,
          3.71747208e-03, 1.85873604e-03, 5.57620823e-03, 1.85873604e-03,
          0., 1.11524165e-02, 1.85873604e-03, 1.85873604e-03,
          1.85873604e-03, 1.85873604e-03, 3.71747208e-03, 7.43494416e-03,
          3.71747208e-03, 0., 5.57620823e-03, 3.71747208e-03,
          1.85873604e-03, 5.57620823e-03, 0., 7.43494416e-03, 0.,
          3.71747208e-03, 0., 3.71747208e-03, 0., 1.85873604e-03, 0.,
          5.57620823e-03, 0., 1.85873604e-03, 7.43494416e-03, 0., 0.,
          3.71747208e-03, 0., 0., 0., 0., 1.85873604e-03, 9.29368008e-03,
          0., 0., 0., 0., 0., 3.71747208e-03, 0., 5.57620823e-03, 0., 0.,
          0., 0., 1.85873604e-03, 0., 3.71747208e-03, 0., 0., 0.,
          1.85873604e-03, 0., 1.85873604e-03, 1.85873604e-03,
          1.85873604e-03, 1.85873604e-03, 7.43494416e-03, 5.57620823e-03,
          0., 1.85873604e-03, 9.29368008e-03, 0., 0., 3.71747208e-03,
          7.43494416e-03, 0., 0., 9.29368008e-03, 0., 0., 3.71747208e-03,
          3.71747208e-03, 3.71747208e-03, 1.85873604e-03, 0., 0., 0.,
          1.85873604e-03, 0., 1.85873604e-03, 0., 0., 0., 0., 0.,
          1.85873604e-03, 5.57620823e-03, 5.57620823e-03, 0., 0., 0.,
          1.85873604e-03, 1.30111519e-02, 3.71747208e-03, 0., 0.,
          5.57620823e-03, 0., 0., 0., 0., 0., 1.85873604e-03,
          1.85873604e-03, 1.85873604e-03, 1.85873604e-03, 0.,
          1.85873604e-03, 1.85873604e-03, 0., 5.57620823e-03,
          5.57620823e-03, 0., 0., 1.85873604e-03, 1.85873604e-03, 0.,
          1.85873604e-03, 0., 1.85873604e-03, 1.85873604e-03,
          7.43494416e-03, 3.71747208e-03, 0., 1.85873604e-03,
          7.43494416e-03, 0., 1.85873604e-03, 7.43494416e-03, 0., 0.,
          1.85873604e-03, 0., 1.85873604e-03, 3.71747208e-03, 0., 0., 0.,
          3.71747208e-03, 0., 0., 0., 5.57620823e-03, 0., 5.57620823e-03,
          1.85873604e-03, 3.71747208e-03, 1.85873604e-03, 0., 0.,
          1.85873604e-03, 1.85873604e-03, 0., 5.57620823e-03, 0.,
          1.85873604e-03, 0., 3.71747208e-03, 3.71747208e-03, 0.,
          3.71747208e-03, 0., 7.43494416e-03, 5.57620823e-03,
          1.85873604e-03, 1.85873604e-03, 7.43494416e-03, 0.,
          3.71747208e-03, 1.85873604e-03, 1.85873604e-03, 0., 0.,
          1.85873604e-03, 1.85873604e-03, 1.85873604e-03, 1.85873604e-03,
          0., 0., 1.85873604e-03, 3.71747208e-03, 0., 3.71747208e-03,
          1.85873604e-03, 5.57620823e-03, 0., 3.71747208e-03,
          1.85873604e-03, 0., 0., 3.71747208e-03, 0., 0., 3.71747208e-03,
          0., 1.85873604e-03, 0., 0. ]
      - [ 0., 0., 0., 7.54716992e-03, 1.88679248e-03, 0., 1.88679248e-03,
          7.54716992e-03, 0., 1.88679248e-03, 3.77358496e-03, 0., 0., 0.,
          3.77358496e-03, 0., 0., 1.88679248e-03, 0., 0., 0., 0., 0., 0.,
          1.88679248e-03, 0., 3.77358496e-03, 0., 1.88679248e-03,
          1.88679248e-03, 0., 1.88679248e-03, 1.88679248e-03,
          7.54716992e-03, 5.66037744e-03, 0., 3.77358496e-03, 0.,
          1.88679248e-03, 0., 3.77358496e-03, 0., 0., 0., 0.,
          1.88679248e-03, 3.77358496e-03, 0., 3.77358496e-03,
          3.77358496e-03, 1.88679248e-03, 0., 0., 0., 5.66037744e-03,
          1.88679248e-03, 0., 1.88679248e-03, 1.88679248e-03,
          3.77358496e-03, 0., 1.88679248e-03, 0., 0., 0., 1.88679248e-03,
          1.13207549e-02, 0., 0., 5.66037744e-03, 5.66037744e-03,
          3.77358496e-03, 1.88679248e-03, 3.77358496e-03, 0.,
          3.77358496e-03, 1.50943398e-02, 3.77358496e-03, 5.66037744e-03,
          1.88679248e-03, 0., 5.66037744e-03, 1.88679248e-03,
          1.88679248e-03, 0., 0., 0., 1.88679248e-03, 0., 1.88679248e-03,
          1.88679248e-03, 0., 7.54716992e-03, 0., 0., 0., 3.77358496e-03,
          1.88679248e-03, 1.88679248e-03, 0., 0., 1.88679248e-03,
          1.88679248e-03, 0., 3.77358496e-03, 3.77358496e-03, 0.,
          1.88679248e-03, 0., 3.77358496e-03, 3.77358496e-03,
          3.77358496e-03, 0., 0., 0., 0., 0., 5.66037744e-03, 0., 0.,
          1.88679248e-03, 1.88679248e-03, 1.88679248e-03, 0.,
          1.88679248e-03, 0., 0., 0., 3.77358496e-03, 0., 0.,
          3.77358496e-03, 0., 1.88679248e-03, 0., 0., 0., 1.88679248e-03,
          0., 0., 1.88679248e-03, 1.88679248e-03, 0., 0., 7.54716992e-03,
          0., 0., 0., 1.88679248e-03, 1.88679248e-03, 3.77358496e-03, 0.,
          0., 1.88679248e-03, 3.77358496e-03, 0., 0., 0., 1.88679248e-03,
          0., 0., 0., 1.88679248e-03, 0., 0., 5.66037744e-03,
          1.88679248e-03, 5.66037744e-03, 0., 0., 0., 1.88679248e-03,
          3.77358496e-03, 0., 3.77358496e-03, 0., 0., 1.88679248e-03, 0.,
          3.77358496e-03, 0., 1.88679248e-03, 0., 1.88679248e-03, 0.,
          1.88679248e-03, 3.77358496e-03, 1.88679248e-03, 0., 0., 0.,
          1.88679248e-03, 3.77358496e-03, 7.54716992e-03, 0.,
          1.88679248e-03, 7.54716992e-03, 1.88679248e-03, 0., 0.,
          5.66037744e-03, 5.66037744e-03, 0., 0., 0., 0., 5.66037744e-03,
          0., 0., 0., 0., 0., 3.77358496e-03, 3.77358496e-03, 0.,
          5.66037744e-03, 0., 0., 1.88679248e-03, 0., 0., 0., 0., 0.,
          3.77358496e-03, 1.88679248e-03, 3.77358496e-03, 0.,
          1.88679248e-03, 0., 0., 1.88679248e-03, 1.88679248e-03,
          1.88679248e-03, 3.77358496e-03, 1.88679248e-03, 1.88679248e-03,
          0., 1.32075474e-02, 0., 0., 3.77358496e-03, 0., 0.,
          5.66037744e-03, 3.77358496e-03, 0., 1.88679248e-03, 0., 0., 0.,
          5.66037744e-03, 1.88679248e-03, 3.77358496e-03, 5.66037744e-03,
          3.77358496e-03, 1.88679248e-03, 1.88679248e-03, 5.66037744e-03,
          1.88679248e-02, 0., 0., 5.66037744e-03, 1.88679248e-03,
          3.77358496e-03, 1.88679248e-03, 1.32075474e-02, 1.88679248e-03,
          3.77358496e-03, 0., 5.66037744e-03, 1.88679248e-03, 0.,
          3.77358496e-03, 1.88679248e-03, 3.77358496e-03, 0.,
          1.88679248e-03, 1.88679248e-03, 1.88679248e-03, 0.,
          1.88679248e-03, 9.43396240e-03, 0., 0., 0., 1.88679248e-03, 0.,
          0., 0., 0., 3.77358496e-03, 7.54716992e-03, 0., 0.,
          1.88679248e-03, 1.88679248e-03, 5.66037744e-03, 0.,
          5.66037744e-03, 0., 0., 0., 0., 0., 3.77358496e-03, 0., 0., 0.,
          0., 1.88679248e-03, 5.66037744e-03, 0., 5.66037744e-03, 0.,
          1.88679248e-03, 3.77358496e-03, 5.66037744e-03, 3.77358496e-03,
          0., 0., 1.88679248e-03, 1.32075474e-02, 1.50943398e-02,
          5.66037744e-03, 3.77358496e-03, 1.88679248e-03, 0., 0., 0.,
          1.88679248e-03, 3.77358496e-03, 0., 1.88679248e-03, 0.,
          1.88679248e-03, 5.66037744e-03, 0., 0., 3.77358496e-03, 0.,
          1.88679248e-03, 0., 0., 5.66037744e-03, 0., 1.88679248e-03, 0.,
          1.88679248e-03, 0., 1.88679248e-03, 0., 0., 1.32075474e-02, 0.,
          0., 1.88679248e-03, 1.88679248e-03, 7.54716992e-03,
          7.54716992e-03, 0., 1.50943398e-02, 0., 3.77358496e-03,
          1.88679248e-03, 1.88679248e-03, 0., 0., 1.88679248e-03,
          1.88679248e-03, 0., 0., 1.88679248e-03, 3.77358496e-03,
          5.66037744e-03, 9.43396240e-03, 0., 1.88679248e-03, 0.,
          1.88679248e-03, 0., 3.77358496e-03, 0., 1.88679248e-03, 0.,
          1.88679248e-03, 0., 0., 3.77358496e-03, 3.77358496e-03, 0., 0.,
          0., 0., 1.88679248e-03, 5.66037744e-03, 0., 1.88679248e-03,
          5.66037744e-03, 0., 1.88679248e-03, 5.66037744e-03, 0., 0.,
          1.88679248e-03, 3.77358496e-03, 0., 0., 1.88679248e-03,
          3.77358496e-03, 1.88679248e-03, 0., 0., 3.77358496e-03,
          5.66037744e-03, 9.43396240e-03, 3.77358496e-03, 5.66037744e-03,
          0., 3.77358496e-03, 3.77358496e-03, 1.88679248e-03,
          5.66037744e-03, 0., 1.88679248e-03, 0., 0., 3.77358496e-03,
          5.66037744e-03, 1.88679248e-03, 7.54716992e-03, 3.77358496e-03,
          1.88679248e-03, 0., 0., 1.88679248e-03, 1.88679248e-03,
          3.77358496e-03, 0., 1.88679248e-03, 1.88679248e-03,
          5.66037744e-03, 0., 5.66037744e-03, 3.77358496e-03,
          1.88679248e-03, 0., 1.13207549e-02, 0., 1.88679248e-03, 0.,
          1.88679248e-03, 0., 0., 1.88679248e-03, 1.50943398e-02, 0.,
          3.77358496e-03, 5.66037744e-03, 5.66037744e-03, 0.,
          1.88679248e-03, 0., 1.88679248e-03, 1.88679248e-03,
          1.88679248e-03, 0., 0., 5.66037744e-03, 1.88679248e-03,
          5.66037744e-03, 0., 0., 0., 0., 0., 1.88679248e-03, 0., 0.,
          1.88679248e-03, 0., 0., 5.66037744e-03, 1.88679248e-03,
          1.88679248e-03, 0., 3.77358496e-03, 0., 3.77358496e-03,
          3.77358496e-03, 0., 0., 3.77358496e-03, 3.77358496e-03, 0., 0.,
          0., 0., 0., 0. ]
      - [ 1.87969930e-03, 1.87969930e-03, 0., 0., 7.51879718e-03, 0.,
          1.87969930e-03, 0., 0., 0., 5.63909765e-03, 0., 0., 0., 0.,
          9.39849671e-03, 1.87969930e-03, 0., 0., 0., 0., 1.87969930e-03,
          9.39849671e-03, 0., 3.75939859e-03, 1.87969930e-03, 0., 0., 0.,
          5.63909765e-03, 0., 7.51879718e-03, 0., 0., 1.87969930e-03, 0.,
          1.87969930e-03, 1.87969930e-03, 3.75939859e-03, 1.87969930e-03,
          0., 1.87969930e-03, 3.75939859e-03, 0., 1.87969930e-03,
          1.87969930e-03, 0., 0., 1.87969930e-03, 0., 3.75939859e-03, 0.,
          0., 0., 0., 1.87969930e-03, 3.75939859e-03, 3.75939859e-03, 0.,
          0., 0., 0., 7.51879718e-03, 0., 0., 0., 9.39849671e-03, 0.,
          5.63909765e-03, 1.87969930e-03, 1.87969930e-03, 1.87969930e-03,
          0., 5.63909765e-03, 9.39849671e-03, 1.87969930e-03,
          1.87969930e-03, 3.75939859e-03, 1.12781953e-02, 3.75939859e-03,
          0., 3.75939859e-03, 0., 1.87969930e-03, 1.87969930e-03,
          9.39849671e-03, 0., 3.75939859e-03, 0., 3.75939859e-03,
          2.06766929e-02, 0., 1.87969930e-03, 0., 1.87969930e-03,
          1.87969930e-03, 3.75939859e-03, 1.12781953e-02, 0., 0.,
          1.87969930e-03, 5.63909765e-03, 0., 0., 1.87969930e-03,
          3.75939859e-03, 0., 0., 0., 0., 0., 0., 1.87969930e-03,
          7.51879718e-03, 0., 0., 0., 0., 3.75939859e-03, 0., 0.,
          7.51879718e-03, 0., 0., 1.87969930e-03, 0., 0., 9.39849671e-03,
          0., 3.75939859e-03, 1.87969930e-03, 1.87969930e-03, 0., 0.,
          1.87969930e-03, 5.63909765e-03, 1.87969930e-03, 1.87969930e-03,
          0., 0., 1.87969930e-03, 9.39849671e-03, 0., 0., 0., 0., 0., 0.,
          1.87969930e-03, 0., 1.87969930e-03, 0., 0., 1.87969930e-03,
          3.75939859e-03, 0., 7.51879718e-03, 0., 3.75939859e-03, 0., 0.,
          9.39849671e-03, 0., 1.87969930e-03, 0., 5.63909765e-03,
          9.39849671e-03, 0., 0., 1.87969930e-03, 0., 5.63909765e-03,
          1.87969930e-03, 0., 3.75939859e-03, 0., 3.75939859e-03, 0., 0.,
          1.87969930e-03, 0., 0., 3.75939859e-03, 1.87969930e-03,
          1.87969930e-03, 7.51879718e-03, 0., 0., 0., 0., 0.,
          1.87969930e-03, 0., 3.75939859e-03, 0., 1.87969930e-03,
          3.75939859e-03, 0., 1.87969930e-03, 3.75939859e-03,
          3.75939859e-03, 1.87969930e-03, 7.51879718e-03, 0., 0.,
          1.87969930e-03, 0., 0., 7.51879718e-03, 0., 0., 0.,
          3.75939859e-03, 0., 0., 1.87969930e-03, 0., 0., 0.,
          3.75939859e-03, 0., 0., 3.75939859e-03, 0., 0., 0., 0.,
          1.87969930e-03, 3.75939859e-03, 0., 0., 5.63909765e-03,
          1.87969930e-03, 1.87969930e-03, 5.63909765e-03, 9.39849671e-03,
          0., 9.39849671e-03, 1.87969930e-03, 7.51879718e-03,
          1.87969930e-03, 9.39849671e-03, 3.75939859e-03, 0.,
          3.75939859e-03, 0., 3.75939859e-03, 3.75939859e-03,
          1.87969930e-03, 1.87969930e-03, 0., 0., 0., 0., 3.75939859e-03,
          7.51879718e-03, 0., 1.87969930e-03, 0., 0., 0., 0.,
          1.87969930e-03, 0., 1.87969930e-03, 0., 0., 1.87969930e-03,
          1.87969930e-03, 0., 0., 0., 1.12781953e-02, 0., 1.87969930e-03,
          1.87969930e-03, 0., 1.87969930e-03, 0., 0., 0., 5.63909765e-03,
          0., 1.87969930e-03, 0., 0., 1.87969930e-03, 0., 1.87969930e-03,
          0., 3.75939859e-03, 0., 0., 0., 1.87969930e-03, 0., 0., 0., 0.,
          3.75939859e-03, 1.87969930e-03, 5.63909765e-03, 0., 0., 0.,
          3.75939859e-03, 3.75939859e-03, 5.63909765e-03, 1.87969930e-03,
          1.87969930e-03, 3.75939859e-03, 0., 0., 3.75939859e-03, 0.,
          3.75939859e-03, 3.75939859e-03, 1.87969930e-03, 0., 0., 0.,
          1.87969930e-03, 0., 0., 0., 3.75939859e-03, 1.87969930e-03, 0.,
          1.87969930e-03, 0., 3.75939859e-03, 1.87969930e-03, 0.,
          5.63909765e-03, 0., 0., 0., 0., 1.87969930e-03, 3.75939859e-03,
          0., 9.39849671e-03, 0., 0., 5.63909765e-03, 3.75939859e-03,
          2.06766929e-02, 0., 0., 0., 5.63909765e-03, 0., 0., 0., 0., 0.,
          5.63909765e-03, 1.87969930e-03, 1.12781953e-02, 0., 0., 0., 0.,
          5.63909765e-03, 0., 0., 1.87969930e-03, 0., 1.87969930e-03,
          1.87969930e-03, 0., 3.75939859e-03, 0., 1.87969930e-03,
          1.87969930e-03, 7.51879718e-03, 0., 0., 0., 5.63909765e-03,
          5.63909765e-03, 3.75939859e-03, 0., 1.87969930e-03, 0.,
          7.51879718e-03, 1.87969930e-03, 0., 0., 3.75939859e-03, 0., 0.,
          1.87969930e-03, 1.87969930e-03, 0., 9.39849671e-03, 0., 0., 0.,
          0., 3.75939859e-03, 3.75939859e-03, 0., 0., 3.75939859e-03,
          1.87969930e-03, 0., 3.75939859e-03, 0., 9.39849671e-03,
          5.63909765e-03, 7.51879718e-03, 0., 1.87969930e-03,
          7.51879718e-03, 0., 0., 3.75939859e-03, 0., 0., 3.75939859e-03,
          3.75939859e-03, 0., 0., 0., 0., 1.87969930e-03, 3.75939859e-03,
          3.75939859e-03, 0., 9.39849671e-03, 1.87969930e-03,
          3.75939859e-03, 0., 0., 0., 3.75939859e-03, 1.87969930e-03, 0.,
          0., 9.39849671e-03, 3.75939859e-03, 1.87969930e-03, 0.,
          3.75939859e-03, 1.87969930e-03, 5.63909765e-03, 1.87969930e-03,
          3.75939859e-03, 1.87969930e-03, 0., 0., 3.75939859e-03, 0., 0.,
          7.51879718e-03, 1.87969930e-03, 1.87969930e-03, 0., 0., 0.,
          9.39849671e-03, 1.87969930e-03, 0., 1.87969930e-03, 0., 0., 0.,
          7.51879718e-03, 3.75939859e-03, 3.75939859e-03, 1.87969930e-03,
          3.75939859e-03, 0., 0., 0., 3.75939859e-03, 1.87969930e-03, 0.,
          9.39849671e-03, 0., 0., 1.87969930e-03, 0., 0., 5.63909765e-03,
          1.12781953e-02, 0., 0., 1.87969930e-03, 0., 0., 3.75939859e-03,
          0., 0., 1.87969930e-03, 0., 5.63909765e-03, 5.63909765e-03, 0. ]
      - [ 5.54528646e-03, 3.69685772e-03, 0., 5.54528646e-03,
          1.84842886e-03, 0., 0., 1.84842886e-03, 1.84842886e-03,
          1.84842886e-03, 3.69685772e-03, 0., 0., 1.84842886e-03, 0.,
          1.84842886e-03, 1.84842886e-03, 0., 0., 1.84842886e-03,
          7.39371544e-03, 0., 1.84842886e-03, 3.69685772e-03,
          3.69685772e-03, 7.39371544e-03, 0., 0., 0., 0., 1.84842886e-03,
          1.84842886e-03, 1.84842886e-03, 7.39371544e-03, 0., 0.,
          3.69685772e-03, 0., 3.69685772e-03, 0., 0., 0., 3.69685772e-03,
          0., 0., 0., 0., 0., 0., 9.24214441e-03, 1.84842886e-03, 0.,
          5.54528646e-03, 0., 1.84842886e-03, 3.69685772e-03, 0., 0.,
          1.84842886e-03, 1.84842886e-03, 0., 0., 0., 1.84842886e-03, 0.,
          1.84842886e-03, 0., 1.84842886e-03, 0., 1.29390024e-02,
          9.24214441e-03, 3.69685772e-03, 3.69685772e-03, 0.,
          9.24214441e-03, 1.84842886e-03, 9.24214441e-03, 5.54528646e-03,
          0., 5.54528646e-03, 0., 5.54528646e-03, 1.84842886e-03,
          3.69685772e-03, 0., 0., 0., 0., 0., 3.69685772e-03,
          3.69685772e-03, 0., 1.84842886e-03, 0., 1.84842886e-03, 0.,
          5.54528646e-03, 0., 1.84842886e-03, 1.84842886e-03,
          3.69685772e-03, 0., 3.69685772e-03, 0., 0., 0., 0.,
          1.47874309e-02, 3.69685772e-03, 5.54528646e-03, 0., 0.,
          1.84842886e-03, 1.84842886e-03, 0., 0., 1.84842886e-03,
          3.69685772e-03, 0., 0., 0., 3.69685772e-03, 0., 1.84842886e-03,
          1.84842886e-03, 0., 1.84842886e-03, 0., 1.84842886e-03,
          5.54528646e-03, 3.69685772e-03, 1.84842886e-03, 0., 0., 0.,
          5.54528646e-03, 0., 5.54528646e-03, 0., 0., 0., 3.69685772e-03,
          0., 0., 1.84842886e-03, 3.69685772e-03, 1.84842886e-03, 0., 0.,
          1.84842886e-03, 0., 0., 5.54528646e-03, 1.10905729e-02,
          1.84842886e-03, 0., 3.69685772e-03, 0., 0., 0., 1.84842886e-03,
          0., 0., 0., 3.69685772e-03, 1.84842886e-03, 0., 0., 0., 0., 0.,
          0., 0., 1.84842886e-03, 3.69685772e-03, 0., 1.84842886e-03, 0.,
          0., 1.84842886e-03, 1.84842886e-03, 0., 1.84842886e-03, 0.,
          1.84842886e-03, 3.69685772e-03, 0., 0., 1.84842886e-03, 0., 0.,
          0., 0., 9.24214441e-03, 1.84842886e-03, 0., 0., 1.84842886e-03,
          0., 3.69685772e-03, 1.84842886e-03, 7.39371544e-03, 0., 0., 0.,
          0., 0., 0., 1.84842886e-03, 0., 0., 1.84842886e-03,
          3.69685772e-03, 3.69685772e-03, 0., 3.69685772e-03, 0., 0., 0.,
          0., 0., 0., 1.84842886e-03, 0., 3.69685772e-03, 0., 0., 0.,
          1.84842886e-03, 0., 0., 3.69685772e-03, 3.69685772e-03, 0.,
          3.69685772e-03, 3.69685772e-03, 0., 0., 0., 0., 1.84842886e-03,
          3.69685772e-03, 0., 0., 1.10905729e-02, 1.10905729e-02,
          1.29390024e-02, 0., 0., 5.54528646e-03, 3.69685772e-03,
          1.84842886e-03, 0., 7.39371544e-03, 3.69685772e-03,
          1.29390024e-02, 0., 1.84842886e-03, 5.54528646e-03,
          1.84842888e-02, 0., 0., 3.69685772e-03, 0., 1.84842886e-03, 0.,
          3.69685772e-03, 3.69685772e-03, 3.69685772e-03, 1.84842886e-03,
          3.69685772e-03, 1.84842886e-03, 3.69685772e-03, 9.24214441e-03,
          0., 0., 0., 1.84842886e-03, 0., 1.84842886e-03, 0.,
          1.84842886e-03, 3.69685772e-03, 0., 0., 0., 5.54528646e-03, 0.,
          3.69685772e-03, 3.69685772e-03, 0., 1.84842886e-03,
          5.54528646e-03, 3.69685772e-03, 0., 1.47874309e-02,
          5.54528646e-03, 0., 0., 1.84842886e-03, 1.84842886e-03,
          3.69685772e-03, 0., 0., 0., 7.39371544e-03, 7.39371544e-03, 0.,
          0., 1.84842886e-03, 9.24214441e-03, 5.54528646e-03, 0., 0., 0.,
          5.54528646e-03, 0., 5.54528646e-03, 1.84842886e-03, 0., 0.,
          1.84842886e-03, 7.39371544e-03, 2.58780047e-02, 5.54528646e-03,
          1.84842886e-03, 1.84842886e-03, 0., 1.84842886e-03, 0.,
          3.69685772e-03, 0., 1.10905729e-02, 3.69685772e-03, 0.,
          5.54528646e-03, 1.84842886e-03, 0., 1.84842886e-03,
          1.84842886e-03, 0., 0., 0., 0., 1.84842886e-03, 0.,
          3.69685772e-03, 0., 9.24214441e-03, 0., 1.84842886e-03, 0.,
          1.84842886e-03, 9.24214441e-03, 0., 0., 1.84842886e-03,
          1.84842886e-03, 3.69685772e-03, 7.39371544e-03, 0.,
          7.39371544e-03, 0., 1.84842886e-03, 0., 0., 0., 1.84842886e-03,
          0., 5.54528646e-03, 1.84842886e-03, 3.69685772e-03, 0.,
          1.84842886e-03, 3.69685772e-03, 1.84842886e-03, 0., 0., 0., 0.,
          0., 1.84842886e-03, 1.84842886e-03, 1.84842886e-03, 0.,
          3.69685772e-03, 0., 3.69685772e-03, 5.54528646e-03,
          1.84842886e-03, 1.84842886e-03, 0., 0., 0., 3.69685772e-03,
          3.69685772e-03, 1.84842886e-03, 0., 0., 0., 3.69685772e-03,
          1.84842886e-03, 0., 0., 0., 5.54528646e-03, 0., 1.47874309e-02,
          0., 0., 0., 0., 0., 3.69685772e-03, 1.84842886e-03,
          3.69685772e-03, 1.84842886e-03, 1.84842886e-03, 0., 0.,
          3.69685772e-03, 1.84842886e-03, 0., 1.84842886e-03, 0., 0., 0.,
          0., 7.39371544e-03, 0., 1.84842886e-03, 3.69685772e-03, 0., 0.,
          0., 0., 0., 1.84842886e-03, 0., 0., 0., 3.69685772e-03, 0., 0.,
          3.69685772e-03, 0., 0., 1.84842886e-03, 0., 0., 0.,
          3.69685772e-03, 3.69685772e-03, 0., 0., 0., 0., 5.54528646e-03,
          5.54528646e-03, 0., 9.24214441e-03, 1.47874309e-02,
          3.69685772e-03, 3.69685772e-03, 0., 0., 0., 0., 7.39371544e-03,
          1.84842886e-03, 7.39371544e-03, 1.84842886e-03, 0., 0., 0.,
          5.54528646e-03, 1.84842886e-03, 0., 0., 0., 1.84842886e-03, 0.,
          1.84842886e-03, 0., 7.39371544e-03, 1.84842886e-03,
          3.69685772e-03, 0., 1.84842886e-03, 1.84842886e-03, 0., 0., 0.,
          0., 0., 1.84842886e-03, 0., 0., 0., 3.69685772e-03 ]
      - [ 5.92885399e-03, 7.90513866e-03, 3.95256933e-03, 3.95256933e-03,
          0., 0., 0., 0., 3.95256933e-03, 5.92885399e-03, 3.95256933e-03,
          0., 0., 0., 0., 0., 1.97628466e-03, 0., 1.97628466e-03, 0.,
          3.95256933e-03, 3.95256933e-03, 7.90513866e-03, 0.,
          1.97628466e-03, 1.97628466e-03, 5.92885399e-03, 0., 0., 0., 0.,
          0., 1.97628466e-03, 0., 1.97628466e-03, 0., 3.95256933e-03, 0.,
          3.95256933e-03, 1.97628466e-03, 1.97628466e-03, 0., 0., 0.,
          1.97628466e-03, 0., 5.92885399e-03, 0., 1.97628466e-03,
          3.95256933e-03, 0., 0., 0., 0., 1.97628466e-03, 5.92885399e-03,
          0., 1.97628466e-03, 5.92885399e-03, 1.97628466e-03, 0., 0.,
          1.97628466e-03, 0., 0., 0., 0., 0., 0., 5.92885399e-03,
          7.90513866e-03, 0., 3.95256933e-03, 0., 3.95256933e-03,
          1.97628466e-03, 3.95256933e-03, 7.90513866e-03, 0.,
          3.95256933e-03, 0., 1.97628466e-03, 1.97628466e-03,
          1.97628466e-03, 0., 0., 0., 3.95256933e-03, 0., 0., 0., 0.,
          1.97628466e-03, 0., 1.97628466e-03, 5.92885399e-03,
          1.97628466e-03, 3.95256933e-03, 0., 7.90513866e-03,
          1.97628466e-03, 3.95256933e-03, 1.97628466e-03, 0.,
          5.92885399e-03, 0., 0., 0., 1.97628466e-03, 1.97628466e-03, 0.,
          0., 0., 5.92885399e-03, 0., 0., 0., 3.95256933e-03,
          1.97628466e-03, 0., 0., 5.92885399e-03, 0., 0., 1.97628466e-03,
          0., 1.97628466e-03, 1.97628466e-03, 3.95256933e-03,
          1.97628466e-03, 0., 9.88142379e-03, 0., 0., 0., 7.90513866e-03,
          0., 0., 0., 0., 1.97628466e-03, 0., 0., 0., 5.92885399e-03,
          1.97628466e-03, 1.97628466e-03, 0., 0., 0., 1.97628466e-03, 0.,
          0., 3.95256933e-03, 3.95256933e-03, 3.95256933e-03,
          1.38339922e-02, 0., 1.97628466e-03, 0., 1.97628466e-03,
          3.95256933e-03, 0., 0., 3.95256933e-03, 1.97628466e-03, 0.,
          3.95256933e-03, 0., 0., 0., 1.97628466e-03, 1.97628466e-03, 0.,
          5.92885399e-03, 1.97628466e-03, 0., 0., 0., 1.97628466e-03, 0.,
          0., 0., 0., 1.97628466e-03, 5.92885399e-03, 1.97628466e-03, 0.,
          0., 0., 0., 0., 0., 1.97628466e-03, 0., 7.90513866e-03, 0., 0.,
          1.97628466e-03, 5.92885399e-03, 7.90513866e-03, 3.95256933e-03,
          0., 0., 0., 0., 0., 0., 0., 0., 1.97628466e-03, 0.,
          1.18577080e-02, 0., 0., 9.88142379e-03, 1.97628466e-03, 0., 0.,
          0., 1.97628466e-03, 0., 0., 0., 3.95256933e-03, 1.97628466e-03,
          1.97628466e-03, 5.92885399e-03, 0., 0., 0., 0., 1.97628466e-03,
          5.92885399e-03, 1.97628466e-03, 1.97628466e-03, 0., 0.,
          9.88142379e-03, 0., 1.97628466e-03, 3.95256933e-03, 0., 0.,
          3.95256933e-03, 0., 0., 3.95256933e-03, 0., 1.97628466e-03, 0.,
          1.97628466e-03, 1.97628466e-03, 0., 1.97628466e-03,
          3.95256933e-03, 0., 0., 1.97628466e-03, 2.76679844e-02, 0., 0.,
          7.90513866e-03, 3.95256933e-03, 3.95256933e-03, 0.,
          7.90513866e-03, 3.95256933e-03, 5.92885399e-03, 0.,
          7.90513866e-03, 1.97628466e-03, 0., 7.90513866e-03, 0.,
          5.92885399e-03, 0., 1.97628466e-03, 0., 0., 0., 3.95256933e-03,
          5.92885399e-03, 5.92885399e-03, 0., 0., 1.97628466e-03, 0., 0.,
          0., 3.95256933e-03, 0., 5.92885399e-03, 0., 0., 7.90513866e-03,
          3.95256933e-03, 3.95256933e-03, 0., 3.95256933e-03,
          1.97628466e-03, 1.97628466e-03, 0., 0., 0., 3.95256933e-03, 0.,
          0., 0., 1.97628466e-03, 3.95256933e-03, 3.95256933e-03, 0.,
          1.97628466e-03, 0., 0., 3.95256933e-03, 0., 1.97628466e-03,
          3.95256933e-03, 0., 3.95256933e-03, 9.88142379e-03,
          2.17391308e-02, 9.88142379e-03, 1.18577080e-02, 0., 0., 0.,
          1.97628466e-03, 0., 5.92885399e-03, 3.95256933e-03,
          5.92885399e-03, 0., 1.97628466e-03, 0., 0., 1.38339922e-02,
          3.95256933e-03, 0., 3.95256933e-03, 0., 1.97628466e-03, 0., 0.,
          1.97628466e-03, 0., 5.92885399e-03, 0., 0., 0., 5.92885399e-03,
          3.95256933e-03, 3.95256933e-03, 0., 1.97628466e-03, 0.,
          3.95256933e-03, 0., 0., 0., 0., 7.90513866e-03, 0., 0., 0.,
          1.97628466e-03, 1.97628466e-03, 3.95256933e-03, 0., 0.,
          1.97628466e-03, 1.97628466e-03, 1.18577080e-02, 1.97628466e-03,
          1.97628466e-03, 3.95256933e-03, 1.97628466e-03, 1.97628466e-03,
          1.97628466e-03, 1.97628466e-03, 0., 0., 0., 0., 0.,
          3.95256933e-03, 5.92885399e-03, 0., 3.95256933e-03, 0.,
          1.97628466e-03, 1.97628466e-03, 0., 0., 0., 1.97628466e-03,
          3.95256933e-03, 0., 3.95256933e-03, 0., 0., 0., 0.,
          5.92885399e-03, 0., 0., 0., 0., 0., 0., 0., 0., 1.97628466e-03,
          7.90513866e-03, 0., 1.97628466e-03, 0., 1.97628466e-03, 0.,
          1.97628466e-03, 0., 0., 1.97628466e-03, 1.97628466e-03,
          3.95256933e-03, 0., 3.95256933e-03, 0., 1.97628466e-03,
          7.90513866e-03, 0., 0., 0., 0., 1.97628466e-03, 3.95256933e-03,
          0., 3.95256933e-03, 0., 1.97628466e-03, 0., 0., 0., 0., 0.,
          1.38339922e-02, 0., 1.97628466e-03, 0., 1.97628466e-03, 0., 0.,
          0., 1.97628466e-03, 1.97628466e-03, 1.97628466e-03, 0.,
          1.97628466e-03, 1.97628466e-03, 1.97628466e-03, 3.95256933e-03,
          3.95256933e-03, 1.97628466e-03, 0., 0., 0., 5.92885399e-03,
          3.95256933e-03, 3.95256933e-03, 0., 0., 1.97628466e-03, 0., 0.,
          0., 5.92885399e-03, 0., 1.97628466e-03, 3.95256933e-03, 0.,
          9.88142379e-03, 0., 1.97628476e-02, 3.95256933e-03,
          3.95256933e-03, 0., 1.97628466e-03, 1.97628466e-03, 0., 0., 0.,
          0., 0., 5.92885399e-03, 0., 5.92885399e-03, 1.97628466e-03, 0. ]
      - [ 0., 1.72711571e-03, 0., 0., 0., 0., 0., 3.45423142e-03, 0., 0.,
          0., 1.72711571e-03, 0., 0., 1.72711571e-03, 1.38169257e-02, 0.,
          1.72711571e-03, 0., 0., 5.18134702e-03, 1.72711571e-03,
          5.18134702e-03, 0., 1.72711571e-03, 0., 1.72711571e-03, 0., 0.,
          0., 3.45423142e-03, 1.72711571e-03, 1.72711571e-03,
          3.45423142e-03, 3.45423142e-03, 0., 3.45423142e-03, 0., 0.,
          3.45423142e-03, 3.45423142e-03, 3.45423142e-03, 3.45423142e-03,
          0., 1.72711571e-03, 0., 5.18134702e-03, 0., 3.45423142e-03, 0.,
          3.45423142e-03, 0., 1.72711571e-03, 0., 0., 3.45423142e-03,
          1.72711571e-03, 0., 3.45423142e-03, 6.90846285e-03,
          1.72711571e-03, 0., 5.18134702e-03, 3.45423142e-03,
          1.72711571e-03, 3.45423142e-03, 0., 3.45423142e-03,
          1.72711571e-03, 3.45423142e-03, 1.72711571e-03, 5.18134702e-03,
          1.72711571e-03, 8.63557868e-03, 1.72711571e-03, 1.72711571e-03,
          6.90846285e-03, 6.90846285e-03, 1.72711571e-03, 0., 0., 0., 0.,
          3.45423142e-03, 3.45423142e-03, 0., 0., 0., 1.72711571e-03, 0.,
          1.38169257e-02, 0., 0., 3.45423142e-03, 0., 3.45423142e-03,
          1.72711571e-03, 1.72711571e-03, 0., 5.18134702e-03, 0., 0., 0.,
          0., 5.18134702e-03, 0., 1.72711571e-03, 3.45423142e-03,
          5.18134702e-03, 0., 1.20898103e-02, 1.72711571e-03,
          5.18134702e-03, 3.45423142e-03, 0., 0., 0., 6.90846285e-03, 0.,
          0., 0., 6.90846285e-03, 1.72711571e-03, 0., 1.72711571e-03, 0.,
          0., 0., 1.72711571e-03, 0., 1.72711571e-03, 3.45423142e-03, 0.,
          0., 1.72711571e-03, 3.45423142e-03, 0., 3.45423142e-03, 0., 0.,
          1.72711571e-03, 5.18134702e-03, 0., 0., 1.72711571e-03, 0.,
          8.63557868e-03, 1.38169257e-02, 1.72711571e-03, 0.,
          1.72711571e-03, 0., 8.63557868e-03, 0., 1.72711571e-03, 0., 0.,
          0., 3.45423142e-03, 0., 0., 1.72711571e-03, 0., 0., 0., 0., 0.,
          3.45423142e-03, 0., 0., 1.72711571e-03, 0., 1.72711571e-03, 0.,
          0., 0., 1.72711571e-03, 1.72711571e-03, 0., 3.45423142e-03, 0.,
          0., 1.03626940e-02, 0., 0., 1.72711571e-03, 3.45423142e-03,
          1.72711571e-03, 1.72711571e-03, 0., 0., 5.18134702e-03, 0.,
          1.72711571e-03, 3.45423142e-03, 1.72711571e-03, 1.72711571e-03,
          0., 3.45423142e-03, 1.72711574e-02, 3.45423142e-03, 0., 0., 0.,
          0., 0., 3.45423142e-03, 0., 1.72711571e-03, 0., 0.,
          1.55440411e-02, 1.72711571e-03, 8.63557868e-03, 0.,
          1.72711571e-03, 1.72711571e-03, 1.72711571e-03, 0., 0., 0., 0.,
          0., 0., 0., 1.72711571e-03, 5.18134702e-03, 0., 3.45423142e-03,
          0., 0., 3.45423142e-03, 0., 0., 0., 0., 0., 0., 5.18134702e-03,
          8.63557868e-03, 3.45423142e-03, 0., 1.72711571e-03, 0.,
          3.45423142e-03, 6.90846285e-03, 0., 0., 1.72711571e-03,
          1.72711571e-03, 0., 1.72711571e-03, 5.18134702e-03,
          6.90846285e-03, 3.45423142e-03, 5.18134702e-03, 1.72711571e-03,
          0., 0., 1.72711571e-03, 1.72711571e-03, 0., 0., 3.45423142e-03,
          1.72711571e-03, 1.72711571e-03, 1.03626940e-02, 1.72711571e-03,
          5.18134702e-03, 1.72711571e-03, 1.72711571e-03, 3.45423142e-03,
          1.72711571e-03, 1.72711571e-03, 0., 1.03626940e-02, 0., 0., 0.,
          1.72711571e-03, 0., 5.18134702e-03, 0., 1.72711571e-03, 0., 0.,
          0., 0., 0., 0., 3.45423142e-03, 5.18134702e-03, 6.90846285e-03,
          1.03626940e-02, 8.63557868e-03, 1.72711571e-03, 5.18134702e-03,
          1.72711571e-03, 0., 0., 1.72711571e-03, 0., 0., 1.72711571e-03,
          1.72711571e-03, 8.63557868e-03, 6.90846285e-03, 0., 0.,
          1.72711571e-03, 0., 0., 0., 0., 3.45423142e-03, 3.45423142e-03,
          1.72711571e-03, 1.72711571e-03, 1.72711571e-03, 1.72711571e-03,
          0., 1.72711571e-03, 6.90846285e-03, 1.20898103e-02,
          5.18134702e-03, 1.72711571e-03, 0., 1.72711571e-03,
          3.45423142e-03, 1.72711571e-03, 3.45423142e-03, 0., 0.,
          3.45423142e-03, 0., 3.45423142e-03, 1.72711571e-03, 0.,
          3.45423142e-03, 3.45423142e-03, 0., 3.45423142e-03,
          3.45423142e-03, 0., 0., 6.90846285e-03, 6.90846285e-03,
          5.18134702e-03, 1.72711571e-03, 0., 5.18134702e-03, 0.,
          1.72711571e-03, 5.18134702e-03, 3.45423142e-03, 1.72711571e-03,
          0., 3.45423142e-03, 5.18134702e-03, 6.90846285e-03, 0., 0.,
          3.45423142e-03, 1.72711571e-03, 0., 1.72711571e-03, 0.,
          1.72711571e-03, 0., 0., 8.63557868e-03, 1.38169257e-02, 0.,
          1.72711571e-03, 0., 0., 0., 0., 0., 0., 5.18134702e-03,
          1.72711571e-03, 1.72711571e-03, 3.45423142e-03, 5.18134702e-03,
          0., 0., 0., 0., 0., 3.45423142e-03, 0., 0., 0., 5.18134702e-03,
          1.72711571e-03, 0., 0., 0., 0., 1.72711571e-03, 3.45423142e-03,
          0., 0., 3.45423142e-03, 1.72711571e-03, 0., 5.18134702e-03,
          1.72711571e-03, 0., 0., 0., 0., 3.45423142e-03, 5.18134702e-03,
          3.45423142e-03, 5.18134702e-03, 1.72711571e-03, 0.,
          1.72711571e-03, 1.72711571e-03, 1.72711571e-03, 8.63557868e-03,
          1.72711571e-03, 1.72711571e-03, 0., 3.45423142e-03,
          3.45423142e-03, 1.72711571e-03, 0., 0., 1.72711571e-03,
          1.72711571e-03, 0., 3.45423142e-03, 1.72711571e-03, 0.,
          1.72711571e-03, 0., 0., 3.45423142e-03, 5.18134702e-03,
          1.72711571e-03, 1.72711571e-03, 1.72711571e-03, 1.72711571e-03,
          0., 1.20898103e-02, 1.72711571e-03, 1.72711571e-03,
          1.72711571e-03, 1.72711571e-03, 1.72711571e-03, 0., 0.,
          3.45423142e-03, 1.72711571e-03, 0., 1.72711571e-03, 0., 0.,
          3.45423142e-03, 1.72711571e-03, 0., 0., 0., 1.72711571e-03, 0.,
          3.45423142e-03, 0., 0., 5.18134702e-03, 0., 0., 1.72711571e-03,
          1.72711571e-03, 0., 3.45423142e-03, 0., 3.45423142e-03,
          1.72711571e-03, 1.72711571e-03, 0., 0., 1.03626940e-02, 0.,
          3.45423142e-03, 0., 1.72711571e-03, 1.72711571e-03,
          1.72711571e-03, 1.72711571e-03, 3.45423142e-03, 0.,
          1.72711571e-03, 5.18134702e-03, 0., 0., 8.63557868e-03,
          5.18134702e-03 ]
      - [ 3.75939859e-03, 0., 1.87969930e-03, 1.87969930e-03,
          1.87969930e-03, 0., 0., 3.75939859e-03, 1.87969930e-03,
          1.87969930e-03, 1.87969930e-03, 0., 0., 0., 1.87969930e-03, 0.,
          3.75939859e-03, 1.12781953e-02, 0., 0., 1.87969930e-03, 0.,
          1.12781953e-02, 1.87969930e-03, 1.87969930e-03, 5.63909765e-03,
          3.75939859e-03, 0., 1.87969930e-03, 1.87969930e-03,
          3.75939859e-03, 0., 0., 0., 3.75939859e-03, 0., 1.87969930e-03,
          0., 1.87969930e-03, 1.87969930e-03, 0., 1.87969930e-03, 0., 0.,
          1.87969930e-03, 0., 1.87969930e-03, 0., 1.87969930e-03, 0., 0.,
          0., 0., 0., 0., 3.75939859e-03, 0., 5.63909765e-03,
          3.75939859e-03, 0., 0., 1.87969930e-03, 0., 1.87969930e-03,
          3.75939859e-03, 7.51879718e-03, 1.87969930e-03, 7.51879718e-03,
          1.87969930e-03, 7.51879718e-03, 1.87969930e-03, 5.63909765e-03,
          1.87969930e-03, 0., 3.75939859e-03, 1.87969930e-03, 0.,
          5.63909765e-03, 1.87969930e-03, 0., 1.87969930e-03, 0., 0.,
          5.63909765e-03, 0., 1.87969930e-03, 0., 1.87969930e-03,
          1.87969930e-03, 0., 0., 0., 0., 1.87969930e-03, 5.63909765e-03,
          7.51879718e-03, 0., 3.75939859e-03, 0., 0., 1.87969930e-03, 0.,
          0., 0., 0., 3.75939859e-03, 0., 9.39849671e-03, 1.87969930e-03,
          9.39849671e-03, 7.51879718e-03, 0., 7.51879718e-03, 0., 0., 0.,
          1.12781953e-02, 5.63909765e-03, 1.87969930e-03, 0.,
          1.87969930e-03, 3.75939859e-03, 3.75939859e-03, 0.,
          7.51879718e-03, 0., 1.87969930e-03, 1.87969930e-03,
          1.87969930e-03, 3.75939859e-03, 7.51879718e-03, 3.75939859e-03,
          0., 0., 0., 0., 0., 0., 1.87969930e-03, 0., 1.87969930e-03,
          1.87969930e-03, 0., 0., 1.87969930e-03, 0., 3.75939859e-03,
          5.63909765e-03, 0., 0., 5.63909765e-03, 1.87969930e-03,
          3.75939859e-03, 0., 3.75939859e-03, 1.87969930e-03, 0., 0.,
          1.87969930e-03, 0., 1.87969930e-03, 0., 0., 0., 0.,
          1.87969930e-03, 1.87969930e-03, 3.75939859e-03, 0., 0.,
          1.87969930e-03, 0., 1.87969930e-03, 0., 3.75939859e-03, 0.,
          5.63909765e-03, 0., 0., 3.75939859e-03, 0., 1.87969930e-03,
          1.87969930e-03, 0., 1.87969930e-03, 0., 5.63909765e-03,
          3.75939859e-03, 3.75939859e-03, 1.87969930e-03, 0.,
          3.75939859e-03, 1.87969930e-03, 1.87969930e-03, 0.,
          3.75939859e-03, 1.87969930e-03, 0., 3.75939859e-03,
          3.75939859e-03, 0., 1.87969930e-03, 0., 0., 0., 0., 0., 0., 0.,
          0., 0., 3.75939859e-03, 3.75939859e-03, 3.75939859e-03, 0.,
          1.87969930e-03, 0., 0., 0., 0., 0., 0., 1.87969930e-03,
          1.87969930e-03, 3.75939859e-03, 0., 1.87969930e-03,
          3.75939859e-03, 0., 0., 0., 0., 1.87969930e-03, 1.87969930e-03,
          3.75939859e-03, 3.75939859e-03, 0., 0., 3.75939859e-03, 0., 0.,
          0., 5.63909765e-03, 0., 3.75939859e-03, 1.87969930e-03,
          3.75939859e-03, 1.87969930e-03, 5.63909765e-03, 3.75939859e-03,
          0., 3.75939859e-03, 0., 3.75939859e-03, 0., 0., 0., 0.,
          1.87969930e-03, 5.63909765e-03, 0., 1.87969930e-03,
          5.63909765e-03, 0., 5.63909765e-03, 0., 9.39849671e-03,
          9.39849671e-03, 1.87969930e-03, 0., 5.63909765e-03,
          9.39849671e-03, 5.63909765e-03, 1.87969930e-03, 3.75939859e-03,
          5.63909765e-03, 0., 3.75939859e-03, 0., 0., 0., 0.,
          9.39849671e-03, 1.87969930e-03, 0., 0., 1.87969930e-03, 0., 0.,
          0., 1.87969930e-03, 3.75939859e-03, 7.51879718e-03, 0., 0., 0.,
          5.63909765e-03, 0., 0., 1.87969930e-03, 5.63909765e-03, 0., 0.,
          5.63909765e-03, 3.75939859e-03, 9.39849671e-03, 3.75939859e-03,
          3.75939859e-03, 1.87969930e-03, 7.51879718e-03, 1.87969930e-03,
          0., 0., 1.87969930e-03, 3.75939859e-03, 3.75939859e-03, 0., 0.,
          1.87969930e-03, 3.75939859e-03, 0., 3.75939859e-03,
          3.75939859e-03, 1.31578948e-02, 5.63909765e-03, 1.87969930e-03,
          1.87969930e-03, 0., 0., 0., 3.75939859e-03, 1.87969930e-03,
          1.87969930e-03, 3.75939859e-03, 0., 1.87969930e-03,
          9.39849671e-03, 0., 5.63909765e-03, 0., 0., 0., 0., 0.,
          1.87969930e-03, 1.87969930e-03, 1.87969930e-03, 0.,
          1.87969930e-03, 0., 1.87969930e-03, 0., 0., 1.50375944e-02,
          1.87969930e-03, 1.87969930e-03, 0., 3.75939859e-03,
          5.63909765e-03, 0., 0., 1.87969930e-03, 5.63909765e-03,
          3.75939859e-03, 1.87969930e-03, 0., 0., 0., 0., 1.87969930e-03,
          1.87969930e-03, 7.51879718e-03, 0., 1.87969930e-03, 0.,
          3.75939859e-03, 1.87969930e-03, 1.87969930e-03, 0.,
          1.87969930e-03, 0., 1.87969930e-03, 0., 0., 0., 1.87969930e-03,
          0., 3.75939859e-03, 1.87969930e-03, 0., 0., 0., 0., 0.,
          1.87969930e-03, 1.87969930e-03, 0., 0., 1.87969930e-03, 0.,
          1.87969930e-03, 3.75939859e-03, 0., 0., 0., 0., 0., 0.,
          1.87969930e-03, 1.87969930e-03, 0., 3.75939859e-03, 0.,
          5.63909765e-03, 3.75939859e-03, 0., 0., 5.63909765e-03, 0., 0.,
          1.87969930e-03, 7.51879718e-03, 7.51879718e-03, 1.87969930e-03,
          0., 0., 5.63909765e-03, 0., 0., 0., 3.75939859e-03,
          7.51879718e-03, 1.87969930e-03, 7.51879718e-03, 3.75939859e-03,
          0., 3.75939859e-03, 1.87969930e-03, 0., 7.51879718e-03,
          3.75939859e-03, 9.39849671e-03, 3.75939859e-03, 1.87969930e-03,
          0., 5.63909765e-03, 0., 3.75939859e-03, 0., 0., 0., 0.,
          1.87969930e-03, 1.87969930e-03, 0., 1.87969930e-03,
          9.39849671e-03, 3.75939859e-03, 0., 0., 0., 5.63909765e-03, 0.,
          1.87969930e-03, 5.63909765e-03, 0., 7.51879718e-03, 0.,
          1.87969930e-03, 9.39849671e-03, 3.75939859e-03, 0., 0., 0., 0.,
          0., 0., 5.63909765e-03, 1.87969930e-03, 5.63909765e-03,
          1.87969930e-03, 0., 3.75939859e-03, 0., 1.12781953e-02, 0.,
          3.75939859e-03, 0., 0., 1.87969930e-03, 1.87969930e-03,
          1.87969930e-03, 0., 0., 0., 1.87969930e-03, 0., 1.87969930e-03,
          1.87969930e-03, 0. ]
      - [ 0., 1.89035921e-03, 1.89035921e-03, 0., 0., 0., 0.,
          1.13421548e-02, 3.78071843e-03, 3.78071843e-03, 1.89035921e-03,
          0., 0., 0., 0., 0., 7.56143685e-03, 1.89035921e-03, 0.,
          7.56143685e-03, 1.89035921e-03, 3.78071843e-03, 1.70132332e-02,
          3.78071843e-03, 3.78071843e-03, 0., 1.89035921e-03, 0., 0.,
          1.89035921e-03, 7.56143685e-03, 3.78071843e-03, 0., 0.,
          5.67107741e-03, 0., 0., 5.67107741e-03, 0., 7.56143685e-03,
          1.89035921e-03, 0., 1.89035921e-03, 0., 3.78071843e-03, 0., 0.,
          0., 1.89035921e-03, 9.45179630e-03, 0., 0., 1.89035921e-03, 0.,
          0., 7.56143685e-03, 7.56143685e-03, 9.45179630e-03,
          3.78071843e-03, 1.89035921e-03, 0., 1.89035921e-03,
          3.78071843e-03, 5.67107741e-03, 0., 0., 0., 1.13421548e-02,
          3.78071843e-03, 1.89035921e-03, 7.56143685e-03, 0.,
          1.89035921e-03, 5.67107741e-03, 0., 0., 9.45179630e-03,
          3.78071843e-03, 1.89035921e-03, 1.89035921e-03, 0.,
          3.78071843e-03, 0., 5.67107741e-03, 0., 1.89035921e-03, 0., 0.,
          1.89035921e-03, 0., 0., 0., 1.89035921e-03, 0., 9.45179630e-03,
          3.78071843e-03, 3.78071843e-03, 0., 1.89035921e-03,
          3.78071843e-03, 5.67107741e-03, 3.78071843e-03, 0., 0., 0.,
          3.78071843e-03, 0., 1.13421548e-02, 7.56143685e-03, 0.,
          1.89035921e-03, 0., 0., 1.89035921e-03, 0., 0., 5.67107741e-03,
          0., 1.89035921e-03, 0., 0., 0., 0., 0., 5.67107741e-03, 0., 0.,
          5.67107741e-03, 3.78071843e-03, 7.56143685e-03, 0.,
          1.89035921e-03, 0., 0., 1.89035921e-03, 3.78071843e-03, 0., 0.,
          1.89035921e-03, 0., 0., 3.78071843e-03, 0., 0., 7.56143685e-03,
          1.89035921e-03, 0., 1.51228737e-02, 0., 0., 9.45179630e-03, 0.,
          7.56143685e-03, 0., 1.89035921e-03, 0., 7.56143685e-03, 0., 0.,
          0., 1.89035921e-03, 1.89035921e-03, 0., 0., 0., 0.,
          1.89035921e-03, 7.56143685e-03, 0., 0., 1.89035921e-03,
          1.89035921e-03, 0., 0., 3.78071843e-03, 0., 7.56143685e-03,
          3.78071843e-03, 0., 3.78071843e-03, 0., 0., 0., 0., 0.,
          5.67107741e-03, 1.89035921e-03, 0., 0., 0., 0., 5.67107741e-03,
          1.89035921e-03, 0., 0., 3.78071843e-03, 1.89035921e-03, 0., 0.,
          3.78071843e-03, 3.78071843e-03, 3.78071843e-03, 0., 0., 0., 0.,
          0., 0., 3.78071843e-03, 0., 3.78071843e-03, 1.89035921e-03,
          1.89035921e-03, 0., 0., 1.89035921e-03, 1.89035921e-03, 0., 0.,
          0., 0., 0., 0., 0., 1.89035921e-03, 3.78071843e-03, 0.,
          7.56143685e-03, 1.13421548e-02, 0., 0., 7.56143685e-03,
          1.89035921e-03, 1.89035921e-03, 0., 1.89035921e-03,
          1.89035921e-03, 0., 3.78071843e-03, 3.78071843e-03,
          3.78071843e-03, 0., 5.67107741e-03, 0., 1.89035921e-03,
          5.67107741e-03, 0., 5.67107741e-03, 1.89035921e-03,
          3.78071843e-03, 0., 1.89035921e-03, 0., 0., 0., 1.89035921e-03,
          0., 1.89035921e-03, 5.67107741e-03, 1.89035921e-03, 0.,
          1.89035921e-03, 0., 1.89035921e-03, 1.89035921e-03, 0.,
          3.78071843e-03, 5.67107741e-03, 7.56143685e-03, 0.,
          1.89035921e-03, 3.78071843e-03, 0., 3.78071843e-03, 0., 0., 0.,
          5.67107741e-03, 1.89035921e-03, 3.78071843e-03, 0.,
          3.78071843e-03, 1.89035921e-03, 1.89035921e-03, 0., 0.,
          5.67107741e-03, 3.78071843e-03, 9.45179630e-03, 0., 0.,
          1.89035921e-03, 3.78071843e-03, 3.78071843e-03, 0.,
          5.67107741e-03, 1.89035921e-03, 0., 0., 0., 0., 0., 0.,
          1.89035921e-03, 0., 1.32325143e-02, 9.45179630e-03,
          1.89035921e-03, 0., 0., 5.67107741e-03, 0., 0., 3.78071843e-03,
          0., 1.89035921e-03, 0., 0., 0., 0., 0., 1.89035921e-03,
          3.78071843e-03, 1.89035921e-03, 7.56143685e-03, 0.,
          3.78071843e-03, 1.89035921e-03, 0., 0., 0., 1.13421548e-02, 0.,
          1.89035921e-03, 0., 1.89035921e-03, 0., 1.89035921e-03,
          1.89035921e-03, 0., 0., 1.89035921e-03, 0., 0., 0.,
          1.89035921e-03, 3.78071843e-03, 1.89035921e-03, 0., 0.,
          1.89035921e-03, 0., 0., 1.89035921e-03, 0., 3.78071843e-03,
          5.67107741e-03, 3.78071843e-03, 9.45179630e-03, 0., 0., 0.,
          3.78071843e-03, 1.89035921e-03, 0., 0., 0., 0., 3.78071843e-03,
          3.78071843e-03, 0., 0., 0., 0., 1.89035921e-03, 1.89035921e-03,
          0., 0., 5.67107741e-03, 0., 1.89035921e-03, 3.78071843e-03,
          1.89035921e-03, 0., 0., 1.89035921e-03, 3.78071843e-03, 0.,
          1.89035921e-03, 7.56143685e-03, 0., 0., 0., 1.89035921e-03, 0.,
          7.56143685e-03, 0., 0., 0., 0., 0., 1.89035921e-03, 0., 0., 0.,
          3.78071843e-03, 0., 9.45179630e-03, 0., 1.89035921e-03,
          1.89035921e-03, 1.89035921e-03, 0., 1.89035921e-03,
          1.89035921e-03, 1.89035921e-03, 0., 9.45179630e-03, 0., 0.,
          1.89035921e-03, 1.89035921e-03, 0., 0., 3.78071843e-03, 0.,
          1.89035921e-03, 3.78071843e-03, 0., 0., 0., 0., 0.,
          1.89035921e-03, 0., 0., 1.89035921e-03, 9.45179630e-03,
          1.89035921e-03, 1.89035921e-03, 0., 1.13421548e-02, 0.,
          1.89035921e-03, 0., 1.89035921e-03, 0., 1.32325143e-02,
          3.78071843e-03, 0., 1.89035921e-03, 0., 3.78071843e-03,
          1.89035921e-03, 0., 5.67107741e-03, 0., 3.78071843e-03,
          3.78071843e-03, 1.89035921e-03, 0., 1.89035921e-03,
          3.78071843e-03, 9.45179630e-03, 0., 0., 1.89035921e-03, 0.,
          1.89035921e-03, 0., 1.89035921e-03, 5.67107741e-03,
          5.67107741e-03, 0., 0., 1.89035921e-03, 0., 1.89035921e-03,
          1.89035921e-03, 5.67107741e-03, 0., 0., 0., 0., 1.13421548e-02,
          3.78071843e-03, 0., 1.89035921e-03, 0., 0., 0., 0.,
          1.89035921e-03, 0., 0., 1.89035921e-03, 0., 1.89035921e-03, 0.,
          0. ]
      - [ 0., 1.91204587e-03, 3.82409175e-03, 1.91204587e-03,
          3.82409175e-03, 0., 3.82409175e-03, 3.82409175e-03,
          1.14722755e-02, 1.91204587e-03, 1.91204587e-03, 0., 0.,
          3.82409175e-03, 1.91204587e-03, 0., 3.82409175e-03,
          3.82409175e-03, 0., 0., 3.82409175e-03, 3.82409175e-03,
          3.82409175e-03, 5.73613774e-03, 1.91204587e-03, 1.91204587e-03,
          1.91204587e-03, 0., 0., 1.91204587e-03, 7.64818350e-03,
          1.91204587e-03, 0., 1.91204587e-03, 0., 0., 0., 3.82409175e-03,
          3.82409175e-03, 0., 1.91204587e-03, 1.91204587e-03, 0., 0.,
          1.91204587e-03, 0., 0., 0., 0., 0., 1.91204587e-03, 0., 0., 0.,
          1.91204587e-03, 0., 5.73613774e-03, 3.82409175e-03,
          1.91204587e-03, 7.64818350e-03, 0., 1.91204587e-03,
          1.91204587e-03, 1.91204587e-03, 0., 9.56022926e-03, 0.,
          7.64818350e-03, 0., 1.91204587e-03, 1.14722755e-02,
          3.82409175e-03, 0., 1.91204587e-03, 0., 5.73613774e-03,
          3.82409175e-03, 1.91204587e-03, 5.73613774e-03, 1.91204587e-03,
          0., 1.91204587e-03, 0., 0., 0., 1.91204587e-03, 0.,
          3.82409175e-03, 3.82409175e-03, 1.91204587e-03, 0., 0.,
          9.56022926e-03, 0., 1.91204587e-03, 0., 0., 3.82409175e-03, 0.,
          0., 0., 1.91204587e-03, 0., 0., 9.56022926e-03, 5.73613774e-03,
          0., 1.91204587e-03, 1.52963670e-02, 0., 0., 0., 1.91204587e-03,
          1.91204587e-03, 0., 0., 0., 1.91204587e-03, 0., 0., 0.,
          1.91204587e-03, 0., 0., 1.91204587e-03, 0., 0., 3.82409175e-03,
          3.82409175e-03, 1.91204587e-03, 3.82409175e-03, 3.82409175e-03,
          0., 0., 3.82409175e-03, 1.91204587e-03, 0., 5.73613774e-03, 0.,
          0., 1.91204587e-03, 1.91204587e-03, 9.56022926e-03, 0.,
          1.91204587e-03, 0., 0., 2.29445510e-02, 0., 1.91204587e-03,
          5.73613774e-03, 0., 0., 5.73613774e-03, 1.91204587e-03, 0.,
          1.91204587e-03, 0., 0., 0., 0., 0., 0., 0., 0., 1.91204587e-03,
          1.14722755e-02, 5.73613774e-03, 0., 0., 0., 3.82409175e-03,
          1.91204587e-03, 1.91204587e-03, 0., 0., 1.91204587e-03,
          5.73613774e-03, 0., 1.91204587e-03, 0., 0., 1.91204587e-03,
          3.82409175e-03, 0., 1.91204587e-03, 5.73613774e-03, 0., 0.,
          1.91204587e-03, 0., 1.91204587e-03, 0., 1.91204587e-03, 0.,
          5.73613774e-03, 9.56022926e-03, 0., 0., 5.73613774e-03,
          7.64818350e-03, 1.91204587e-03, 3.82409175e-03, 0., 0., 0., 0.,
          0., 0., 0., 0., 1.91204587e-03, 5.73613774e-03, 7.64818350e-03,
          0., 5.73613774e-03, 0., 0., 0., 0., 5.73613774e-03, 0., 0., 0.,
          0., 0., 0., 0., 5.73613774e-03, 0., 1.91204587e-03, 0.,
          1.91204587e-03, 0., 0., 3.82409175e-03, 0., 0., 1.91204587e-03,
          3.82409175e-03, 0., 1.14722755e-02, 0., 1.91204587e-03,
          1.91204587e-03, 1.91204587e-03, 1.91204587e-03, 0.,
          5.73613774e-03, 0., 1.91204587e-03, 0., 3.82409175e-03,
          5.73613774e-03, 3.82409175e-03, 0., 0., 3.82409175e-03,
          1.91204587e-03, 5.73613774e-03, 0., 0., 0., 3.82409175e-03,
          5.73613774e-03, 1.91204587e-03, 1.91204587e-03, 0.,
          5.73613774e-03, 0., 0., 3.82409175e-03, 1.91204587e-03,
          7.64818350e-03, 1.91204587e-03, 1.91204587e-03, 0.,
          1.91204587e-03, 1.91204587e-03, 1.91204587e-03, 0.,
          5.73613774e-03, 1.91204587e-03, 1.91204587e-03, 1.91204587e-03,
          0., 9.56022926e-03, 0., 1.91204587e-03, 0., 1.91204587e-03,
          7.64818350e-03, 3.82409175e-03, 3.82409175e-03, 9.56022926e-03,
          3.82409175e-03, 1.91204587e-03, 1.91204587e-03, 0., 0., 0., 0.,
          0., 1.91204587e-03, 0., 1.91204587e-03, 0., 0., 0., 0.,
          1.91204587e-03, 1.91204587e-03, 0., 3.82409175e-03,
          1.91204587e-03, 0., 3.82409175e-03, 0., 0., 0., 0.,
          1.91204587e-03, 5.73613774e-03, 1.14722755e-02, 3.82409175e-03,
          1.91204587e-03, 0., 0., 0., 0., 0., 5.73613774e-03,
          1.91204587e-03, 1.91204587e-03, 0., 1.91204587e-03, 0., 0.,
          1.91204587e-03, 1.14722755e-02, 0., 1.91204587e-03, 0., 0.,
          1.91204587e-03, 0., 1.91204587e-03, 1.91204587e-03, 0., 0.,
          7.64818350e-03, 7.64818350e-03, 5.73613774e-03, 0., 0., 0.,
          1.91204587e-03, 0., 9.56022926e-03, 5.73613774e-03, 0., 0., 0.,
          7.64818350e-03, 0., 0., 1.91204587e-03, 1.91204587e-03, 0., 0.,
          1.91204587e-03, 5.73613774e-03, 1.91204587e-03, 0.,
          1.91204587e-03, 0., 0., 0., 1.91204587e-03, 1.91204587e-03,
          7.64818350e-03, 9.56022926e-03, 0., 0., 1.91204587e-03,
          1.91204587e-03, 3.82409175e-03, 0., 7.64818350e-03,
          3.82409175e-03, 1.91204587e-03, 0., 0., 0., 0., 1.91204587e-03,
          0., 0., 3.82409175e-03, 0., 1.91204587e-03, 1.91204587e-03, 0.,
          0., 1.91204587e-03, 1.91204587e-03, 0., 0., 3.82409175e-03, 0.,
          9.56022926e-03, 0., 0., 1.91204587e-03, 1.91204587e-03, 0.,
          1.91204587e-03, 3.82409175e-03, 1.91204587e-03, 1.91204587e-03,
          3.82409175e-03, 0., 0., 0., 1.91204587e-03, 0., 1.91204587e-03,
          1.91204587e-03, 3.82409175e-03, 0., 0., 1.91204587e-03,
          3.82409175e-03, 1.91204587e-03, 3.82409175e-03, 0.,
          3.82409175e-03, 0., 0., 0., 5.73613774e-03, 0., 0., 0., 0., 0.,
          0., 3.82409175e-03, 3.82409175e-03, 0., 0., 0., 1.91204587e-03,
          0., 0., 5.73613774e-03, 1.72084123e-02, 5.73613774e-03,
          5.73613774e-03, 1.91204587e-03, 0., 7.64818350e-03,
          1.91204587e-03, 1.91204587e-03, 1.91204587e-03, 0.,
          3.82409175e-03, 1.91204587e-03, 7.64818350e-03, 0.,
          1.91204587e-03, 3.82409175e-03, 5.73613774e-03, 0., 0., 0.,
          1.91204587e-03, 1.91204587e-03, 1.91204587e-03, 1.91204587e-03,
          0., 1.91204587e-03, 0., 0., 5.73613774e-03, 0., 7.64818350e-03,
          0., 0., 1.91204587e-03, 0., 3.82409175e-03, 1.91204587e-03, 0.,
          0., 0., 0., 1.91204587e-03, 5.73613774e-03, 0. ]
      - [ 4.05679503e-03, 2.02839752e-03, 6.08519278e-03, 4.05679503e-03,
          0., 0., 0., 0., 0., 2.02839752e-03, 0., 4.05679503e-03, 0.,
